version: 100
cost-factor: 1
maxid: 57
xsize: 1

B
I
O

U01:%x[-1,0]
U02:%x[0,0]
U05:%x[-1,0]/%x[0,0]
B

36 B
9 U01:W1
18 U01:W2
27 U01:W3
51 U01:W5
0 U01:_B-1
3 U02:W1
12 U02:W2
21 U02:W3
30 U02:W4
45 U02:W5
15 U05:W1/W2
24 U05:W2/W3
33 U05:W3/W4
54 U05:W5/W2
6 U05:_B-1/W1
48 U05:_B-1/W5

0.7215506726242515
-0.4119542585232275
-0.3095964141010230
0.3605260222411798
-0.2041695749432899
-0.1563564472978896
0.3605260222411798
-0.2041695749432899
-0.1563564472978896
-0.2386562623557406
0.3515152728763906
-0.1128590105206501
-0.3913014428658079
0.6802525686053973
-0.2889511257395893
-0.2386562623557406
0.3515152728763906
-0.1128590105206501
-0.1756234801163665
0.4451579993602296
-0.2695345192438613
-0.1756234801163665
0.4451579993602296
-0.2695345192438613
-0.1756234801163665
0.4451579993602296
-0.2695345192438613
-0.2074486651538249
-0.2862383061881164
0.4936869713419436
-0.2074486651538249
-0.2862383061881164
0.4936869713419436
-0.2074486651538249
-0.2862383061881164
0.4936869713419436
-0.3299787203257413
0.9691853382565846
-0.3319356877786998
-0.3521814522208763
0.2157310942912382
0.5211693716430297
-0.0922134155893817
-0.3457441707703137
-0.2540323575058390
0.3610246503830717
-0.2077846835799376
-0.1532399668031333
0.3610246503830717
-0.2077846835799376
-0.1532399668031333
-0.1526451805100672
0.3287372957290066
-0.1760921152189392
-0.1526451805100672
0.3287372957290066
-0.1760921152189392
