version: 100
cost-factor: 1
maxid: 153706
xsize: 3

B-ADJP
B-ADVP
B-NP
B-PP
B-PRT
B-SBAR
B-VP
I-ADJP
I-ADVP
I-NP
I-PP
I-SBAR
I-VP
O

U00:%x[-2,0]
U01:%x[-1,0]
U02:%x[0,0]
U03:%x[1,0]
U04:%x[2,0]
U05:%x[-1,0]/%x[0,0]
U06:%x[0,0]/%x[1,0]
U10:%x[-2,1]
U11:%x[-1,1]
U12:%x[0,1]
U13:%x[1,1]
U14:%x[2,1]
U15:%x[-2,1]/%x[-1,1]
U16:%x[-1,1]/%x[0,1]
U17:%x[0,1]/%x[1,1]
U18:%x[1,1]/%x[2,1]
U20:%x[-2,1]/%x[-1,1]/%x[0,1]
U21:%x[-1,1]/%x[0,1]/%x[1,1]
U22:%x[0,1]/%x[1,1]/%x[2,1]
U30:%x[-2,2]
U31:%x[-1,2]
U32:%x[0,2]
U33:%x[1,2]
U34:%x[2,2]
B

7770 B
29414 U00:#
30282 U00:$
17780 U00:%
34762 U00:&
137382 U00:'
22400 U00:''
143528 U00:'ll
7252 U00:'s
140938 U00:'ve
4690 U00:,
30072 U00:-LRB-
30758 U00:-RRB-
58940 U00:0.1
45948 U00:1.3
75208 U00:1.5890
75838 U00:1.5940
60746 U00:1.6
41286 U00:1.8
87794 U00:1.8470
87458 U00:1.8578
101808 U00:1.875
124446 U00:10
100254 U00:106.6
82068 U00:13
90174 U00:141.35
88928 U00:141.70
89838 U00:141.95
88718 U00:142.43
18354 U00:15
133546 U00:150
17612 U00:16
95424 U00:19
83272 U00:190
126980 U00:1980
29652 U00:2
100912 U00:2,664,098
32102 U00:2.2
33194 U00:2.3
92638 U00:2.4
77070 U00:2.90
76034 U00:2.9429
75474 U00:2.9495
91784 U00:20
104636 U00:233,000
124726 U00:250
30478 U00:3.2
59878 U00:3.8
125762 U00:30
105294 U00:30,000
132538 U00:35
105742 U00:35.50
105882 U00:36.50
93352 U00:366.50
91448 U00:367.30
101570 U00:38
124040 U00:4
148386 U00:4.7
94976 U00:40
99610 U00:40-a-share
152866 U00:5.3
61152 U00:5.4
133938 U00:6.4
134554 U00:8
104020 U00:8.7
94542 U00:A.P.
98812 U00:An
69762 U00:Analysts
71624 U00:And
139888 U00:Arthur
37128 U00:At
7028 U00:August
82908 U00:Average
26908 U00:Bank
34440 U00:Baring
128548 U00:Bernard
108626 U00:Both
108010 U00:Brick
26068 U00:Briscoe
35686 U00:Britain
34608 U00:Brothers
11774 U00:But
150934 U00:Calif.
140168 U00:Cambridge
130676 U00:Carriers
64708 U00:Certainly
8246 U00:Chancellor
22722 U00:Chris
121772 U00:Clifford
34888 U00:Co.
44016 U00:Combined
97846 U00:Commission
90496 U00:Commodity
644 U00:Confidence
150486 U00:Consolidated
83454 U00:Currency
139958 U00:D.
139566 U00:Delaney
119392 U00:Demand
22834 U00:Dillow
82586 U00:Dow
122262 U00:Du
93548 U00:East
76384 U00:Economists
92008 U00:Estimated
34034 U00:European
90552 U00:Exchange
8708 U00:Exchequer
86394 U00:Federal
27132 U00:Forecasts
79982 U00:Foreign
109172 U00:Freight
150528 U00:Freightways
57344 U00:Friday
134736 U00:GNP
146482 U00:Gerard
94626 U00:Green
108514 U00:Group
40292 U00:He
93072 U00:Hong
14980 U00:House
41664 U00:However
24122 U00:If
53200 U00:In
94794 U00:Inc.
82796 U00:Industrial
94710 U00:Industries
146902 U00:Institute
104286 U00:It
101262 U00:Its
106274 U00:John
82684 U00:Jones
33908 U00:Joshi
6580 U00:July
93114 U00:Kong
106372 U00:Kuhns
128590 U00:LaLonde
86548 U00:Late
9016 U00:Lawson
147084 U00:Less-than-truckload
108052 U00:Lime
93800 U00:Limited
140014 U00:Little
106638 U00:MacDonald
115024 U00:Major
14812 U00:Mansion
140280 U00:Mass.
146846 U00:Massachusetts
146552 U00:McCullough
52612 U00:Meanwhile
150724 U00:Menlo
102578 U00:Mexico
26390 U00:Midland
102732 U00:Mo.
89432 U00:Monday
26502 U00:Montagu
41888 U00:Mr.
50470 U00:Nevertheless
86744 U00:New
8862 U00:Nigel
51282 U00:No
23548 U00:Nomura
145012 U00:Not
141806 U00:Now
81900 U00:Oct.
33572 U00:October
122906 U00:Ohio
90342 U00:On
124362 U00:Only
150794 U00:Park
93730 U00:Partners
93884 U00:Partnership
122332 U00:Pont
149366 U00:Railroad-rate
23632 U00:Research
106540 U00:Robert
93646 U00:Rock
33824 U00:Sanjay
121842 U00:Sayre
97678 U00:Securities
4494 U00:September
122570 U00:Shippers
25970 U00:Simon
122976 U00:State
73192 U00:Sterling
116774 U00:That
20328 U00:The
145824 U00:There
15652 U00:This
67522 U00:Thursday
89334 U00:Tokyo
138768 U00:Transport
112098 U00:Trucking
23198 U00:U.K.
86324 U00:U.S.
123046 U00:University
140784 U00:We
107940 U00:Westwood
86828 U00:York
106162 U00:York-based
143430 U00:You
336 U00:_B-1
0 U00:_B-2
136808 U00:`
20174 U00:``
5922 U00:a
137844 U00:able
38276 U00:about
31206 U00:account
94416 U00:acquire
50274 U00:adjusting
48762 U00:advance
44898 U00:after
65968 U00:again
69874 U00:agree
96628 U00:agreement
112546 U00:air-freight
141246 U00:all
68502 U00:allow
73472 U00:already
46690 U00:also
25382 U00:an
11998 U00:analysts
6804 U00:and
13832 U00:announce
112882 U00:announced
132790 U00:annual
2954 U00:another
13930 U00:any
98028 U00:approval
21196 U00:are
45598 U00:as
23436 U00:at
97314 U00:attached
68012 U00:audience
148274 U00:away
25466 U00:awful
84924 U00:back
20692 U00:bad
78036 U00:balance
130382 U00:bargain
17108 U00:base
108962 U00:based
25298 U00:be
49056 U00:because
12894 U00:been
50148 U00:before
129906 U00:began
80346 U00:begun
16520 U00:being
42350 U00:believes
76986 U00:below
141386 U00:benefits
116984 U00:big
29876 U00:billion
95872 U00:board
36862 U00:boost
103600 U00:boosted
66472 U00:both
110810 U00:bottoming
105448 U00:bought
117838 U00:bright
128030 U00:broad-based
47894 U00:bullish
27902 U00:but
13160 U00:by
53928 U00:can
39900 U00:capital
151116 U00:carrier
142436 U00:carriers
147406 U00:carry
119518 U00:caught
119868 U00:certain
13412 U00:chancellor
117054 U00:change
88452 U00:changing
65394 U00:clear
85750 U00:close
101374 U00:closed
83958 U00:coming
99092 U00:comment
9478 U00:commitment
104846 U00:common
112658 U00:companies
99946 U00:company
125566 U00:compared
60480 U00:compares
149156 U00:competing
110222 U00:competition
119056 U00:competitive
153510 U00:competitors
79576 U00:concerns
73948 U00:confidence
139734 U00:consultant
39606 U00:consumer
98308 U00:contingent
39312 U00:continued
106708 U00:control
139230 U00:cost
114338 U00:costs
25158 U00:could
48230 U00:currency
18228 U00:current
100674 U00:currently
132384 U00:cut
144466 U00:cutting
28434 U00:data
86940 U00:day
80080 U00:dealers
109956 U00:decade
45192 U00:decline
74788 U00:declined
109508 U00:declining
125412 U00:decrease
18620 U00:defend
30842 U00:deficit
91070 U00:delivery
114688 U00:demand
110474 U00:deregulation
136108 U00:directly
121968 U00:director
148176 U00:discounted
151354 U00:discounting
80570 U00:distance
123774 U00:distribution
3360 U00:dive
57456 U00:do
66864 U00:does
78960 U00:dollar
21826 U00:down
127834 U00:dramatic
43638 U00:drop
4872 U00:due
147770 U00:each
132062 U00:eager
54964 U00:earlier
92890 U00:early
86170 U00:easing
85204 U00:economic
23324 U00:economist
19110 U00:economists
52878 U00:economy
131292 U00:efficiently
56546 U00:eight
130186 U00:enabled
66542 U00:ensure
131068 U00:equipment
79800 U00:equities
13034 U00:eroded
47586 U00:even
145096 U00:everyone
49700 U00:evidence
19530 U00:exchange
28266 U00:expect
2226 U00:expected
56952 U00:expenditure
44842 U00:exports
85834 U00:eye
5628 U00:fail
13664 U00:failure
38066 U00:fairly
113470 U00:fall
76804 U00:falls
115864 U00:fast
116480 U00:faster
64106 U00:fears
28028 U00:few
149226 U00:fiercely
21000 U00:figure
4046 U00:figures
97468 U00:filing
9912 U00:firm
60942 U00:first
52164 U00:flat
84770 U00:focus
4284 U00:for
16660 U00:forced
46788 U00:forecasts
19404 U00:foreign
10822 U00:freefall
114814 U00:freight
141582 U00:freight-cost
142170 U00:freight-rate
123508 U00:freight-transport
6370 U00:from
111874 U00:fuel
85330 U00:fundamentals
49644 U00:further
79212 U00:gains
32340 U00:gap
107100 U00:general
39158 U00:given
51702 U00:go
90874 U00:gold
145334 U00:good
40012 U00:goods
141106 U00:gotten
16380 U00:government
134092 U00:gross
126126 U00:had
77686 U00:halt
88564 U00:hands
10346 U00:has
117642 U00:haulage
112784 U00:have
37758 U00:he
21504 U00:heavily
10444 U00:helped
118286 U00:helping
39466 U00:high
71288 U00:higher
56154 U00:highest
14630 U00:his
70182 U00:holding
104538 U00:holds
3556 U00:if
54194 U00:impact
148638 U00:implemented
64554 U00:import
38808 U00:imports
6188 U00:improvement
938 U00:in
105168 U00:including
16926 U00:increase
15904 U00:increased
113036 U00:increases
108262 U00:indirect
36092 U00:industry
135170 U00:inefficiency
116088 U00:inflation
132944 U00:inter-city
54642 U00:interest
51772 U00:into
49168 U00:investors
1708 U00:is
65268 U00:it
84616 U00:its
36610 U00:itself
150094 U00:keen
85568 U00:keeping
73850 U00:lack
15288 U00:last
76188 U00:late
96880 U00:later
43414 U00:lead
131502 U00:leading
44520 U00:least
146650 U00:lecturer
151060 U00:less-than-truckload
95536 U00:letter
18522 U00:level
149996 U00:levels
92512 U00:light
135814 U00:likely
107464 U00:limited
45710 U00:little
122108 U00:logistics
138012 U00:look
126196 U00:looked
25550 U00:lot
65114 U00:made
72618 U00:make
102886 U00:maker
35924 U00:manufacturing
28812 U00:marked
19656 U00:market
75600 U00:marks
43036 U00:material
116382 U00:maybe
14280 U00:measures
96544 U00:merger
92722 U00:million
70476 U00:moment
10080 U00:monetary
55258 U00:month
64428 U00:more
109760 U00:most
120596 U00:move
48916 U00:much
48594 U00:n't
40880 U00:narrow
102130 U00:national
7504 U00:near-record
66234 U00:necessary
14014 U00:new
113708 U00:next
138670 U00:nine
35350 U00:no
68418 U00:not
25872 U00:noted
104426 U00:now
24668 U00:number
98588 U00:obtaining
144690 U00:occurred
8414 U00:of
96096 U00:offer
98966 U00:official
139160 U00:offsetting
21616 U00:on
51380 U00:one
33054 U00:only
89656 U00:opened
138978 U00:opportunity
113568 U00:or
70560 U00:other
91588 U00:ounce
85918 U00:out
38486 U00:outlook
11102 U00:over
102214 U00:over-the-counter
52724 U00:overall
131726 U00:overcapacity
107156 U00:partner
107716 U00:partnership
136990 U00:party
11312 U00:past
142800 U00:pay
128310 U00:perceived
38192 U00:pessimistic
67032 U00:place
152278 U00:plans
83034 U00:plunged
10220 U00:policy
124936 U00:polled
72408 U00:popularity
52290 U00:position
79100 U00:posted
1456 U00:pound
83580 U00:predict
81508 U00:preoccupied
65674 U00:prepared
25676 U00:pressure
10626 U00:prevent
144760 U00:previously
144326 U00:price
134260 U00:product
118132 U00:productivity
128926 U00:professor
70770 U00:promise
99708 U00:proposal
94150 U00:proposed
71176 U00:pushed
59192 U00:quarter
79338 U00:quiet
62244 U00:quite
87332 U00:quoted
133140 U00:rail
149912 U00:rail-traffic
129374 U00:railroads
152530 U00:raise
27510 U00:range
69272 U00:rate
17290 U00:rates
63406 U00:rather
42910 U00:raw
142100 U00:real
44716 U00:rebound
117236 U00:recent
122752 U00:recently
12194 U00:reckon
40348 U00:reckons
143976 U00:recoup
63938 U00:reduce
42630 U00:reduction
136038 U00:reflected
114058 U00:reflecting
103040 U00:refractory
32466 U00:registered
5180 U00:release
57218 U00:released
37926 U00:remains
67844 U00:reminded
142534 U00:replace
31332 U00:reported
9324 U00:restated
118370 U00:restrain
149590 U00:restrained
68642 U00:rigor
54390 U00:rise
135618 U00:rising
16030 U00:risk
20412 U00:risks
58856 U00:rose
22582 U00:said
37296 U00:same
98686 U00:satisfactory
138236 U00:savings
115234 U00:say
136696 U00:saying
113176 U00:scheduled
59360 U00:second
49560 U00:see
139398 U00:segments
23072 U00:senior
63294 U00:services
91154 U00:settled
147602 U00:several
100996 U00:shares
3150 U00:sharp
84462 U00:shift
115122 U00:shippers
112336 U00:shipping
63784 U00:should
5824 U00:show
73584 U00:showing
22008 U00:side
35448 U00:sign
96376 U00:signing
73696 U00:signs
153678 U00:similar
81746 U00:since
121408 U00:slightly
53830 U00:slowdown
58044 U00:slowing
107030 U00:sole
44632 U00:some
72898 U00:sound
15148 U00:speech
58744 U00:spending
117922 U00:spot
110292 U00:spurred
135226 U00:squeezed
151844 U00:stabilize
103698 U00:stake
120428 U00:starting
11004 U00:sterling
62118 U00:still
80962 U00:stock
43148 U00:stockbuilding
123676 U00:storage
62356 U00:strong
96236 U00:subject
108332 U00:subsidiary
6034 U00:substantial
127582 U00:such
57596 U00:suggest
76482 U00:suggested
62720 U00:suggestions
119714 U00:supply
12460 U00:support
122668 U00:surveyed
72534 U00:swiftly
135450 U00:system
2716 U00:take
55370 U00:takes
63504 U00:than
35560 U00:that
1204 U00:the
18074 U00:their
24276 U00:there
71904 U00:they
59136 U00:third
55132 U00:this
111692 U00:threatening
114576 U00:tightened
37436 U00:time
145390 U00:times
2478 U00:to
5348 U00:tomorrow
32984 U00:topped
3794 U00:trade
74522 U00:trading
147952 U00:trailer
36428 U00:transforming
126308 U00:transport
120134 U00:transportation
138166 U00:transportation-cost
133014 U00:truck
129584 U00:trucking
143808 U00:try
49994 U00:turnaround
111244 U00:turning
153440 U00:two
119952 U00:types
12348 U00:underlying
68978 U00:undermined
45122 U00:unexpected
26726 U00:unit
59822 U00:up
98462 U00:upon
128142 U00:upturn
111412 U00:upward
130844 U00:use
99792 U00:values
21364 U00:very
80850 U00:volatile
92120 U00:volume
49350 U00:want
72030 U00:warn
53536 U00:warned
47418 U00:warns
59724 U00:was
127190 U00:we
149800 U00:weakening
69398 U00:weakness
84042 U00:week
63028 U00:went
131936 U00:were
82376 U00:when
81354 U00:which
46536 U00:who
1974 U00:widely
40754 U00:will
44198 U00:with
51954 U00:without
48412 U00:wo
60200 U00:year
117362 U00:years
88774 U00:yen
29204 U01:#
30086 U01:$
17626 U01:%
34622 U01:&
137312 U01:'
22204 U01:''
143444 U01:'ll
7042 U01:'s
140798 U01:'ve
4508 U01:,
29890 U01:-LRB-
30632 U01:-RRB-
69412 U01:.
58870 U01:0.1
45892 U01:1.3
75068 U01:1.5890
75782 U01:1.5940
60662 U01:1.6
41202 U01:1.8
87766 U01:1.8470
87402 U01:1.8578
101738 U01:1.875
124376 U01:10
100212 U01:106.6
81914 U01:13
90118 U01:141.35
88886 U01:141.70
89810 U01:141.95
88648 U01:142.43
18242 U01:15
133476 U01:150
17458 U01:16
95312 U01:19
83216 U01:190
126882 U01:1980
134806 U01:1981
33586 U01:1988
29428 U01:2
100800 U01:2,664,098
31990 U01:2.2
33152 U01:2.3
92526 U01:2.4
77000 U01:2.90
75936 U01:2.9429
75348 U01:2.9495
91728 U01:20
104552 U01:233,000
124628 U01:250
30296 U01:3.2
59836 U01:3.8
125650 U01:30
105182 U01:30,000
96992 U01:31
132482 U01:35
105658 U01:35.50
105854 U01:36.50
93324 U01:366.50
91350 U01:367.30
101500 U01:38
123970 U01:4
148344 U01:4.7
94920 U01:40
99498 U01:40-a-share
152768 U01:5.3
61110 U01:5.4
133896 U01:6.4
134512 U01:8
103978 U01:8.7
94430 U01:A.P.
98770 U01:An
69650 U01:Analysts
71484 U01:And
148694 U01:April
139818 U01:Arthur
37030 U01:At
6818 U01:August
82810 U01:Average
26852 U01:Bank
34272 U01:Baring
128492 U01:Bernard
109018 U01:Boston
108598 U01:Both
107954 U01:Brick
25984 U01:Briscoe
35574 U01:Britain
34454 U01:Brothers
11564 U01:But
150864 U01:Calif.
140112 U01:Cambridge
130578 U01:Carriers
64666 U01:Certainly
8092 U01:Chancellor
22596 U01:Chris
121702 U01:Clifford
122346 U01:Co
34776 U01:Co.
129066 U01:Columbus
43848 U01:Combined
97804 U01:Commission
90426 U01:Commodity
350 U01:Confidence
150430 U01:Consolidated
83384 U01:Currency
139902 U01:D.
139524 U01:Delaney
119294 U01:Demand
22736 U01:Dillow
82502 U01:Dow
122192 U01:Du
93464 U01:East
76286 U01:Economists
91910 U01:Estimated
33978 U01:European
90510 U01:Exchange
8568 U01:Exchequer
86338 U01:Federal
27048 U01:Forecasts
79926 U01:Foreign
109102 U01:Freight
150500 U01:Freightways
57232 U01:Friday
134666 U01:GNP
146412 U01:Gerard
94556 U01:Green
108458 U01:Group
40194 U01:He
93016 U01:Hong
14826 U01:House
41552 U01:However
23954 U01:If
53158 U01:In
108528 U01:Inc
94724 U01:Inc.
82698 U01:Industrial
94640 U01:Industries
23646 U01:Institute
104160 U01:It
101164 U01:Its
106176 U01:John
82600 U01:Jones
33838 U01:Joshi
6384 U01:July
93086 U01:Kong
106288 U01:Kuhns
107268 U01:L.P
128562 U01:LaLonde
86492 U01:Late
8876 U01:Lawson
147028 U01:Less-than-truckload
108024 U01:Lime
93744 U01:Limited
139972 U01:Little
106554 U01:MacDonald
114926 U01:Major
14644 U01:Mansion
78554 U01:Market
140224 U01:Mass.
146790 U01:Massachusetts
146496 U01:McCullough
52542 U01:Meanwhile
150654 U01:Menlo
102494 U01:Mexico
26306 U01:Midland
102662 U01:Mo.
89390 U01:Monday
26404 U01:Montagu
41776 U01:Mr.
50400 U01:Nevertheless
86660 U01:New
8722 U01:Nigel
51156 U01:No
23450 U01:Nomura
144900 U01:Not
141708 U01:Now
81760 U01:Oct.
33446 U01:October
122836 U01:Ohio
90272 U01:On
124264 U01:Only
26922 U01:PLC
150738 U01:Park
93660 U01:Partners
93814 U01:Partnership
122276 U01:Pont
149324 U01:Railroad-rate
23562 U01:Research
86408 U01:Reserve
106456 U01:Robert
93562 U01:Rock
33740 U01:Sanjay
121786 U01:Sayre
97594 U01:Securities
4298 U01:September
122472 U01:Shippers
25886 U01:Simon
122920 U01:State
73052 U01:Sterling
146958 U01:Technology
116704 U01:That
20188 U01:The
145712 U01:There
15512 U01:This
15302 U01:Thursday
89264 U01:Tokyo
138726 U01:Transport
112000 U01:Trucking
23086 U01:U.K.
86254 U01:U.S.
122990 U01:University
140630 U01:We
107842 U01:Westwood
86758 U01:York
106064 U01:York-based
143360 U01:You
14 U01:_B-1
136710 U01:`
20006 U01:``
5838 U01:a
79814 U01:abated
137774 U01:able
38206 U01:about
119070 U01:abroad
31080 U01:account
94290 U01:acquire
50162 U01:adjusting
48608 U01:advance
44856 U01:after
65870 U01:again
60214 U01:ago
69776 U01:agree
96558 U01:agreement
112448 U01:air-freight
141120 U01:all
68432 U01:allow
73332 U01:already
46550 U01:also
25312 U01:an
11788 U01:analysts
6594 U01:and
13762 U01:announce
112798 U01:announced
132706 U01:annual
2730 U01:another
13846 U01:any
97972 U01:approval
21014 U01:are
45500 U01:as
23338 U01:at
97244 U01:attached
67956 U01:audience
148190 U01:away
25396 U01:awful
84784 U01:back
20594 U01:bad
78008 U01:balance
130312 U01:bargain
16940 U01:base
108892 U01:based
25172 U01:be
48930 U01:because
12754 U01:been
50008 U01:before
129808 U01:began
80262 U01:begun
16394 U01:being
42252 U01:believes
76902 U01:below
141344 U01:benefits
116914 U01:big
29666 U01:billion
95788 U01:board
36764 U01:boost
103544 U01:boosted
66374 U01:both
110698 U01:bottoming
105392 U01:bought
117782 U01:bright
127932 U01:broad-based
47838 U01:bullish
27776 U01:but
13048 U01:by
53844 U01:can
39760 U01:capital
151074 U01:carrier
142338 U01:carriers
147336 U01:carry
119462 U01:caught
91798 U01:cents
119798 U01:certain
13286 U01:chancellor
116998 U01:change
88340 U01:changing
65282 U01:clear
85666 U01:close
101332 U01:closed
53032 U01:clouded
83846 U01:coming
99064 U01:comment
9338 U01:commitment
104776 U01:common
112560 U01:companies
99862 U01:company
125510 U01:compared
60382 U01:compares
149058 U01:competing
110138 U01:competition
118944 U01:competitive
153454 U01:competitors
79464 U01:concerns
73906 U01:confidence
139664 U01:consultant
39480 U01:consumer
98182 U01:contingent
39172 U01:continued
106652 U01:control
139174 U01:cost
114198 U01:costs
25004 U01:could
48090 U01:currency
18088 U01:current
100534 U01:currently
132328 U01:cut
144340 U01:cutting
28378 U01:data
86898 U01:day
80038 U01:dealers
109886 U01:decade
45136 U01:decline
74662 U01:declined
109368 U01:declining
125314 U01:decrease
18578 U01:defend
30772 U01:deficit
7518 U01:deficits
91000 U01:delivery
114590 U01:demand
110376 U01:deregulation
136052 U01:directly
121912 U01:director
148064 U01:discounted
151312 U01:discounting
80458 U01:distance
123732 U01:distribution
3164 U01:dive
57358 U01:do
66752 U01:does
78848 U01:dollar
21700 U01:down
127722 U01:dramatic
43582 U01:drop
4704 U01:due
147714 U01:each
131950 U01:eager
54810 U01:earlier
92834 U01:early
86100 U01:easing
85064 U01:economic
23212 U01:economist
18956 U01:economists
52836 U01:economy
55384 U01:effect
131194 U01:efficiently
56434 U01:eight
130088 U01:enabled
66486 U01:ensure
130956 U01:equipment
79702 U01:equities
12908 U01:eroded
47516 U01:even
145026 U01:everyone
49658 U01:evidence
19418 U01:exchange
28154 U01:expect
1988 U01:expected
56840 U01:expenditure
36876 U01:exports
85764 U01:eye
5502 U01:fail
13552 U01:failure
37940 U01:fairly
113358 U01:fall
76692 U01:falls
115808 U01:fast
116396 U01:faster
63952 U01:fears
27916 U01:few
149170 U01:fiercely
20832 U01:figure
3808 U01:figures
97412 U01:filing
132174 U01:fill
98700 U01:financing
9772 U01:firm
60914 U01:first
52052 U01:flat
84630 U01:focus
4060 U01:for
16534 U01:forced
46704 U01:forecasts
19264 U01:foreign
10724 U01:freefall
114758 U01:freight
141526 U01:freight-cost
142114 U01:freight-rate
123410 U01:freight-transport
6202 U01:from
111804 U01:fuel
85218 U01:fundamentals
49574 U01:further
79114 U01:gains
32228 U01:gap
107044 U01:general
38990 U01:given
51604 U01:go
90790 U01:gold
145264 U01:good
39914 U01:goods
140952 U01:gotten
16240 U01:government
134036 U01:gross
126028 U01:had
77658 U01:halt
88466 U01:hands
10234 U01:has
117572 U01:haulage
112672 U01:have
37590 U01:he
21378 U01:heavily
10360 U01:helped
118216 U01:helping
39326 U01:high
71190 U01:higher
56014 U01:highest
14448 U01:his
70140 U01:holding
104440 U01:holds
72912 U01:hollow
3374 U01:if
54166 U01:impact
148568 U01:implemented
64442 U01:import
38640 U01:imports
6048 U01:improvement
658 U01:in
105042 U01:including
16786 U01:increase
15792 U01:increased
112966 U01:increases
108206 U01:indirect
35938 U01:industry
135100 U01:inefficiency
111888 U01:inflation
40026 U01:inflows
132874 U01:inter-city
54502 U01:interest
51716 U01:into
49070 U01:investors
1470 U01:is
65128 U01:it
84476 U01:its
36442 U01:itself
150052 U01:keen
85456 U01:keeping
143262 U01:labor
73794 U01:lack
15162 U01:last
76132 U01:late
96796 U01:later
43358 U01:lead
131404 U01:leading
44380 U01:least
146608 U01:lecturer
151004 U01:less-than-truckload
95438 U01:letter
18452 U01:level
149926 U01:levels
92372 U01:light
135758 U01:likely
107436 U01:limited
45612 U01:little
122038 U01:logistics
137928 U01:look
126140 U01:looked
25480 U01:lot
64974 U01:made
72548 U01:make
102802 U01:maker
35798 U01:manufacturing
28756 U01:marked
19544 U01:market
75488 U01:marks
42924 U01:material
116242 U01:maybe
14140 U01:measures
96488 U01:merger
92652 U01:million
70392 U01:moment
9926 U01:monetary
55146 U01:month
64274 U01:more
109648 U01:most
120512 U01:move
48776 U01:much
48426 U01:n't
40768 U01:narrow
102032 U01:national
7266 U01:near-record
66094 U01:necessary
13944 U01:new
113638 U01:next
138642 U01:nine
35252 U01:no
68348 U01:not
25802 U01:noted
104300 U01:now
24542 U01:number
98476 U01:obtaining
144592 U01:occurred
8260 U01:of
96026 U01:offer
98910 U01:official
139076 U01:offsetting
21518 U01:on
51296 U01:one
32998 U01:only
89600 U01:opened
138894 U01:opportunity
113484 U01:or
70490 U01:other
91532 U01:ounce
92736 U01:ounces
85848 U01:out
38374 U01:outlook
101010 U01:outstanding
11018 U01:over
102144 U01:over-the-counter
52682 U01:overall
131614 U01:overcapacity
107114 U01:partner
107604 U01:partnership
136906 U01:party
11214 U01:past
142716 U01:pay
128240 U01:perceived
38080 U01:pessimistic
66962 U01:place
152152 U01:plans
82922 U01:plunged
83286 U01:points
10094 U01:policy
124838 U01:polled
72324 U01:popularity
52178 U01:position
50288 U01:positions
78974 U01:posted
1218 U01:pound
83524 U01:predict
81452 U01:preoccupied
65646 U01:prepared
25620 U01:pressure
10528 U01:prevent
144704 U01:previously
144214 U01:price
134176 U01:product
118062 U01:productivity
103054 U01:products
128856 U01:professor
70714 U01:promise
99624 U01:proposal
94038 U01:proposed
71050 U01:pushed
59150 U01:quarter
58170 U01:quickly
79282 U01:quiet
62132 U01:quite
87234 U01:quoted
133070 U01:rail
149814 U01:rail-traffic
129290 U01:railroads
152404 U01:raise
27384 U01:range
69160 U01:rate
17122 U01:rates
63308 U01:rather
42770 U01:raw
142030 U01:real
44646 U01:rebound
117138 U01:recent
122682 U01:recently
12012 U01:reckon
40306 U01:reckons
143892 U01:recoup
63798 U01:reduce
42518 U01:reduction
141596 U01:reductions
135954 U01:reflected
113932 U01:reflecting
102970 U01:refractory
32354 U01:registered
5026 U01:release
57092 U01:released
37772 U01:remains
67718 U01:reminded
142450 U01:replace
31220 U01:reported
9170 U01:restated
118342 U01:restrain
149506 U01:restrained
68600 U01:rigor
54334 U01:rise
64568 U01:rises
135534 U01:rising
15988 U01:risk
20342 U01:risks
58758 U01:rose
22414 U01:said
37198 U01:same
98602 U01:satisfactory
138180 U01:savings
19768 U01:say
136570 U01:saying
113106 U01:scheduled
59276 U01:second
49462 U01:see
139370 U01:segments
22946 U01:senior
63168 U01:services
91084 U01:settled
147546 U01:several
95032 U01:share
100926 U01:shares
2968 U01:sharp
84322 U01:shift
115038 U01:shippers
112224 U01:shipping
63686 U01:should
5740 U01:show
73486 U01:showing
21840 U01:side
35364 U01:sign
96334 U01:signing
73654 U01:signs
153622 U01:similar
81648 U01:since
121324 U01:slightly
53732 U01:slowdown
57918 U01:slowing
106946 U01:sole
44534 U01:some
72814 U01:sound
14994 U01:speech
58618 U01:spending
117852 U01:spot
110236 U01:spurred
135184 U01:squeezed
151774 U01:stabilize
103656 U01:stake
120358 U01:starting
10906 U01:sterling
61992 U01:still
80864 U01:stock
43050 U01:stockbuilding
123606 U01:storage
62258 U01:strong
96166 U01:subject
108276 U01:subsidiary
5936 U01:substantial
127442 U01:such
57540 U01:suggest
76398 U01:suggested
62664 U01:suggestions
119644 U01:supply
12362 U01:support
122584 U01:surveyed
72478 U01:swiftly
135380 U01:system
2492 U01:take
55272 U01:takes
63420 U01:than
35462 U01:that
952 U01:the
17934 U01:their
24136 U01:there
71778 U01:they
59080 U01:third
54978 U01:this
111566 U01:threatening
114464 U01:tightened
37310 U01:time
145348 U01:times
2240 U01:to
5194 U01:tomorrow
32872 U01:topped
3570 U01:trade
74396 U01:trading
147854 U01:trailer
36260 U01:transforming
114828 U01:transport
120064 U01:transportation
138096 U01:transportation-cost
132958 U01:truck
129472 U01:trucking
150234 U01:trucks
143724 U01:try
49854 U01:turnaround
111090 U01:turning
153342 U01:two
119882 U01:types
78190 U01:unchanged
12208 U01:underlying
68908 U01:undermined
45038 U01:unexpected
26670 U01:unit
59738 U01:up
98322 U01:upon
128044 U01:upturn
111258 U01:upward
130774 U01:use
99722 U01:values
21210 U01:very
80794 U01:volatile
92022 U01:volume
49266 U01:want
71918 U01:warn
53480 U01:warned
47292 U01:warns
59598 U01:was
127078 U01:we
149702 U01:weakening
69286 U01:weakness
11326 U01:week
62916 U01:went
131824 U01:were
82236 U01:when
81228 U01:which
46368 U01:who
1722 U01:widely
40628 U01:will
44030 U01:with
51884 U01:without
48244 U01:wo
60102 U01:year
56560 U01:years
88732 U01:yen
29036 U02:#
29904 U02:$
17472 U02:%
34468 U02:&
137214 U02:'
22022 U02:''
143374 U02:'ll
6832 U02:'s
140644 U02:'ve
4312 U02:,
29680 U02:-LRB-
30492 U02:-RRB-
7532 U02:.
58772 U02:0.1
45808 U02:1.3
74928 U02:1.5890
75698 U02:1.5940
60578 U02:1.6
41104 U02:1.8
87710 U02:1.8470
87346 U02:1.8578
101696 U02:1.875
124278 U02:10
100142 U02:106.6
81774 U02:13
90062 U02:141.35
88844 U02:141.70
89768 U02:141.95
88578 U02:142.43
18102 U02:15
133420 U02:150
17304 U02:16
95214 U02:19
83146 U02:190
126798 U02:1980
134750 U02:1981
33460 U02:1988
29218 U02:2
100688 U02:2,664,098
31920 U02:2.2
33110 U02:2.3
92386 U02:2.4
76916 U02:2.90
75852 U02:2.9429
75222 U02:2.9495
91658 U02:20
104454 U02:233,000
124544 U02:250
30100 U02:3.2
59752 U02:3.8
125580 U02:30
105056 U02:30,000
96950 U02:31
132440 U02:35
105574 U02:35.50
105812 U02:36.50
93282 U02:366.50
91252 U02:367.30
101430 U02:38
123900 U02:4
148288 U02:4.7
94864 U02:40
99372 U02:40-a-share
152656 U02:5.3
61054 U02:5.4
133826 U02:6.4
134456 U02:8
103908 U02:8.7
94304 U02:A.P.
78568 U02:Activity
98728 U02:An
69552 U02:Analysts
71386 U02:And
148652 U02:April
139748 U02:Arthur
36932 U02:At
6608 U02:August
82712 U02:Average
26796 U02:Bank
34132 U02:Baring
128436 U02:Bernard
108976 U02:Boston
108556 U02:Both
107856 U02:Brick
25900 U02:Briscoe
35476 U02:Britain
34286 U02:Brothers
11396 U02:But
150808 U02:Calif.
140056 U02:Cambridge
130480 U02:Carriers
64610 U02:Certainly
7966 U02:Chancellor
22428 U02:Chris
121646 U02:Clifford
122290 U02:Co
34636 U02:Co.
129024 U02:Columbus
43722 U02:Combined
97748 U02:Commission
90356 U02:Commodity
28 U02:Confidence
150374 U02:Consolidated
83314 U02:Currency
139832 U02:D.
139482 U02:Delaney
119196 U02:Demand
22610 U02:Dillow
82390 U02:Dow
122122 U02:Du
93394 U02:East
76202 U02:Economists
91826 U02:Estimated
33922 U02:European
90440 U02:Exchange
8428 U02:Exchequer
86268 U02:Federal
26950 U02:Forecasts
79870 U02:Foreign
109046 U02:Freight
150444 U02:Freightways
57106 U02:Friday
134596 U02:GNP
146356 U02:Gerard
94444 U02:Green
108402 U02:Group
40082 U02:He
92960 U02:Hong
14658 U02:House
41440 U02:However
23800 U02:If
53102 U02:In
108472 U02:Inc
94654 U02:Inc.
82614 U02:Industrial
94570 U02:Industries
23576 U02:Institute
104048 U02:It
101052 U02:Its
106078 U02:John
82516 U02:Jones
33754 U02:Joshi
6216 U02:July
93030 U02:Kong
106190 U02:Kuhns
107226 U02:L.P
128506 U02:LaLonde
86436 U02:Late
8736 U02:Lawson
146986 U02:Less-than-truckload
107968 U02:Lime
93674 U02:Limited
139916 U02:Little
106470 U02:MacDonald
114856 U02:Major
14462 U02:Mansion
78428 U02:Market
140182 U02:Mass.
146748 U02:Massachusetts
146426 U02:McCullough
52472 U02:Meanwhile
150598 U02:Menlo
102410 U02:Mexico
26250 U02:Midland
102592 U02:Mo.
89348 U02:Monday
26320 U02:Montagu
41678 U02:Mr.
50344 U02:Nevertheless
86604 U02:New
8582 U02:Nigel
51016 U02:No
23352 U02:Nomura
144802 U02:Not
141624 U02:Now
81662 U02:Oct.
33334 U02:October
122766 U02:Ohio
90216 U02:On
124166 U02:Only
26866 U02:PLC
150668 U02:Park
93576 U02:Partners
93758 U02:Partnership
122206 U02:Pont
149282 U02:Railroad-rate
23464 U02:Research
86352 U02:Reserve
106386 U02:Robert
93478 U02:Rock
33670 U02:Sanjay
121716 U02:Sayre
97538 U02:Securities
4074 U02:September
122374 U02:Shippers
25816 U02:Simon
122850 U02:State
72954 U02:Sterling
146916 U02:Technology
116648 U02:That
20020 U02:The
145614 U02:There
15386 U02:This
15176 U02:Thursday
89180 U02:Tokyo
138684 U02:Transport
111930 U02:Trucking
22960 U02:U.K.
86184 U02:U.S.
122934 U02:University
140504 U02:We
107730 U02:Westwood
86674 U02:York
105966 U02:York-based
143290 U02:You
136584 U02:`
19838 U02:``
5754 U02:a
79716 U02:abated
137704 U02:able
38094 U02:about
118958 U02:abroad
30968 U02:account
94164 U02:acquire
50022 U02:adjusting
48440 U02:advance
44786 U02:after
65786 U02:again
60116 U02:ago
69664 U02:agree
96502 U02:agreement
112350 U02:air-freight
140966 U02:all
68362 U02:allow
73206 U02:already
46382 U02:also
25186 U02:an
11578 U02:analysts
6398 U02:and
13678 U02:announce
112686 U02:announced
132636 U02:annual
2506 U02:another
13776 U02:any
97930 U02:approval
20846 U02:are
45430 U02:as
23226 U02:at
97160 U02:attached
67858 U02:audience
148078 U02:away
25326 U02:awful
84644 U02:back
20538 U02:bad
77966 U02:balance
130256 U02:bargain
16800 U02:base
108822 U02:based
25018 U02:be
48790 U02:because
12628 U02:been
49868 U02:before
129710 U02:began
80206 U02:begun
16254 U02:being
42140 U02:believes
76818 U02:below
141260 U02:benefits
116858 U02:big
29442 U02:billion
95718 U02:board
36624 U02:boost
103474 U02:boosted
66248 U02:both
110586 U02:bottoming
105308 U02:bought
117712 U02:bright
127848 U02:broad-based
47754 U02:bullish
27650 U02:but
12922 U02:by
53746 U02:can
39620 U02:capital
151018 U02:carrier
142254 U02:carriers
147252 U02:carry
119406 U02:caught
91742 U02:cents
119728 U02:certain
13174 U02:chancellor
116928 U02:change
88256 U02:changing
65142 U02:clear
85582 U02:close
101276 U02:closed
52948 U02:clouded
83734 U02:coming
99022 U02:comment
9184 U02:commitment
104720 U02:common
112462 U02:companies
99806 U02:company
125426 U02:compared
60326 U02:compares
148946 U02:competing
110054 U02:competition
118804 U02:competitive
153356 U02:competitors
79394 U02:concerns
73864 U02:confidence
139608 U02:consultant
39340 U02:consumer
98098 U02:contingent
39004 U02:continued
106568 U02:control
139090 U02:cost
114072 U02:costs
24836 U02:could
47992 U02:currency
17948 U02:current
100408 U02:currently
132272 U02:cut
144228 U02:cutting
28280 U02:data
86842 U02:day
79996 U02:dealers
109844 U02:decade
45052 U02:decline
74536 U02:declined
109256 U02:declining
125216 U02:decrease
18536 U02:defend
30646 U02:deficit
7280 U02:deficits
90944 U02:delivery
114478 U02:demand
110306 U02:deregulation
135968 U02:directly
121856 U02:director
147966 U02:discounted
151256 U02:discounting
80360 U02:distance
123690 U02:distribution
2982 U02:dive
57246 U02:do
66654 U02:does
78736 U02:dollar
21630 U02:down
127596 U02:dramatic
43540 U02:drop
4522 U02:due
147658 U02:each
131838 U02:eager
54656 U02:earlier
92792 U02:early
86044 U02:easing
84938 U02:economic
23100 U02:economist
18816 U02:economists
52794 U02:economy
55286 U02:effect
131082 U02:efficiently
56308 U02:eight
129990 U02:enabled
66388 U02:ensure
130858 U02:equipment
79590 U02:equities
12768 U02:eroded
47432 U02:even
144914 U02:everyone
49588 U02:evidence
19278 U02:exchange
28042 U02:expect
1736 U02:expected
56742 U02:expenditure
36778 U02:exports
85680 U02:eye
5362 U02:fail
13426 U02:failure
37786 U02:fairly
113260 U02:fall
76608 U02:falls
115738 U02:fast
116256 U02:faster
63812 U02:fears
27790 U02:few
149072 U02:fiercely
20706 U02:figure
3584 U02:figures
97370 U02:filing
132076 U02:fill
98616 U02:financing
9632 U02:firm
60872 U02:first
51968 U02:flat
84490 U02:focus
3822 U02:for
16408 U02:forced
46564 U02:forecasts
19124 U02:foreign
10640 U02:freefall
114702 U02:freight
141470 U02:freight-cost
142044 U02:freight-rate
123298 U02:freight-transport
6062 U02:from
111706 U02:fuel
85078 U02:fundamentals
49476 U02:further
78988 U02:gains
32116 U02:gap
106960 U02:general
38822 U02:given
51506 U02:go
90706 U02:gold
145194 U02:good
39774 U02:goods
140812 U02:gotten
16114 U02:government
133980 U02:gross
125902 U02:had
77588 U02:halt
88354 U02:hands
10108 U02:has
117488 U02:haulage
112574 U02:have
37450 U02:he
21224 U02:heavily
10248 U02:helped
118146 U02:helping
39186 U02:high
71064 U02:higher
55902 U02:highest
14294 U02:his
70070 U02:holding
104314 U02:holds
72828 U02:hollow
3178 U02:if
54124 U02:impact
148498 U02:implemented
64288 U02:import
38500 U02:imports
5950 U02:improvement
364 U02:in
104944 U02:including
16674 U02:increase
15666 U02:increased
112896 U02:increases
108150 U02:indirect
35812 U02:industry
135030 U02:inefficiency
111818 U02:inflation
39928 U02:inflows
132804 U02:inter-city
54404 U02:interest
51618 U02:into
48944 U02:investors
1232 U02:is
64988 U02:it
84336 U02:its
36274 U02:itself
150010 U02:keen
85344 U02:keeping
143206 U02:labor
73738 U02:lack
15008 U02:last
76048 U02:late
96712 U02:later
43302 U02:lead
131306 U02:leading
44212 U02:least
146566 U02:lecturer
150948 U02:less-than-truckload
95326 U02:letter
18368 U02:level
149828 U02:levels
92246 U02:light
135702 U02:likely
107394 U02:limited
45514 U02:little
121982 U02:logistics
137858 U02:look
126042 U02:looked
25410 U02:lot
64848 U02:made
72492 U02:make
102746 U02:maker
35700 U02:manufacturing
28658 U02:marked
19432 U02:market
75362 U02:marks
42784 U02:material
116102 U02:maybe
14028 U02:measures
96432 U02:merger
92540 U02:million
70322 U02:moment
9786 U02:monetary
54992 U02:month
64120 U02:more
109522 U02:most
120442 U02:move
48622 U02:much
48258 U02:n't
40642 U02:narrow
101920 U02:national
7056 U02:near-record
65982 U02:necessary
13860 U02:new
113582 U02:next
138600 U02:nine
35168 U02:no
68250 U02:not
25732 U02:noted
104174 U02:now
24472 U02:number
98336 U02:obtaining
144480 U02:occurred
8106 U02:of
95970 U02:offer
98854 U02:official
138992 U02:offsetting
21392 U02:on
51170 U02:one
32886 U02:only
89544 U02:opened
138838 U02:opportunity
113372 U02:or
70406 U02:other
91462 U02:ounce
92666 U02:ounces
85778 U02:out
38290 U02:outlook
100940 U02:outstanding
10920 U02:over
102046 U02:over-the-counter
52626 U02:overall
131516 U02:overcapacity
107058 U02:partner
107520 U02:partnership
136822 U02:party
11116 U02:past
142632 U02:pay
128156 U02:perceived
37954 U02:pessimistic
66878 U02:place
152026 U02:plans
82824 U02:plunged
83230 U02:points
9940 U02:policy
124740 U02:polled
72254 U02:popularity
52066 U02:position
50176 U02:positions
78862 U02:posted
966 U02:pound
83468 U02:predict
81368 U02:preoccupied
65590 U02:prepared
25564 U02:pressure
10458 U02:prevent
144606 U02:previously
144130 U02:price
134106 U02:product
117992 U02:productivity
102984 U02:products
128772 U02:professor
70658 U02:promise
99512 U02:proposal
93954 U02:proposed
70938 U02:pushed
59094 U02:quarter
58058 U02:quickly
79226 U02:quiet
62006 U02:quite
87122 U02:quoted
133028 U02:rail
149716 U02:rail-traffic
129206 U02:railroads
152292 U02:raise
27300 U02:range
69076 U02:rate
16954 U02:rates
63182 U02:rather
42644 U02:raw
141960 U02:real
44548 U02:rebound
117068 U02:recent
122598 U02:recently
11802 U02:reckon
40208 U02:reckons
143822 U02:recoup
63700 U02:reduce
42434 U02:reduction
141540 U02:reductions
135884 U02:reflected
113806 U02:reflecting
102900 U02:refractory
32242 U02:registered
4886 U02:release
56966 U02:released
37604 U02:remains
67606 U02:reminded
142352 U02:replace
31094 U02:reported
9030 U02:restated
118300 U02:restrain
149436 U02:restrained
68558 U02:rigor
54278 U02:rise
64456 U02:rises
135464 U02:rising
15918 U02:risk
20202 U02:risks
58632 U02:rose
22218 U02:said
37142 U02:same
98490 U02:satisfactory
138110 U02:savings
19670 U02:say
136472 U02:saying
113050 U02:scheduled
59234 U02:second
49364 U02:see
139328 U02:segments
22848 U02:senior
63042 U02:services
91014 U02:settled
147504 U02:several
94990 U02:share
100814 U02:shares
2744 U02:sharp
84210 U02:shift
114940 U02:shippers
112112 U02:shipping
63588 U02:should
5642 U02:show
73346 U02:showing
21714 U02:side
35266 U02:sign
96292 U02:signing
73598 U02:signs
153566 U02:similar
81578 U02:since
121212 U02:slightly
53662 U02:slowdown
57820 U02:slowing
106862 U02:sole
44394 U02:some
72716 U02:sound
14840 U02:speech
58492 U02:spending
117796 U02:spot
110152 U02:spurred
135114 U02:squeezed
151662 U02:stabilize
103614 U02:stake
120288 U02:starting
10836 U02:sterling
61866 U02:still
80808 U02:stock
42938 U02:stockbuilding
123522 U02:storage
62146 U02:strong
96110 U02:subject
108220 U02:subsidiary
5852 U02:substantial
127316 U02:such
57470 U02:suggest
76300 U02:suggested
62580 U02:suggestions
119588 U02:supply
12222 U02:support
122486 U02:surveyed
72422 U02:swiftly
135324 U02:system
2254 U02:take
55160 U02:takes
63322 U02:than
35378 U02:that
672 U02:the
17794 U02:their
23968 U02:there
71638 U02:they
59024 U02:third
54824 U02:this
111426 U02:threatening
114352 U02:tightened
37212 U02:time
145278 U02:times
2002 U02:to
5040 U02:tomorrow
32732 U02:topped
3388 U02:trade
74298 U02:trading
147784 U02:trailer
36106 U02:transforming
114772 U02:transport
120008 U02:transportation
138026 U02:transportation-cost
132888 U02:truck
129388 U02:trucking
150192 U02:trucks
143626 U02:try
49756 U02:turnaround
110950 U02:turning
153230 U02:two
119812 U02:types
78134 U02:unchanged
12026 U02:underlying
68838 U02:undermined
44968 U02:unexpected
26600 U02:unit
59612 U02:up
98196 U02:upon
127946 U02:upturn
111104 U02:upward
130690 U02:use
99638 U02:values
21028 U02:very
80738 U02:volatile
91924 U02:volume
49182 U02:want
71792 U02:warn
53410 U02:warned
47166 U02:warns
59472 U02:was
126994 U02:we
149604 U02:weakening
69174 U02:weakness
11228 U02:week
62846 U02:went
131740 U02:were
82082 U02:when
81088 U02:which
46200 U02:who
1484 U02:widely
40516 U02:will
43862 U02:with
51828 U02:without
48104 U02:wo
60004 U02:year
56448 U02:years
88662 U02:yen
28910 U03:#
29694 U03:$
17318 U03:%
34300 U03:&
137102 U03:'
21854 U03:''
143304 U03:'ll
6622 U03:'s
140518 U03:'ve
4088 U03:,
29456 U03:-LRB-
30310 U03:-RRB-
7294 U03:.
58646 U03:0.1
45724 U03:1.3
74802 U03:1.5890
75614 U03:1.5940
60494 U03:1.6
41006 U03:1.8
87626 U03:1.8470
87248 U03:1.8578
101640 U03:1.875
124180 U03:10
100058 U03:106.6
81676 U03:13
90020 U03:141.35
88816 U03:141.70
89726 U03:141.95
88480 U03:142.43
17962 U03:15
133378 U03:150
17136 U03:16
95130 U03:19
83048 U03:190
126742 U03:1980
134680 U03:1981
33348 U03:1988
29050 U03:2
100548 U03:2,664,098
31864 U03:2.2
33082 U03:2.3
92260 U03:2.4
76832 U03:2.90
75796 U03:2.9429
75082 U03:2.9495
91602 U03:20
104328 U03:233,000
124488 U03:250
29918 U03:3.2
59626 U03:3.8
125524 U03:30
104958 U03:30,000
96894 U03:31
132398 U03:35
105518 U03:35.50
105756 U03:36.50
93240 U03:366.50
91168 U03:367.30
101388 U03:38
123844 U03:4
148204 U03:4.7
94808 U03:40
99246 U03:40-a-share
152544 U03:5.3
60998 U03:5.4
133742 U03:6.4
134372 U03:8
103824 U03:8.7
94178 U03:A.P.
78442 U03:Activity
148582 U03:April
139678 U03:Arthur
6412 U03:August
82628 U03:Average
26740 U03:Bank
34048 U03:Baring
128394 U03:Bernard
108906 U03:Boston
107744 U03:Brick
25830 U03:Briscoe
35392 U03:Britain
34146 U03:Brothers
150752 U03:Calif.
140028 U03:Cambridge
22232 U03:Chris
121604 U03:Clifford
122220 U03:Co
34482 U03:Co.
128982 U03:Columbus
97692 U03:Commission
90286 U03:Commodity
150318 U03:Consolidated
139762 U03:D.
139440 U03:Delaney
119126 U03:Demand
22442 U03:Dillow
82250 U03:Dow
122052 U03:Du
95802 U03:East
33852 U03:European
90370 U03:Exchange
8274 U03:Exchequer
86198 U03:Federal
150388 U03:Freightways
56980 U03:Friday
134568 U03:GNP
146314 U03:Gerard
94318 U03:Green
108346 U03:Group
92904 U03:Hong
14476 U03:House
23688 U03:If
108416 U03:Inc
94584 U03:Inc.
82530 U03:Industrial
94458 U03:Industries
23478 U03:Institute
105980 U03:John
82404 U03:Jones
33684 U03:Joshi
6076 U03:July
92974 U03:Kong
106092 U03:Kuhns
107198 U03:L.P
128450 U03:LaLonde
8596 U03:Lawson
107870 U03:Lime
93590 U03:Limited
139846 U03:Little
106400 U03:MacDonald
14308 U03:Mansion
78316 U03:Market
140126 U03:Mass.
146706 U03:Massachusetts
146370 U03:McCullough
150556 U03:Menlo
102340 U03:Mexico
26194 U03:Midland
102508 U03:Mo.
89278 U03:Monday
26264 U03:Montagu
41566 U03:Mr.
86562 U03:New
8442 U03:Nigel
50876 U03:No
23240 U03:Nomura
81592 U03:Oct.
33250 U03:October
122696 U03:Ohio
26810 U03:PLC
150612 U03:Park
93492 U03:Partners
93688 U03:Partnership
122136 U03:Pont
23366 U03:Research
86282 U03:Reserve
106302 U03:Robert
93408 U03:Rock
121660 U03:Sayre
97482 U03:Securities
3836 U03:September
136206 U03:Shippers
25746 U03:Simon
122780 U03:State
146860 U03:Technology
19852 U03:The
145544 U03:There
126448 U03:This
15022 U03:Thursday
89124 U03:Tokyo
22862 U03:U.K.
86114 U03:U.S.
122864 U03:University
140378 U03:We
107618 U03:Westwood
86618 U03:York
105896 U03:York-based
7546 U03:_B+1
136486 U03:`
50708 U03:``
5656 U03:a
79604 U03:abated
137648 U03:able
37968 U03:about
118818 U03:abroad
30884 U03:account
94052 U03:acquire
49882 U03:adjusting
48272 U03:advance
44730 U03:after
65744 U03:again
60018 U03:ago
69566 U03:agree
96446 U03:agreement
112238 U03:air-freight
140826 U03:all
68264 U03:allow
73066 U03:already
46214 U03:also
25032 U03:an
11410 U03:analysts
6230 U03:and
13566 U03:announce
112588 U03:announced
132594 U03:annual
2268 U03:another
13692 U03:any
97888 U03:approval
20720 U03:are
45374 U03:as
23114 U03:at
97090 U03:attached
67732 U03:audience
147980 U03:away
25200 U03:awful
84504 U03:back
20496 U03:bad
77938 U03:balance
130200 U03:bargain
16688 U03:base
108752 U03:based
24850 U03:be
48636 U03:because
12530 U03:been
49770 U03:before
129598 U03:began
80164 U03:begun
16128 U03:being
42014 U03:believes
76706 U03:below
141134 U03:benefits
116788 U03:big
29232 U03:billion
95662 U03:board
36456 U03:boost
103404 U03:boosted
66108 U03:both
110488 U03:bottoming
105196 U03:bought
117656 U03:bright
127736 U03:broad-based
47670 U03:bullish
27524 U03:but
12782 U03:by
53676 U03:can
39494 U03:capital
150962 U03:carrier
142184 U03:carriers
147168 U03:carry
119308 U03:caught
91672 U03:cents
119658 U03:certain
13062 U03:chancellor
116872 U03:change
88172 U03:changing
65002 U03:clear
85470 U03:close
101178 U03:closed
52892 U03:clouded
83664 U03:coming
98980 U03:comment
9044 U03:commitment
104650 U03:common
112364 U03:companies
99736 U03:company
125328 U03:compared
60270 U03:compares
148834 U03:competing
109970 U03:competition
118664 U03:competitive
153244 U03:competitors
79352 U03:concerns
73808 U03:confidence
139580 U03:consultant
39200 U03:consumer
98042 U03:contingent
38836 U03:continued
106484 U03:control
139006 U03:cost
113946 U03:costs
24682 U03:could
47950 U03:currency
17808 U03:current
100338 U03:currently
132244 U03:cut
144144 U03:cutting
28168 U03:data
86772 U03:day
79940 U03:dealers
109774 U03:decade
44982 U03:decline
74410 U03:declined
109186 U03:declining
125146 U03:decrease
18466 U03:defend
30506 U03:deficit
7070 U03:deficits
90888 U03:delivery
114366 U03:demand
110250 U03:deregulation
135898 U03:directly
121800 U03:director
147868 U03:discounted
151186 U03:discounting
80276 U03:distance
123620 U03:distribution
2758 U03:dive
57120 U03:do
66584 U03:does
78680 U03:dollar
21532 U03:down
127456 U03:dramatic
43484 U03:drop
4326 U03:due
147616 U03:each
131754 U03:eager
54516 U03:earlier
92764 U03:early
86016 U03:easing
84798 U03:economic
22974 U03:economist
18704 U03:economists
52766 U03:economy
55174 U03:effect
130970 U03:efficiently
56168 U03:eight
129920 U03:enabled
66262 U03:ensure
130788 U03:equipment
79478 U03:equities
12642 U03:eroded
47306 U03:even
144816 U03:everyone
49490 U03:evidence
19138 U03:exchange
27930 U03:expect
1498 U03:expected
56672 U03:expenditure
36638 U03:exports
85596 U03:eye
5208 U03:fail
13300 U03:failure
37618 U03:fairly
113190 U03:fall
76566 U03:falls
115654 U03:fast
116116 U03:faster
63714 U03:fears
27664 U03:few
148960 U03:fiercely
20608 U03:figure
3402 U03:figures
97328 U03:filing
131964 U03:fill
98504 U03:financing
9492 U03:firm
60844 U03:first
51898 U03:flat
84350 U03:focus
3598 U03:for
16268 U03:forced
46396 U03:forecasts
18970 U03:foreign
10542 U03:freefall
114604 U03:freight
141428 U03:freight-cost
141974 U03:freight-rate
123200 U03:freight-transport
5964 U03:from
111580 U03:fuel
84952 U03:fundamentals
49378 U03:further
78876 U03:gains
32004 U03:gap
106876 U03:general
38654 U03:given
51436 U03:go
90622 U03:gold
145138 U03:good
39634 U03:goods
140658 U03:gotten
16044 U03:government
133952 U03:gross
125776 U03:had
77504 U03:halt
88270 U03:hands
9954 U03:has
117376 U03:haulage
112476 U03:have
37324 U03:he
21042 U03:heavily
10122 U03:helped
118076 U03:helping
39018 U03:high
70952 U03:higher
55776 U03:highest
14154 U03:his
69986 U03:holding
104188 U03:holds
72730 U03:hollow
2996 U03:if
54082 U03:impact
148442 U03:implemented
64134 U03:import
38388 U03:imports
5866 U03:improvement
42 U03:in
104860 U03:including
16548 U03:increase
15526 U03:increased
112812 U03:increases
108094 U03:indirect
35714 U03:industry
134974 U03:inefficiency
111720 U03:inflation
39788 U03:inflows
132720 U03:inter-city
54348 U03:interest
51520 U03:into
48804 U03:investors
980 U03:is
64862 U03:it
84224 U03:its
36120 U03:itself
149940 U03:keen
85232 U03:keeping
143136 U03:labor
73710 U03:lack
14854 U03:last
75950 U03:late
96642 U03:later
43246 U03:lead
131208 U03:leading
44044 U03:least
146510 U03:lecturer
150878 U03:less-than-truckload
95228 U03:letter
18256 U03:level
149730 U03:levels
92134 U03:light
135632 U03:likely
107338 U03:limited
45444 U03:little
121926 U03:logistics
137788 U03:look
125916 U03:looked
25340 U03:lot
64764 U03:made
72436 U03:make
102676 U03:maker
35588 U03:manufacturing
28560 U03:marked
19292 U03:market
75236 U03:marks
42658 U03:material
115962 U03:maybe
13958 U03:measures
96390 U03:merger
92400 U03:million
70266 U03:moment
9646 U03:monetary
54838 U03:month
63966 U03:more
109382 U03:most
120372 U03:move
48454 U03:much
48118 U03:n't
40530 U03:narrow
101822 U03:national
6846 U03:near-record
65884 U03:necessary
13790 U03:new
113498 U03:next
138544 U03:nine
35084 U03:no
68152 U03:not
25690 U03:noted
104062 U03:now
24444 U03:number
98210 U03:obtaining
144354 U03:occurred
7980 U03:of
95942 U03:offer
98826 U03:official
138908 U03:offsetting
21238 U03:on
51030 U03:one
32746 U03:only
89516 U03:opened
138810 U03:opportunity
113274 U03:or
70336 U03:other
91364 U03:ounce
92554 U03:ounces
85694 U03:out
38220 U03:outlook
100828 U03:outstanding
10850 U03:over
101934 U03:over-the-counter
52556 U03:overall
131418 U03:overcapacity
106974 U03:partner
107492 U03:partnership
136724 U03:party
11032 U03:past
142548 U03:pay
128058 U03:perceived
37800 U03:pessimistic
66766 U03:place
151942 U03:plans
82726 U03:plunged
83160 U03:points
9800 U03:policy
124642 U03:polled
72198 U03:popularity
51982 U03:position
50036 U03:positions
78750 U03:posted
686 U03:pound
83398 U03:predict
81242 U03:preoccupied
65506 U03:prepared
25494 U03:pressure
10374 U03:prevent
144494 U03:previously
144060 U03:price
134050 U03:product
117936 U03:productivity
102914 U03:products
128688 U03:professor
70616 U03:promise
99386 U03:proposal
93898 U03:proposed
70854 U03:pushed
59038 U03:quarter
57932 U03:quickly
79128 U03:quiet
61880 U03:quite
87038 U03:quoted
132972 U03:rail
149618 U03:rail-traffic
129150 U03:railroads
152166 U03:raise
27244 U03:range
68992 U03:rate
16814 U03:rates
63056 U03:rather
42532 U03:raw
141904 U03:real
44408 U03:rebound
117012 U03:recent
122500 U03:recently
11592 U03:reckon
40096 U03:reckons
143738 U03:recoup
63602 U03:reduce
42364 U03:reduction
141484 U03:reductions
135828 U03:reflected
113722 U03:reflecting
102816 U03:refractory
32130 U03:registered
4718 U03:release
56854 U03:released
37464 U03:remains
67536 U03:reminded
142268 U03:replace
30982 U03:reported
8890 U03:restated
118230 U03:restrain
149408 U03:restrained
68516 U03:rigor
54236 U03:rise
64302 U03:rises
135394 U03:rising
15806 U03:risk
20034 U03:risks
58506 U03:rose
22036 U03:said
37044 U03:same
98350 U03:satisfactory
138040 U03:savings
19558 U03:say
136360 U03:saying
112980 U03:scheduled
59206 U03:second
49280 U03:see
139286 U03:segments
22750 U03:senior
62930 U03:services
90958 U03:settled
147462 U03:several
94934 U03:share
100702 U03:shares
2520 U03:sharp
84126 U03:shift
114870 U03:shippers
112014 U03:shipping
63518 U03:should
5516 U03:show
73220 U03:showing
21644 U03:side
35182 U03:sign
96250 U03:signing
73500 U03:signs
153524 U03:similar
81522 U03:since
121100 U03:slightly
53592 U03:slowdown
57736 U03:slowing
106806 U03:sole
44226 U03:some
72632 U03:sound
14672 U03:speech
58408 U03:spending
117726 U03:spot
110068 U03:spurred
135044 U03:squeezed
151550 U03:stabilize
103558 U03:stake
120246 U03:starting
10738 U03:sterling
61740 U03:still
80752 U03:stock
42798 U03:stockbuilding
123424 U03:storage
62020 U03:strong
96040 U03:subject
108164 U03:subsidiary
5768 U03:substantial
127204 U03:such
57372 U03:suggest
76216 U03:suggested
62482 U03:suggestions
119560 U03:supply
12040 U03:support
122388 U03:surveyed
72338 U03:swiftly
135282 U03:system
2016 U03:take
55006 U03:takes
63196 U03:than
35280 U03:that
378 U03:the
17640 U03:their
23814 U03:there
71498 U03:they
58982 U03:third
54670 U03:this
111272 U03:threatening
114212 U03:tightened
37156 U03:time
145208 U03:times
1750 U03:to
4900 U03:tomorrow
32592 U03:topped
3192 U03:trade
74214 U03:trading
147728 U03:trailer
35952 U03:transforming
114716 U03:transport
119966 U03:transportation
137942 U03:transportation-cost
132818 U03:truck
129304 U03:trucking
150150 U03:trucks
143542 U03:try
49714 U03:turnaround
110824 U03:turning
153132 U03:two
119742 U03:types
78078 U03:unchanged
11816 U03:underlying
68782 U03:undermined
44912 U03:unexpected
26516 U03:unit
59486 U03:up
98112 U03:upon
127862 U03:upturn
110964 U03:upward
130592 U03:use
99526 U03:values
20860 U03:very
80668 U03:volatile
91840 U03:volume
49084 U03:want
71652 U03:warn
53354 U03:warned
47082 U03:warns
59374 U03:was
126896 U03:we
149520 U03:weakening
69090 U03:weakness
11130 U03:week
62804 U03:went
131628 U03:were
81928 U03:when
80976 U03:which
46088 U03:who
1246 U03:widely
40418 U03:will
43736 U03:with
51800 U03:without
48006 U03:wo
59920 U03:year
56322 U03:years
88592 U03:yen
28826 U04:#
29470 U04:$
17150 U04:%
34160 U04:&
137004 U04:'
21728 U04:''
6426 U04:'s
140392 U04:'ve
3850 U04:,
29246 U04:-LRB-
30114 U04:-RRB-
7084 U04:.
58520 U04:0.1
45626 U04:1.3
74676 U04:1.5890
75502 U04:1.5940
60396 U04:1.6
40894 U04:1.8
87528 U04:1.8470
87136 U04:1.8578
101584 U04:1.875
99960 U04:106.6
81606 U04:13
89978 U04:141.35
88788 U04:141.70
89670 U04:141.95
88368 U04:142.43
17822 U04:15
133308 U04:150
16968 U04:16
95074 U04:19
82936 U04:190
126700 U04:1980
134610 U04:1981
33264 U04:1988
28924 U04:2
100422 U04:2,664,098
31780 U04:2.2
33068 U04:2.3
92148 U04:2.4
76720 U04:2.90
75712 U04:2.9429
74942 U04:2.9495
91546 U04:20
104202 U04:233,000
124460 U04:250
29708 U04:3.2
59500 U04:3.8
125440 U04:30
104874 U04:30,000
96810 U04:31
132342 U04:35
105490 U04:35.50
105672 U04:36.50
93212 U04:366.50
91098 U04:367.30
101346 U04:38
123802 U04:4
148092 U04:4.7
94738 U04:40
99162 U04:40-a-share
152418 U04:5.3
60956 U04:5.4
133644 U04:6.4
134274 U04:8
103754 U04:8.7
94066 U04:A.P.
78330 U04:Activity
148512 U04:April
139622 U04:Arthur
6244 U04:August
82544 U04:Average
26684 U04:Bank
33992 U04:Baring
128366 U04:Bernard
108836 U04:Boston
107632 U04:Brick
25760 U04:Briscoe
35294 U04:Britain
34062 U04:Brothers
150682 U04:Calif.
139986 U04:Cambridge
22050 U04:Chris
121590 U04:Clifford
122150 U04:Co
34314 U04:Co.
128954 U04:Columbus
97608 U04:Commission
90230 U04:Commodity
150276 U04:Consolidated
139692 U04:D.
22246 U04:Dillow
82096 U04:Dow
121996 U04:Du
95732 U04:East
33768 U04:European
90300 U04:Exchange
8120 U04:Exchequer
86128 U04:Federal
150332 U04:Freightways
56868 U04:Friday
134526 U04:GNP
146300 U04:Gerard
94192 U04:Green
108290 U04:Group
92848 U04:Hong
14322 U04:House
108360 U04:Inc
94472 U04:Inc.
82418 U04:Industrial
94332 U04:Industries
23380 U04:Institute
105910 U04:John
82264 U04:Jones
5978 U04:July
92918 U04:Kong
105994 U04:Kuhns
107184 U04:L.P
128408 U04:LaLonde
8456 U04:Lawson
107758 U04:Lime
93506 U04:Limited
139776 U04:Little
106316 U04:MacDonald
14168 U04:Mansion
78232 U04:Market
140070 U04:Mass.
146664 U04:Massachusetts
146328 U04:McCullough
150542 U04:Menlo
102284 U04:Mexico
26138 U04:Midland
102424 U04:Mo.
89194 U04:Monday
26208 U04:Montagu
41454 U04:Mr.
86506 U04:New
8288 U04:Nigel
50722 U04:No
23128 U04:Nomura
81536 U04:Oct.
33208 U04:October
122612 U04:Ohio
26754 U04:PLC
150570 U04:Park
93422 U04:Partners
93604 U04:Partnership
122066 U04:Pont
23254 U04:Research
86212 U04:Reserve
106204 U04:Robert
95816 U04:Rock
121618 U04:Sayre
97426 U04:Securities
3612 U04:September
25704 U04:Simon
122710 U04:State
146804 U04:Technology
14868 U04:Thursday
89894 U04:Tokyo
22764 U04:U.K.
86058 U04:U.S.
122794 U04:University
140294 U04:We
107534 U04:Westwood
86576 U04:York
7308 U04:_B+1
7560 U04:_B+2
136374 U04:`
50568 U04:``
5530 U04:a
79492 U04:abated
137606 U04:able
37814 U04:about
118678 U04:abroad
30856 U04:account
93968 U04:acquire
49784 U04:adjusting
48132 U04:advance
44660 U04:after
65702 U04:again
59934 U04:ago
96404 U04:agreement
112126 U04:air-freight
140672 U04:all
68166 U04:allow
72968 U04:already
46102 U04:also
24864 U04:an
19306 U04:analysts
6090 U04:and
13440 U04:announce
112490 U04:announced
132552 U04:annual
2030 U04:another
13580 U04:any
97860 U04:approval
20622 U04:are
45346 U04:as
22988 U04:at
97034 U04:attached
67620 U04:audience
147882 U04:away
25046 U04:awful
84364 U04:back
20454 U04:bad
77896 U04:balance
130102 U04:bargain
16562 U04:base
108710 U04:based
24696 U04:be
48468 U04:because
12474 U04:been
49728 U04:before
129486 U04:began
80122 U04:begun
16058 U04:being
41902 U04:believes
76622 U04:below
140980 U04:benefits
116718 U04:big
29064 U04:billion
95606 U04:board
36288 U04:boost
103334 U04:boosted
65996 U04:both
110390 U04:bottoming
105070 U04:bought
117586 U04:bright
127610 U04:broad-based
47614 U04:bullish
27398 U04:but
12656 U04:by
53606 U04:can
39354 U04:capital
150892 U04:carrier
142128 U04:carriers
147098 U04:carry
119210 U04:caught
91616 U04:cents
119602 U04:certain
12936 U04:chancellor
116802 U04:change
88102 U04:changing
64876 U04:clear
85358 U04:close
101066 U04:closed
52850 U04:clouded
83594 U04:coming
98924 U04:comment
8904 U04:commitment
104566 U04:common
112252 U04:companies
99652 U04:company
125230 U04:compared
148750 U04:competing
109900 U04:competition
118552 U04:competitive
153146 U04:competitors
79296 U04:concerns
73752 U04:confidence
139538 U04:consultant
39032 U04:consumer
97986 U04:contingent
38668 U04:continued
106414 U04:control
138922 U04:cost
113820 U04:costs
24556 U04:could
47922 U04:currency
17654 U04:current
100282 U04:currently
144074 U04:cutting
28056 U04:data
86688 U04:day
79884 U04:dealers
109662 U04:decade
44926 U04:decline
74312 U04:declined
109116 U04:declining
125090 U04:decrease
18382 U04:defend
30324 U04:deficit
6860 U04:deficits
90804 U04:delivery
114226 U04:demand
110166 U04:deregulation
135842 U04:directly
121730 U04:director
147798 U04:discounted
151130 U04:discounting
80220 U04:distance
123536 U04:distribution
2534 U04:dive
56994 U04:do
66556 U04:does
86912 U04:dollar
21406 U04:down
127330 U04:dramatic
43428 U04:drop
4102 U04:due
147560 U04:each
131642 U04:eager
54418 U04:earlier
113288 U04:early
86002 U04:easing
84658 U04:economic
22876 U04:economist
18634 U04:economists
52738 U04:economy
55020 U04:effect
130872 U04:efficiently
56028 U04:eight
129822 U04:enabled
66122 U04:ensure
130704 U04:equipment
79408 U04:equities
12544 U04:eroded
47180 U04:even
49392 U04:evidence
18984 U04:exchange
27804 U04:expect
1260 U04:expected
56616 U04:expenditure
36470 U04:exports
85484 U04:eye
5054 U04:fail
13188 U04:failure
37478 U04:fairly
113120 U04:fall
76538 U04:falls
115570 U04:fast
115976 U04:faster
63616 U04:fears
27538 U04:few
148848 U04:fiercely
20552 U04:figure
3206 U04:figures
97258 U04:filing
131852 U04:fill
98364 U04:financing
9352 U04:firm
60816 U04:first
51842 U04:flat
84238 U04:focus
3416 U04:for
16142 U04:forced
46228 U04:forecasts
18830 U04:foreign
10472 U04:freefall
114492 U04:freight
141400 U04:freight-cost
141918 U04:freight-rate
123116 U04:freight-transport
5880 U04:from
111440 U04:fuel
84812 U04:fundamentals
49294 U04:further
78764 U04:gains
31934 U04:gap
106820 U04:general
38514 U04:given
51394 U04:go
90566 U04:gold
145110 U04:good
39508 U04:goods
140532 U04:gotten
16002 U04:government
133910 U04:gross
125664 U04:had
77420 U04:halt
88186 U04:hands
9814 U04:has
117250 U04:haulage
112378 U04:have
37226 U04:he
20874 U04:heavily
9968 U04:helped
118006 U04:helping
38850 U04:high
70868 U04:higher
55664 U04:highest
14042 U04:his
69888 U04:holding
104076 U04:holds
72646 U04:hollow
2772 U04:if
54012 U04:impact
148400 U04:implemented
63980 U04:import
38304 U04:imports
5782 U04:improvement
10556 U04:in
104790 U04:including
16422 U04:increase
15400 U04:increased
112700 U04:increases
108066 U04:indirect
35602 U04:industry
134960 U04:inefficiency
111594 U04:inflation
39648 U04:inflows
132650 U04:inter-city
54292 U04:interest
51450 U04:into
48650 U04:investors
700 U04:is
64778 U04:it
84140 U04:its
35966 U04:itself
149842 U04:keen
85092 U04:keeping
143052 U04:labor
73668 U04:lack
14686 U04:last
75866 U04:late
96572 U04:later
43162 U04:lead
131096 U04:leading
43876 U04:least
146440 U04:lecturer
150822 U04:less-than-truckload
95144 U04:letter
18116 U04:level
149632 U04:levels
92036 U04:light
135548 U04:likely
107296 U04:limited
45388 U04:little
121870 U04:logistics
137718 U04:look
125790 U04:looked
25214 U04:lot
64736 U04:made
72352 U04:make
102606 U04:maker
35490 U04:manufacturing
28490 U04:marked
19152 U04:market
75096 U04:marks
42546 U04:material
115878 U04:maybe
13874 U04:measures
96348 U04:merger
92274 U04:million
70224 U04:moment
9506 U04:monetary
54684 U04:month
63826 U04:more
109270 U04:most
120302 U04:move
48286 U04:much
48020 U04:n't
40432 U04:narrow
101752 U04:national
6636 U04:near-record
65800 U04:necessary
13706 U04:new
113386 U04:next
138474 U04:nine
35000 U04:no
68068 U04:not
25634 U04:noted
24388 U04:number
98126 U04:obtaining
144242 U04:occurred
15820 U04:of
95914 U04:offer
98784 U04:official
138852 U04:offsetting
21056 U04:on
50890 U04:one
32606 U04:only
89474 U04:opened
138796 U04:opportunity
113204 U04:or
70280 U04:other
91266 U04:ounce
92414 U04:ounces
85610 U04:out
38108 U04:outlook
100716 U04:outstanding
10752 U04:over
101836 U04:over-the-counter
52486 U04:overall
131320 U04:overcapacity
106890 U04:partner
107478 U04:partnership
136598 U04:party
10934 U04:past
142464 U04:pay
127960 U04:perceived
37632 U04:pessimistic
66668 U04:place
151886 U04:plans
82642 U04:plunged
83062 U04:points
9660 U04:policy
124558 U04:polled
72170 U04:popularity
51912 U04:position
49896 U04:positions
78694 U04:posted
392 U04:pound
83328 U04:predict
81102 U04:preoccupied
65408 U04:prepared
25424 U04:pressure
10262 U04:prevent
144368 U04:previously
143990 U04:price
133994 U04:product
117866 U04:productivity
102830 U04:products
128618 U04:professor
70602 U04:promise
99260 U04:proposal
93828 U04:proposed
70812 U04:pushed
58996 U04:quarter
57834 U04:quickly
79002 U04:quiet
61754 U04:quite
86968 U04:quoted
132902 U04:rail
149534 U04:rail-traffic
129108 U04:railroads
152040 U04:raise
27202 U04:range
68922 U04:rate
16702 U04:rates
62944 U04:rather
42448 U04:raw
141890 U04:real
44240 U04:rebound
116942 U04:recent
122402 U04:recently
11424 U04:reckon
143640 U04:recoup
63532 U04:reduce
42266 U04:reduction
141442 U04:reductions
135772 U04:reflected
113652 U04:reflecting
102760 U04:refractory
32018 U04:registered
4536 U04:release
56756 U04:released
37338 U04:remains
67466 U04:reminded
142198 U04:replace
30898 U04:reported
8750 U04:restated
118160 U04:restrain
149394 U04:restrained
68446 U04:rigor
54208 U04:rise
64148 U04:rises
135338 U04:rising
15680 U04:risk
19866 U04:risks
58422 U04:rose
21868 U04:said
36946 U04:same
98224 U04:satisfactory
137956 U04:savings
19446 U04:say
136276 U04:saying
112910 U04:scheduled
59164 U04:second
49196 U04:see
139244 U04:segments
22624 U04:senior
62860 U04:services
90902 U04:settled
147420 U04:several
94878 U04:share
100562 U04:shares
2282 U04:sharp
84098 U04:shift
124502 U04:shippers
111944 U04:shipping
63434 U04:should
5376 U04:show
73080 U04:showing
21546 U04:side
35098 U04:sign
96180 U04:signing
73360 U04:signs
153468 U04:similar
81466 U04:since
120988 U04:slightly
53550 U04:slowdown
57680 U04:slowing
106778 U04:sole
44058 U04:some
72562 U04:sound
14490 U04:speech
58338 U04:spending
117670 U04:spot
109984 U04:spurred
134988 U04:squeezed
151466 U04:stabilize
103488 U04:stake
120204 U04:starting
10654 U04:sterling
61628 U04:still
80682 U04:stock
42672 U04:stockbuilding
123312 U04:storage
61894 U04:strong
95984 U04:subject
108108 U04:subsidiary
5670 U04:substantial
127092 U04:such
57260 U04:suggest
62370 U04:suggestions
119532 U04:supply
11830 U04:support
72268 U04:swiftly
135254 U04:system
1764 U04:take
54852 U04:takes
63070 U04:than
35196 U04:that
56 U04:the
17486 U04:their
23702 U04:there
71400 U04:they
58954 U04:third
54530 U04:this
111118 U04:threatening
114086 U04:tightened
37058 U04:time
145152 U04:times
1512 U04:to
4732 U04:tomorrow
32480 U04:topped
3010 U04:trade
74172 U04:trading
147672 U04:trailer
35826 U04:transforming
114618 U04:transport
119896 U04:transportation
137872 U04:transportation-cost
132734 U04:truck
129220 U04:trucking
150122 U04:trucks
143458 U04:try
49672 U04:turnaround
110712 U04:turning
153062 U04:two
119672 U04:types
78050 U04:unchanged
11606 U04:underlying
68712 U04:undermined
44870 U04:unexpected
26418 U04:unit
59388 U04:up
98056 U04:upon
127750 U04:upturn
110838 U04:upward
130494 U04:use
99400 U04:values
20734 U04:very
80584 U04:volatile
48958 U04:want
71512 U04:warn
53312 U04:warned
47012 U04:warns
59290 U04:was
126812 U04:we
149450 U04:weakening
69006 U04:weakness
11046 U04:week
62776 U04:went
131530 U04:were
81788 U04:when
80878 U04:which
46018 U04:who
994 U04:widely
40362 U04:will
60284 U04:with
51786 U04:without
47964 U04:wo
59892 U04:year
56182 U04:years
88494 U04:yen
45822 U05:#/1.3
41118 U05:#/1.8
29260 U05:#/2
31948 U05:#/2.2
33124 U05:#/2.3
74956 U05:$/1.5890
75726 U05:$/1.5940
101710 U05:$/1.875
100156 U05:$/106.6
133434 U05:$/150
30128 U05:$/3.2
132454 U05:$/35
105588 U05:$/35.50
105826 U05:$/36.50
93296 U05:$/366.50
91280 U05:$/367.30
101444 U05:$/38
94892 U05:$/40
99414 U05:$/40-a-share
77350 U05:%/,
104034 U05:%/.
17668 U05:%/from
58968 U05:%/in
61166 U05:%/increase
152880 U05:%/late
18396 U05:%/level
124474 U05:%/of
148414 U05:%/rate
60760 U05:%/rise
124054 U05:%/this
125804 U05:%/who
34650 U05:&/Co.
120680 U05:''/at
62496 U05:''/but
52304 U05:''/in
25774 U05:''/noted
22260 U05:''/said
137326 U05:'/''
143472 U05:'ll/see
78456 U05:'s/Market
89950 U05:'s/Tokyo
116816 U05:'s/a
95746 U05:'s/board
13454 U05:'s/failure
35728 U05:'s/manufacturing
7098 U05:'s/near-record
137018 U05:'s/over
72282 U05:'s/popularity
70672 U05:'s/promise
9058 U05:'s/restated
145838 U05:'s/still
44996 U05:'s/unexpected
140840 U05:'ve/gotten
137228 U05:,/'
22064 U05:,/''
150836 U05:,/Calif.
140084 U05:,/Cambridge
95886 U05:,/East
33936 U05:,/European
140196 U05:,/Mass.
102620 U05:,/Mo.
41692 U05:,/Mr.
26082 U05:,/U.K.
50904 U05:,/``
26530 U05:,/a
108122 U05:,/an
120148 U05:,/and
72044 U05:,/any
110502 U05:,/are
97174 U05:,/attached
77434 U05:,/both
27678 U05:,/but
125454 U05:,/compared
109284 U05:,/declining
121884 U05:,/director
147994 U05:,/discounted
134288 U05:,/down
4550 U05:,/due
18844 U05:,/economists
5390 U05:,/fail
38864 U05:,/given
90720 U05:,/gold
37492 U05:,/he
118174 U05:,/helping
101850 U05:,/in
104972 U05:,/including
132832 U05:,/inter-city
85372 U05:,/keeping
131334 U05:,/leading
146580 U05:,/lecturer
150976 U05:,/less-than-truckload
102774 U05:,/maker
133658 U05:,/or
52640 U05:,/overall
142646 U05:,/pay
113834 U05:,/reflecting
135478 U05:,/rising
34902 U05:,/said
113064 U05:,/scheduled
22890 U05:,/senior
112140 U05:,/shipping
123550 U05:,/storage
45206 U05:,/the
24710 U05:,/there
71666 U05:,/they
133224 U05:,/to
110978 U05:,/turning
87542 U05:,/up
47194 U05:,/warns
82110 U05:,/when
81116 U05:,/which
46242 U05:,/who
29932 U05:-LRB-/$
30660 U05:-RRB-/deficit
69426 U05:./''
58884 U05:0.1/%
45906 U05:1.3/billion
75110 U05:1.5890/and
75810 U05:1.5940/and
60676 U05:1.6/%
41216 U05:1.8/billion
87780 U05:1.8470/marks
87416 U05:1.8578/marks
101766 U05:1.875/,
124390 U05:10/%
100226 U05:106.6/million
81942 U05:13/,
90132 U05:141.35/yen
88900 U05:141.70/yen
89824 U05:141.95/yen
88676 U05:142.43/yen
18270 U05:15/%
133490 U05:150/billion
17500 U05:16/%
95340 U05:19/letter
83244 U05:190/points
130004 U05:1980/enabled
126910 U05:1980/that
134820 U05:1981/.
33600 U05:1988/.
100842 U05:2,664,098/shares
32032 U05:2.2/billion
33166 U05:2.3/billion
92568 U05:2.4/million
77014 U05:2.90/marks
75964 U05:2.9429/marks
75376 U05:2.9495/marks
29484 U05:2/billion
91756 U05:20/cents
104580 U05:233,000/A.P.
124656 U05:250/shippers
30338 U05:3.2/billion
59850 U05:3.8/%
105210 U05:30,000/shares
125678 U05:30/%
97006 U05:31/.
105686 U05:35.50/to
132496 U05:35/billion
105868 U05:36.50/a
93338 U05:366.50/an
91378 U05:367.30/an
101514 U05:38/,
148358 U05:4.7/%
123984 U05:4/%
99540 U05:40-a-share/proposal
94948 U05:40/a
152782 U05:5.3/%
61124 U05:5.4/%
133924 U05:6.4/%
103992 U05:8.7/%
134540 U05:8/%
94486 U05:A.P./Green
98798 U05:An/A.P.
150290 U05:An/official
69678 U05:Analysts/agree
71526 U05:And/,
148708 U05:April/.
139860 U05:Arthur/D.
37072 U05:At/the
6874 U05:August/'s
31416 U05:August/.
31584 U05:August/deficit
82838 U05:Average/plunged
26880 U05:Bank/PLC
34328 U05:Baring/Brothers
128520 U05:Bernard/LaLonde
109032 U05:Boston/.
108612 U05:Both/Westwood
107982 U05:Brick/Lime
108654 U05:Brick/and
25998 U05:Briscoe/,
35616 U05:Britain/'s
34496 U05:Brothers/&
11620 U05:But/analysts
56686 U05:But/consumer
134876 U05:But/with
150906 U05:Calif./,
140140 U05:Cambridge/,
130606 U05:Carriers/could
64680 U05:Certainly/,
8134 U05:Chancellor/of
22638 U05:Chris/Dillow
121744 U05:Clifford/Sayre
34790 U05:Co./,
122360 U05:Co/.
129080 U05:Columbus/.
43890 U05:Combined/with
97818 U05:Commission/,
90454 U05:Commodity/Exchange
406 U05:Confidence/in
150458 U05:Consolidated/Freightways
83412 U05:Currency/analysts
139930 U05:D./Little
139552 U05:Delaney/,
119322 U05:Demand/has
22778 U05:Dillow/,
41916 U05:Dillow/said
82558 U05:Dow/Jones
122234 U05:Du/Pont
93520 U05:East/Rock
76314 U05:Economists/suggested
91938 U05:Estimated/volume
34006 U05:European/economist
74326 U05:European/trading
97762 U05:Exchange/Commission
90524 U05:Exchange/in
8610 U05:Exchequer/Nigel
86366 U05:Federal/Reserve
27062 U05:Forecasts/for
79954 U05:Foreign/exchange
109130 U05:Freight/rates
150514 U05:Freightways/Inc.
152054 U05:Freightways/plans
78344 U05:Friday/'s
74130 U05:Friday/.
57274 U05:Friday/do
134694 U05:GNP/in
146454 U05:Gerard/McCullough
95676 U05:Green/'s
94598 U05:Green/Industries
104734 U05:Green/common
100436 U05:Green/currently
98868 U05:Green/official
103838 U05:Green/to
108486 U05:Group/Inc
108766 U05:Group/are
40222 U05:He/reckons
93044 U05:Hong/Kong
14882 U05:House/speech
41580 U05:However/,
23982 U05:If/there
74228 U05:In/European
89208 U05:In/Tokyo
95088 U05:In/an
92806 U05:In/early
53172 U05:In/his
106792 U05:Inc./,
94752 U05:Inc./for
108542 U05:Inc/.
82740 U05:Industrial/Average
94668 U05:Industries/Inc.
23660 U05:Institute/.
146874 U05:Institute/of
104216 U05:It/now
101192 U05:Its/stock
106218 U05:John/Kuhns
82656 U05:Jones/Industrial
33866 U05:Joshi/,
6440 U05:July/and
32620 U05:July/are
93100 U05:Kong/Monday
106330 U05:Kuhns/and
107282 U05:L.P/.
128576 U05:LaLonde/,
137494 U05:LaLonde/.
86520 U05:Late/in
8918 U05:Lawson/'s
53424 U05:Lawson/warned
147042 U05:Less-than-truckload/companies
108038 U05:Lime/Inc.
93772 U05:Limited/Partnership
140000 U05:Little/Inc.
106582 U05:MacDonald/control
114954 U05:Major/shippers
14700 U05:Mansion/House
78582 U05:Market/Activity
140238 U05:Mass./,
146818 U05:Massachusetts/Institute
146524 U05:McCullough/,
52570 U05:Meanwhile/,
150696 U05:Menlo/Park
102522 U05:Mexico/,
26824 U05:Midland/Bank
26334 U05:Midland/Montagu
102690 U05:Mo./,
89404 U05:Monday/,
26432 U05:Montagu/,
46032 U05:Mr./Briscoe
41790 U05:Mr./Dillow
137466 U05:Mr./LaLonde
53368 U05:Mr./Lawson
50414 U05:Nevertheless/,
86702 U05:New/York
106008 U05:New/York-based
8764 U05:Nigel/Lawson
51184 U05:No/one
23492 U05:Nomura/Research
144928 U05:Not/everyone
141722 U05:Now/we
81802 U05:Oct./13
95242 U05:Oct./19
96964 U05:Oct./31
33474 U05:October/1988
122878 U05:Ohio/State
90314 U05:On/the
124292 U05:Only/10
26936 U05:PLC/.
150766 U05:Park/,
106750 U05:Partners/Inc.
107240 U05:Partners/L.P
93702 U05:Partners/Limited
93842 U05:Partnership/said
122304 U05:Pont/Co
149338 U05:Railroad-rate/increases
23590 U05:Research/Institute
86422 U05:Reserve/.
139496 U05:Robert/Delaney
106498 U05:Robert/MacDonald
93618 U05:Rock/Partners
103124 U05:Rock/also
95928 U05:Rock/said
33782 U05:Sanjay/Joshi
121814 U05:Sayre/,
97622 U05:Securities/and
4340 U05:September/,
41426 U05:September/.
136388 U05:Shippers/are
132286 U05:Shippers/cut
122514 U05:Shippers/surveyed
137564 U05:Shippers/wo
25914 U05:Simon/Briscoe
122948 U05:State/University
128996 U05:State/in
73094 U05:Sterling/was
146972 U05:Technology/.
116732 U05:That/'s
99274 U05:The/$
31500 U05:The/August
88004 U05:The/U.S.
148764 U05:The/carriers
102256 U05:The/company
129122 U05:The/deregulation
78778 U05:The/dollar
58282 U05:The/figures
97048 U05:The/letter
20216 U05:The/risks
107352 U05:The/sole
145726 U05:There/'s
60340 U05:This/compares
15540 U05:This/has
126546 U05:This/is
67480 U05:Thursday/,
15316 U05:Thursday/.
105504 U05:Thursday/for
87878 U05:Thursday/in
89992 U05:Tokyo/close
89292 U05:Tokyo/on
138740 U05:Transport/rates
112028 U05:Trucking/,
55510 U05:U.K./base
23142 U05:U.K./economist
57694 U05:U.K./economy
86296 U05:U.S./Federal
88046 U05:U.S./currency
118566 U05:U.S./industry
118020 U05:U.S./productivity
123004 U05:University/said
140686 U05:We/'ve
107884 U05:Westwood/Brick
108430 U05:Westwood/Group
106106 U05:York-based/John
90636 U05:York/,
87976 U05:York/.
89040 U05:York/late
86786 U05:York/trading
143388 U05:You/'ll
100296 U05:_B-1/A.P.
98742 U05:_B-1/An
69580 U05:_B-1/Analysts
71414 U05:_B-1/And
36960 U05:_B-1/At
108570 U05:_B-1/Both
11438 U05:_B-1/But
130508 U05:_B-1/Carriers
64624 U05:_B-1/Certainly
7994 U05:_B-1/Chancellor
43750 U05:_B-1/Combined
70 U05:_B-1/Confidence
151900 U05:_B-1/Consolidated
83342 U05:_B-1/Currency
93436 U05:_B-1/East
76230 U05:_B-1/Economists
91854 U05:_B-1/Estimated
26964 U05:_B-1/Forecasts
79898 U05:_B-1/Foreign
109060 U05:_B-1/Freight
78246 U05:_B-1/Friday
40110 U05:_B-1/He
41468 U05:_B-1/However
53116 U05:_B-1/In
104090 U05:_B-1/It
101080 U05:_B-1/Its
86450 U05:_B-1/Late
147000 U05:_B-1/Less-than-truckload
114884 U05:_B-1/Major
52500 U05:_B-1/Meanwhile
45990 U05:_B-1/Mr.
50358 U05:_B-1/Nevertheless
105924 U05:_B-1/New
144830 U05:_B-1/Not
141638 U05:_B-1/Now
90244 U05:_B-1/On
124194 U05:_B-1/Only
149296 U05:_B-1/Railroad-rate
139454 U05:_B-1/Robert
33698 U05:_B-1/Sanjay
122416 U05:_B-1/Shippers
72982 U05:_B-1/Sterling
116662 U05:_B-1/That
31444 U05:_B-1/The
15414 U05:_B-1/This
67410 U05:_B-1/Thursday
138698 U05:_B-1/Transport
111958 U05:_B-1/Trucking
55440 U05:_B-1/U.K.
143318 U05:_B-1/You
19880 U05:_B-1/``
136738 U05:`/the
119224 U05:``/Demand
23828 U05:``/If
51044 U05:``/No
136290 U05:``/Shippers
20048 U05:``/The
145628 U05:``/There
126504 U05:``/This
140546 U05:``/We
68180 U05:``/can
120890 U05:``/close
61768 U05:``/is
151676 U05:``/stabilize
46802 U05:a/#
60592 U05:a/1.6
148302 U05:a/4.7
61068 U05:a/5.4
150626 U05:a/Menlo
102438 U05:a/Mexico
20566 U05:a/bad
116886 U05:a/big
117740 U05:a/bright
85624 U05:a/close
139636 U05:a/consultant
127624 U05:a/dramatic
97384 U05:a/filing
9674 U05:a/firm
51996 U05:a/flat
10668 U05:a/freefall
53620 U05:a/further
73766 U05:a/lack
92288 U05:a/light
145992 U05:a/lot
96460 U05:a/merger
120764 U05:a/rate
42462 U05:a/reduction
95004 U05:a/share
43498 U05:a/sharp
5894 U05:a/substantial
128632 U05:a/transportation
26614 U05:a/unit
28574 U05:a/very
60032 U05:a/year
79828 U05:abated/.
137802 U05:able/to
100072 U05:about/$
123914 U05:about/4
133840 U05:about/6.4
79618 U05:about/equities
38234 U05:about/the
119084 U05:abroad/.
40446 U05:account/deficit
47026 U05:account/gap
31108 U05:account/reported
94346 U05:acquire/A.P.
50190 U05:adjusting/positions
48664 U05:advance/much
44884 U05:after/August
65898 U05:again/if
60228 U05:ago/.
69790 U05:agree/there
96586 U05:agreement/by
112504 U05:air-freight/companies
141148 U05:all/the
68460 U05:allow/the
73374 U05:already/showing
88284 U05:also/changing
98140 U05:also/contingent
46578 U05:also/forecasts
103194 U05:also/said
95158 U05:an/Oct.
25354 U05:an/awful
108178 U05:an/indirect
138866 U05:an/opportunity
91476 U05:an/ounce
83482 U05:analysts/predict
11844 U05:analysts/reckon
19684 U05:analysts/say
75880 U05:and/2.9429
75250 U05:and/2.9495
6650 U05:and/August
97706 U05:and/Exchange
106428 U05:and/Robert
108682 U05:and/Westwood
61012 U05:and/a
112392 U05:and/air-freight
153076 U05:and/at
127876 U05:and/broad-based
39662 U05:and/capital
123704 U05:and/distribution
77840 U05:and/ensure
19166 U05:and/foreign
150024 U05:and/keen
118412 U05:and/make
116130 U05:and/maybe
142982 U05:and/pay
133042 U05:and/rail
120218 U05:and/rates
67046 U05:and/that
31794 U05:and/the
111454 U05:and/threatening
114380 U05:and/tightened
146230 U05:and/truck
129402 U05:and/trucking
59514 U05:and/was
13804 U05:announce/any
112826 U05:announced/rate
153580 U05:announced/similar
132748 U05:annual/,
24402 U05:another/bad
2786 U05:another/sharp
72114 U05:any/further
13888 U05:any/new
85974 U05:any/signs
98000 U05:approval/is
55678 U05:are/at
108850 U05:are/based
110600 U05:are/bottoming
47768 U05:are/bullish
135716 U05:are/likely
145404 U05:are/over
136500 U05:are/saying
120316 U05:are/starting
32760 U05:are/topped
21070 U05:are/very
45738 U05:as/#
142282 U05:as/carriers
79422 U05:as/concerns
115752 U05:as/fast
115892 U05:as/inflation
45528 U05:as/little
54096 U05:as/the
138250 U05:as/they
91182 U05:at/$
87360 U05:at/1.8578
89782 U05:at/141.95
88606 U05:at/142.43
139790 U05:at/Arthur
34174 U05:at/Baring
150402 U05:at/Consolidated
122164 U05:at/Du
146762 U05:at/Massachusetts
23394 U05:at/Nomura
128940 U05:at/Ohio
120736 U05:at/a
99974 U05:at/about
44254 U05:at/least
70294 U05:at/the
55790 U05:at/their
97272 U05:attached/to
67970 U05:audience/that
148218 U05:away/a
25438 U05:awful/lot
84826 U05:back/to
20636 U05:bad/trade
78022 U05:balance/of
130326 U05:bargain/for
16982 U05:base/rates
108920 U05:based/in
137732 U05:be/able
25228 U05:be/an
53942 U05:be/expected
77196 U05:be/forced
70966 U05:be/pushed
135912 U05:be/reflected
149464 U05:be/restrained
68852 U05:be/undermined
48972 U05:because/investors
109998 U05:because/of
12796 U05:been/eroded
50050 U05:before/adjusting
129836 U05:began/in
80290 U05:begun/to
16436 U05:being/forced
42280 U05:believes/that
76930 U05:below/2.90
141358 U05:benefits/of
116956 U05:big/change
133560 U05:billion/,
29722 U05:billion/-LRB-
30520 U05:billion/-RRB-
45962 U05:billion/.
46914 U05:billion/current
33222 U05:billion/deficit
132566 U05:billion/from
32144 U05:billion/gap
41300 U05:billion/in
95830 U05:board/,
36792 U05:boost/exports
103572 U05:boosted/its
66402 U05:both/ensure
146160 U05:both/rail
77518 U05:both/to
110726 U05:bottoming/out
105406 U05:bought/last
117810 U05:bright/spot
127974 U05:broad-based/upturn
47852 U05:bullish/for
27818 U05:but/few
62594 U05:but/suggestions
122808 U05:by/Ohio
86226 U05:by/U.S.
110320 U05:by/deregulation
69020 U05:by/exchange
43176 U05:by/industry
96656 U05:by/no
13076 U05:by/the
149646 U05:by/weakening
53858 U05:can/be
68278 U05:can/not
39802 U05:capital/goods
151088 U05:carrier/,
142366 U05:carriers/replace
143654 U05:carriers/try
148862 U05:carriers/were
147350 U05:carry/the
119476 U05:caught/up
91812 U05:cents/.
119826 U05:certain/types
13314 U05:chancellor/'s
64792 U05:chancellor/has
117026 U05:change/from
88382 U05:changing/hands
65296 U05:clear/that
85708 U05:close/eye
90034 U05:close/of
121002 U05:close/to
101360 U05:closed/at
53046 U05:clouded/.
83860 U05:coming/week
99078 U05:comment/on
9366 U05:commitment/to
104804 U05:common/shares
147112 U05:companies/,
112602 U05:companies/have
129612 U05:companies/that
99876 U05:company/at
102298 U05:company/is
125538 U05:compared/with
60410 U05:compares/with
149086 U05:competing/fiercely
150108 U05:competition/for
110180 U05:competition/spurred
118972 U05:competitive/abroad
153482 U05:competitors/have
79506 U05:concerns/about
73920 U05:confidence/in
139706 U05:consultant/at
39522 U05:consumer/and
56770 U05:consumer/expenditure
63546 U05:consumer/goods
98238 U05:contingent/upon
39214 U05:continued/high
106666 U05:control/East
139188 U05:cost/increases
133154 U05:costs/,
114240 U05:costs/and
135646 U05:costs/are
126378 U05:costs/in
123788 U05:costs/to
25060 U05:could/be
43316 U05:could/lead
45360 U05:could/narrow
72450 U05:could/swiftly
130718 U05:could/use
80136 U05:currency/market
89558 U05:currency/opened
88116 U05:currency/was
48146 U05:currency/wo
18130 U05:current/15
30996 U05:current/account
90972 U05:current/delivery
100576 U05:currently/has
132356 U05:cut/about
144382 U05:cutting/that
57008 U05:data/released
61488 U05:data/show
28392 U05:data/to
86926 U05:day/,
80052 U05:dealers/said
109914 U05:decade/because
45150 U05:decline/,
77770 U05:decline/and
67284 U05:decline/further
74690 U05:declined/to
109396 U05:declining/for
125342 U05:decrease/,
18592 U05:defend/the
31682 U05:deficit/and
45304 U05:deficit/could
30786 U05:deficit/in
33278 U05:deficit/of
40544 U05:deficit/will
7574 U05:deficits/.
91028 U05:delivery/settled
114632 U05:demand/for
110404 U05:deregulation/,
126756 U05:deregulation/in
129164 U05:deregulation/of
136066 U05:directly/in
121940 U05:director/of
148106 U05:discounted/away
151326 U05:discounting/in
80472 U05:distance/itself
123746 U05:distribution/costs
3220 U05:dive/if
57386 U05:do/n't
67172 U05:does/n't
66780 U05:does/take
78890 U05:dollar/posted
87052 U05:dollar/was
134386 U05:down/from
21742 U05:down/side
127764 U05:dramatic/and
43596 U05:drop/in
4746 U05:due/for
147742 U05:each/truck
131978 U05:eager/to
54866 U05:earlier/this
113596 U05:early/next
92862 U05:early/trading
86142 U05:easing/by
85106 U05:economic/fundamentals
23268 U05:economist/at
26222 U05:economist/for
18998 U05:economists/and
28070 U05:economists/expect
139426 U05:economy/.
61642 U05:economy/``
57750 U05:economy/is
52864 U05:economy/remains
55398 U05:effect/.
131222 U05:efficiently/,
138558 U05:eight/or
56462 U05:eight/years
130116 U05:enabled/shippers
66500 U05:ensure/that
142562 U05:equipment/,
130984 U05:equipment/more
79730 U05:equities/abated
12950 U05:eroded/by
47530 U05:even/if
145040 U05:everyone/believes
49686 U05:evidence/of
52752 U05:evidence/on
80990 U05:exchange/,
80010 U05:exchange/dealers
19460 U05:exchange/market
69104 U05:exchange/rate
115346 U05:expect/freight
28182 U05:expect/the
123214 U05:expect/their
54026 U05:expected/as
124950 U05:expected/their
2044 U05:expected/to
56882 U05:expenditure/data
36890 U05:exports/.
44800 U05:exports/after
85792 U05:eye/out
5544 U05:fail/to
13594 U05:failure/to
52962 U05:fairly/clouded
37982 U05:fairly/pessimistic
113400 U05:fall/or
76734 U05:falls/much
115822 U05:fast/as
116410 U05:faster/in
63994 U05:fears/of
27944 U05:few/economists
116620 U05:few/years
149184 U05:fiercely/for
20888 U05:figure/are
47684 U05:figures/are
3864 U05:figures/for
27314 U05:figures/range
58352 U05:figures/show
51856 U05:figures/without
99148 U05:filing/.
103348 U05:filing/that
97440 U05:filing/with
132188 U05:fill/.
98714 U05:financing/.
70238 U05:firm/at
9828 U05:firm/monetary
60928 U05:first/quarter
126616 U05:first/year
52080 U05:flat/position
84672 U05:focus/back
94822 U05:for/$
31346 U05:for/August
26278 U05:for/Midland
4116 U05:for/September
117950 U05:for/U.S.
85932 U05:for/any
90916 U05:for/current
114730 U05:for/freight
38528 U05:for/imports
143220 U05:for/labor
149240 U05:for/market
109536 U05:for/most
139020 U05:for/offsetting
4914 U05:for/release
145488 U05:for/shippers
12488 U05:for/sterling
27146 U05:for/the
113218 U05:for/this
89684 U05:for/trading
130396 U05:for/transportation
138054 U05:for/transportation-cost
16576 U05:forced/to
46718 U05:forecasts/a
19320 U05:foreign/exchange
10766 U05:freefall/in
141554 U05:freight-cost/reductions
142142 U05:freight-rate/increases
123438 U05:freight-transport/,
125104 U05:freight-transport/costs
135352 U05:freight-transport/system
150164 U05:freight/from
117502 U05:freight/haulage
147476 U05:freight/of
115416 U05:freight/rates
114786 U05:freight/transport
120022 U05:freight/transportation
75628 U05:from/$
87724 U05:from/1.8470
88858 U05:from/141.70
134470 U05:from/8
89908 U05:from/Friday
6258 U05:from/July
59948 U05:from/a
117082 U05:from/recent
28938 U05:from/the
17836 U05:from/their
150206 U05:from/trucks
142884 U05:fuel/costs
111832 U05:fuel/inflation
85246 U05:fundamentals/,
67354 U05:further/.
77714 U05:further/decline
72156 U05:further/drop
49602 U05:further/evidence
53690 U05:further/slowdown
79142 U05:gains/in
47096 U05:gap/,
32256 U05:gap/registered
107072 U05:general/partner
39046 U05:given/continued
51632 U05:go/into
90818 U05:gold/for
93170 U05:gold/was
145292 U05:good/times
39942 U05:goods/inflows
63630 U05:goods/should
140994 U05:gotten/all
72212 U05:government/'s
68082 U05:government/``
16282 U05:government/being
77154 U05:government/will
134064 U05:gross/national
126056 U05:had/looked
127344 U05:had/such
77672 U05:halt/any
88508 U05:hands/at
100730 U05:has/2,664,098
12670 U05:has/been
80234 U05:has/begun
119420 U05:has/caught
10276 U05:has/helped
15694 U05:has/increased
64890 U05:has/made
81382 U05:has/preoccupied
117600 U05:haulage/was
112714 U05:have/announced
138362 U05:have/for
127218 U05:have/had
42154 U05:he/believes
65520 U05:he/is
50582 U05:he/noted
37646 U05:he/remains
67634 U05:he/reminded
21420 U05:heavily/on
10388 U05:helped/to
118244 U05:helping/to
39368 U05:high/consumer
114100 U05:higher/costs
136164 U05:higher/freight
142814 U05:higher/fuel
71204 U05:higher/if
56042 U05:highest/level
14504 U05:his/Mansion
67872 U05:his/audience
70154 U05:holding/sterling
104468 U05:holds/233,000
72926 U05:hollow/.
66010 U05:if/necessary
47600 U05:if/the
3430 U05:if/trade
54180 U05:impact/of
148596 U05:implemented/last
64470 U05:import/rises
38682 U05:imports/,
43694 U05:imports/.
6104 U05:improvement/from
126826 U05:in/1980
134764 U05:in/1981
103712 U05:in/A.P.
108990 U05:in/Boston
129038 U05:in/Columbus
92988 U05:in/Hong
32494 U05:in/July
73962 U05:in/Mr.
87934 U05:in/New
41370 U05:in/September
146132 U05:in/both
147686 U05:in/each
56336 U05:in/eight
44744 U05:in/exports
141498 U05:in/freight-cost
136122 U05:in/higher
14336 U05:in/his
43652 U05:in/imports
54432 U05:in/interest
101948 U05:in/national
139300 U05:in/other
126406 U05:in/past
128170 U05:in/perceived
79240 U05:in/quiet
42686 U05:in/raw
10864 U05:in/sterling
151368 U05:in/that
714 U05:in/the
146678 U05:in/transportation
105084 U05:including/30,000
16828 U05:increase/base
61194 U05:increase/from
148526 U05:increase/implemented
65716 U05:increase/interest
77266 U05:increase/rates
15834 U05:increased/the
112994 U05:increases/,
153692 U05:increases/.
149380 U05:increases/are
142212 U05:increases/as
139258 U05:increases/in
108234 U05:indirect/subsidiary
43260 U05:industry/could
151424 U05:industry/has
35980 U05:industry/is
118692 U05:industry/more
135128 U05:inefficiency/squeezed
111902 U05:inflation/.
115990 U05:inflation/and
121548 U05:inflation/rate
40040 U05:inflows/.
132916 U05:inter-city/truck
54544 U05:interest/rates
51730 U05:into/the
49098 U05:investors/will
107772 U05:is/Westwood
102354 U05:is/a
98070 U05:is/also
24290 U05:is/another
70000 U05:is/little
35210 U05:is/no
65604 U05:is/prepared
57848 U05:is/slowing
61908 U05:is/still
96124 U05:is/subject
126588 U05:is/the
36134 U05:is/transforming
1526 U05:is/widely
103502 U05:it/boosted
65156 U05:it/clear
74550 U05:it/declined
93982 U05:it/proposed
84518 U05:its/focus
152558 U05:its/rates
103628 U05:its/stake
80598 U05:itself/from
36484 U05:itself/to
150066 U05:keen/competition
85498 U05:keeping/a
143276 U05:labor/.
73822 U05:lack/of
148666 U05:last/April
15190 U05:last/Thursday
138488 U05:last/eight
54306 U05:last/rise
76146 U05:late/Thursday
152950 U05:late/this
96824 U05:later/than
43372 U05:lead/to
131432 U05:leading/to
115668 U05:least/as
44422 U05:least/some
153258 U05:least/two
146622 U05:lecturer/in
151032 U05:less-than-truckload/carrier
97104 U05:letter/,
95452 U05:letter/to
56196 U05:level/in
18480 U05:level/to
149954 U05:levels/and
92428 U05:light/2.4
135786 U05:likely/to
107450 U05:limited/partner
45640 U05:little/as
70084 U05:little/holding
122080 U05:logistics/at
128786 U05:logistics/professor
137970 U05:look/for
126154 U05:looked/to
25508 U05:lot/of
65016 U05:made/it
118468 U05:make/U.S.
72576 U05:make/this
102844 U05:maker/of
35840 U05:manufacturing/industry
28770 U05:marked/improvement
19572 U05:market/analysts
80178 U05:market/has
149268 U05:market/share
81620 U05:market/since
84154 U05:market/will
77084 U05:marks/,
75516 U05:marks/from
76062 U05:marks/late
42952 U05:material/stockbuilding
116270 U05:maybe/faster
14182 U05:measures/in
96516 U05:merger/agreement
100268 U05:million/.
92680 U05:million/ounces
70420 U05:moment/other
86072 U05:monetary/easing
9982 U05:monetary/policy
55188 U05:month/takes
118832 U05:more/competitive
131110 U05:more/efficiently
143150 U05:more/for
64316 U05:more/import
83076 U05:more/than
109676 U05:most/of
120526 U05:move/up
48818 U05:much/because
76846 U05:much/below
62762 U05:much/of
48482 U05:n't/advance
137662 U05:n't/be
67214 U05:n't/decline
57484 U05:n't/suggest
40782 U05:narrow/to
102060 U05:national/over-the-counter
134120 U05:national/product
7322 U05:near-record/deficits
71358 U05:necessary/.
68572 U05:necessary/rigor
66136 U05:necessary/to
13972 U05:new/policy
116578 U05:next/few
113666 U05:next/year
138656 U05:nine/years
96726 U05:no/later
35308 U05:no/sign
68376 U05:not/allow
50736 U05:noted/,
25844 U05:noted/Simon
104342 U05:now/holds
24570 U05:number/,
98518 U05:obtaining/satisfactory
144620 U05:occurred/previously
90076 U05:of/141.35
61264 U05:of/1988
107170 U05:of/East
134624 U05:of/GNP
26768 U05:of/Midland
33362 U05:of/October
146930 U05:of/Technology
108374 U05:of/Westwood
20510 U05:of/a
119756 U05:of/certain
110082 U05:of/competition
73878 U05:of/confidence
141414 U05:of/deregulation
119980 U05:of/freight
134008 U05:of/gross
122010 U05:of/logistics
68656 U05:of/monetary
64162 U05:of/more
25578 U05:of/pressure
129234 U05:of/railroads
102928 U05:of/refractory
147518 U05:of/several
8302 U05:of/the
96054 U05:offer/is
150346 U05:official/at
98938 U05:official/declined
139104 U05:offsetting/cost
89362 U05:on/Monday
146076 U05:on/rates
63084 U05:on/services
21560 U05:on/the
51310 U05:one/will
41020 U05:only/#
33012 U05:only/by
89614 U05:opened/for
138936 U05:opportunity/for
133756 U05:or/about
113512 U05:or/early
138614 U05:or/nine
121226 U05:or/slightly
139342 U05:other/segments
70504 U05:other/than
91560 U05:ounce/,
93380 U05:ounce/.
92750 U05:ounces/.
110852 U05:out/,
85862 U05:out/for
135240 U05:out/of
38402 U05:outlook/for
101024 U05:outstanding/.
102158 U05:over-the-counter/trading
137116 U05:over/,
145446 U05:over/for
11060 U05:over/the
52696 U05:overall/evidence
131656 U05:overcapacity/they
107128 U05:partner/of
107646 U05:partnership/is
136920 U05:party/'s
11242 U05:past/week
126434 U05:past/years
142730 U05:pay/higher
143066 U05:pay/more
128254 U05:perceived/transportation
38122 U05:pessimistic/about
66976 U05:place/and
152180 U05:plans/to
82950 U05:plunged/more
83300 U05:points/.
10136 U05:policy/has
14056 U05:policy/measures
78092 U05:policy/remains
68726 U05:policy/to
124852 U05:polled/expected
72366 U05:popularity/could
52192 U05:position/''
50302 U05:positions/.
79016 U05:posted/gains
18718 U05:pound/,
52444 U05:pound/.
76636 U05:pound/falls
1274 U05:pound/is
83538 U05:predict/that
81480 U05:preoccupied/the
65660 U05:prepared/to
25648 U05:pressure/,
146048 U05:pressure/on
10570 U05:prevent/a
144718 U05:previously/.
144256 U05:price/cutting
134190 U05:product/,
118090 U05:productivity/,
103068 U05:products/.
128870 U05:professor/at
74060 U05:promise/Friday
72744 U05:promise/sound
70728 U05:promise/that
99666 U05:proposal/values
94080 U05:proposed/to
71078 U05:pushed/higher
59402 U05:quarter/and
59178 U05:quarter/from
61222 U05:quarter/of
58184 U05:quickly/.
79310 U05:quiet/trading
62160 U05:quite/strong
87262 U05:quoted/at
149856 U05:rail-traffic/levels
146188 U05:rail/and
133084 U05:rail/costs
129318 U05:railroads/and
152432 U05:raise/its
27412 U05:range/widely
121576 U05:rate/,
120820 U05:rate/``
151270 U05:rate/discounting
148456 U05:rate/increase
112924 U05:rate/increases
69188 U05:rate/weakness
109200 U05:rates/,
136192 U05:rates/.
152670 U05:rates/5.3
65814 U05:rates/again
55594 U05:rates/are
54698 U05:rates/earlier
146104 U05:rates/in
17164 U05:rates/to
70826 U05:rates/will
138782 U05:rates/wo
63336 U05:rather/than
42812 U05:raw/material
142058 U05:real/freight-rate
44674 U05:rebound/in
117152 U05:recent/years
122724 U05:recently/by
12054 U05:reckon/underlying
40320 U05:reckons/the
143906 U05:recoup/some
126350 U05:reduce/costs
63840 U05:reduce/fears
42560 U05:reduction/in
141610 U05:reductions/.
135982 U05:reflected/directly
113960 U05:reflecting/higher
102998 U05:refractory/products
32368 U05:registered/in
5068 U05:release/tomorrow
57134 U05:released/Friday
37828 U05:remains/fairly
78148 U05:remains/unchanged
67746 U05:reminded/his
142478 U05:replace/equipment
31234 U05:reported/for
9198 U05:restated/commitment
118356 U05:restrain/inflation
149548 U05:restrained/by
68614 U05:rigor/of
123858 U05:rise/about
115514 U05:rise/at
54362 U05:rise/in
64582 U05:rises/.
135562 U05:rising/costs
16016 U05:risk/of
20356 U05:risks/for
58786 U05:rose/0.1
128464 U05:said/Bernard
22456 U05:said/Chris
121674 U05:said/Clifford
146384 U05:said/Gerard
137438 U05:said/Mr.
140406 U05:said/``
42028 U05:said/he
103264 U05:said/in
93912 U05:said/it
151200 U05:said/rate
80094 U05:said/that
61390 U05:said/the
35014 U05:said/there
123060 U05:said/they
37240 U05:same/time
98630 U05:satisfactory/financing
138194 U05:savings/as
19782 U05:say/.
115136 U05:say/they
136612 U05:saying/`
113134 U05:scheduled/for
60830 U05:second/from
59304 U05:second/quarter
143556 U05:see/carriers
49504 U05:see/further
141988 U05:see/real
139384 U05:segments/of
23002 U05:senior/U.K.
63210 U05:services/rather
91112 U05:settled/at
147574 U05:several/shippers
95046 U05:share/.
104888 U05:shares/,
105322 U05:shares/bought
100954 U05:shares/outstanding
3024 U05:sharp/dive
43554 U05:sharp/drop
84378 U05:shift/its
145530 U05:shippers/.
147630 U05:shippers/in
124754 U05:shippers/polled
115052 U05:shippers/say
130214 U05:shippers/to
112266 U05:shipping/and
63728 U05:should/reduce
5796 U05:show/a
58436 U05:show/that
61516 U05:show/the
73514 U05:showing/some
21882 U05:side/,
35406 U05:sign/that
96362 U05:signing/of
73682 U05:signs/of
153636 U05:similar/increases
81690 U05:since/Oct.
126672 U05:since/transportation
121338 U05:slightly/more
53760 U05:slowdown/can
66682 U05:slowdown/does
57946 U05:slowing/that
106988 U05:sole/general
107408 U05:sole/limited
144004 U05:some/of
44562 U05:some/rebound
73612 U05:some/signs
72842 U05:sound/hollow
53270 U05:speech/,
15036 U05:speech/last
58660 U05:spending/rose
62874 U05:spending/went
117880 U05:spot/for
110264 U05:spurred/by
135198 U05:squeezed/out
151788 U05:stabilize/.
103670 U05:stake/in
120386 U05:starting/to
47936 U05:sterling/,
67130 U05:sterling/does
70196 U05:sterling/firm
12558 U05:sterling/has
20468 U05:sterling/of
10948 U05:sterling/over
145922 U05:still/a
62034 U05:still/quite
101290 U05:stock/closed
80892 U05:stock/exchange
43064 U05:stockbuilding/by
123634 U05:storage/and
62272 U05:strong/,
96194 U05:subject/to
108304 U05:subsidiary/of
5992 U05:substantial/improvement
66598 U05:substantial/slowdown
127470 U05:such/a
57554 U05:suggest/that
76412 U05:suggested/that
62678 U05:suggestions/that
119686 U05:supply/of
12376 U05:support/for
122626 U05:surveyed/recently
72506 U05:swiftly/make
135408 U05:system/,
2548 U05:take/another
66892 U05:take/place
55300 U05:takes/effect
83174 U05:than/190
70574 U05:than/Mr.
96908 U05:than/Oct.
63448 U05:than/consumer
121478 U05:than/the
35504 U05:that/Britain
42378 U05:that/a
129724 U05:that/began
47446 U05:that/even
65422 U05:that/he
76496 U05:that/if
83608 U05:that/in
151396 U05:that/industry
103418 U05:that/it
62734 U05:that/much
144508 U05:that/occurred
58072 U05:that/quickly
70784 U05:that/rates
58534 U05:that/spending
67088 U05:that/sterling
57610 U05:that/the
127008 U05:that/we
29078 U05:the/#
124572 U05:the/250
90384 U05:the/Commodity
82432 U05:the/Dow
8470 U05:the/Exchequer
86632 U05:the/New
97552 U05:the/Securities
57638 U05:the/U.K.
89488 U05:the/U.S.
97944 U05:the/approval
77980 U05:the/balance
141274 U05:the/benefits
13202 U05:the/chancellor
83748 U05:the/coming
99820 U05:the/company
48034 U05:the/currency
30912 U05:the/current
28294 U05:the/data
109858 U05:the/decade
45262 U05:the/deficit
86982 U05:the/dollar
21658 U05:the/down
52808 U05:the/economy
99120 U05:the/filing
60886 U05:the/first
84056 U05:the/foreign
147434 U05:the/freight
135296 U05:the/freight-transport
145222 U05:the/good
16156 U05:the/government
54138 U05:the/impact
135058 U05:the/inefficiency
121520 U05:the/inflation
54250 U05:the/last
81550 U05:the/market
70350 U05:the/moment
68530 U05:the/necessary
116536 U05:the/next
95998 U05:the/offer
38318 U05:the/outlook
107548 U05:the/partnership
136836 U05:the/party
11144 U05:the/past
1008 U05:the/pound
144158 U05:the/price
15932 U05:the/risk
37170 U05:the/same
59248 U05:the/second
96306 U05:the/signing
106904 U05:the/sole
62818 U05:the/spending
119616 U05:the/supply
59052 U05:the/third
27216 U05:the/trade
49798 U05:the/turnaround
80766 U05:the/volatile
132664 U05:their/annual
17976 U05:their/current
130886 U05:their/equipment
123326 U05:their/freight-transport
55916 U05:their/highest
24878 U05:there/could
24150 U05:there/is
115248 U05:they/expect
138306 U05:they/have
71806 U05:they/warn
131768 U05:they/were
59108 U05:third/quarter
113302 U05:this/fall
55034 U05:this/month
72660 U05:this/promise
124110 U05:this/year
111608 U05:threatening/to
114506 U05:tightened/demand
37352 U05:time/,
145362 U05:times/are
74816 U05:to/$
17332 U05:to/16
103922 U05:to/8.7
95550 U05:to/A.P.
151564 U05:to/``
9520 U05:to/a
133322 U05:to/about
94206 U05:to/acquire
13720 U05:to/announce
45458 U05:to/as
130270 U05:to/bargain
68796 U05:to/be
36652 U05:to/boost
66276 U05:to/both
99036 U05:to/comment
125244 U05:to/decrease
18550 U05:to/defend
80374 U05:to/distance
84966 U05:to/economic
132090 U05:to/fill
126210 U05:to/freight
111734 U05:to/fuel
51534 U05:to/go
77602 U05:to/halt
16716 U05:to/increase
137886 U05:to/look
120456 U05:to/move
40908 U05:to/only
121114 U05:to/or
131544 U05:to/overcapacity
10486 U05:to/prevent
152306 U05:to/raise
143836 U05:to/recoup
126322 U05:to/reduce
118314 U05:to/restrain
115472 U05:to/rise
49406 U05:to/see
5684 U05:to/show
2296 U05:to/take
96264 U05:to/the
5222 U05:tomorrow/,
32900 U05:topped/only
20748 U05:trade/figure
3626 U05:trade/figures
24486 U05:trade/number
102228 U05:trading/.
79366 U05:trading/as
89740 U05:trading/at
86856 U05:trading/day
92932 U05:trading/in
74424 U05:trading/it
147896 U05:trailer/,
36302 U05:transforming/itself
114842 U05:transport/.
126266 U05:transport/to
138124 U05:transportation-cost/savings
120078 U05:transportation/,
130452 U05:transportation/.
146720 U05:transportation/at
126714 U05:transportation/deregulation
128702 U05:transportation/logistics
128324 U05:transportation/rates
146272 U05:truck/,
132986 U05:truck/and
147812 U05:truck/trailer
129500 U05:trucking/companies
150248 U05:trucks/.
143752 U05:try/to
49910 U05:turnaround/before
111132 U05:turning/upward
153370 U05:two/competitors
119910 U05:types/of
78204 U05:unchanged/.
12236 U05:underlying/support
68936 U05:undermined/by
45066 U05:unexpected/decline
26698 U05:unit/of
101654 U05:up/$
120610 U05:up/''
91686 U05:up/20
59766 U05:up/3.8
87640 U05:up/from
119546 U05:up/with
98378 U05:upon/obtaining
128072 U05:upturn/in
111286 U05:upward/and
130802 U05:use/their
99750 U05:values/the
21252 U05:very/heavily
28672 U05:very/marked
80822 U05:volatile/stock
92050 U05:volume/was
49308 U05:want/to
71932 U05:warn/,
53494 U05:warned/that
47320 U05:warns/that
92162 U05:was/a
73234 U05:was/already
88200 U05:was/also
87150 U05:was/quoted
59640 U05:was/up
141820 U05:we/are
127106 U05:we/have
149744 U05:weakening/rail-traffic
69300 U05:weakness/.
11340 U05:week/.
83972 U05:week/the
62958 U05:went/on
148974 U05:were/competing
131866 U05:were/eager
117390 U05:when/freight
82278 U05:when/the
147266 U05:which/carry
81256 U05:which/has
46410 U05:who/also
125930 U05:who/had
27552 U05:widely/,
1778 U05:widely/expected
70882 U05:will/be
40656 U05:will/narrow
84252 U05:will/shift
49210 U05:will/want
125594 U05:with/30
60508 U05:with/a
44072 U05:with/at
134932 U05:with/much
97496 U05:with/the
51926 U05:without/a
48300 U05:wo/n't
113736 U05:year/,
124152 U05:year/.
60130 U05:year/ago
153020 U05:year/or
126644 U05:year/since
56574 U05:years/.
117264 U05:years/when
88746 U05:yen/,
90188 U05:yen/.
88942 U05:yen/in
45752 U06:#/1.3
41034 U06:#/1.8
29092 U06:#/2
31878 U06:#/2.2
33096 U06:#/2.3
74830 U06:$/1.5890
75642 U06:$/1.5940
101668 U06:$/1.875
100086 U06:$/106.6
133392 U06:$/150
29946 U06:$/3.2
132412 U06:$/35
105532 U06:$/35.50
105770 U06:$/36.50
93254 U06:$/366.50
91196 U06:$/367.30
101402 U06:$/38
94836 U06:$/40
99288 U06:$/40-a-share
77322 U06:%/,
104006 U06:%/.
17514 U06:%/from
58898 U06:%/in
61138 U06:%/increase
152796 U06:%/late
18284 U06:%/level
124404 U06:%/of
148372 U06:%/rate
60690 U06:%/rise
123998 U06:%/this
125692 U06:%/who
34510 U06:&/Co.
69440 U06:''/_B+1
120624 U06:''/at
62384 U06:''/but
52206 U06:''/in
25718 U06:''/noted
22078 U06:''/said
137242 U06:'/''
143402 U06:'ll/see
78358 U06:'s/Market
89936 U06:'s/Tokyo
116746 U06:'s/a
95690 U06:'s/board
13328 U06:'s/failure
35630 U06:'s/manufacturing
6888 U06:'s/near-record
136934 U06:'s/over
72226 U06:'s/popularity
70630 U06:'s/promise
8932 U06:'s/restated
145740 U06:'s/still
44940 U06:'s/unexpected
140700 U06:'ve/gotten
137130 U06:,/'
21896 U06:,/''
150780 U06:,/Calif.
140042 U06:,/Cambridge
95844 U06:,/East
33880 U06:,/European
140154 U06:,/Mass.
102536 U06:,/Mo.
41594 U06:,/Mr.
26012 U06:,/U.K.
50750 U06:,/``
26446 U06:,/a
108080 U06:,/an
120092 U06:,/and
71946 U06:,/any
110418 U06:,/are
97118 U06:,/attached
77364 U06:,/both
27566 U06:,/but
125356 U06:,/compared
109214 U06:,/declining
121828 U06:,/director
147910 U06:,/discounted
134204 U06:,/down
4354 U06:,/due
18732 U06:,/economists
5236 U06:,/fail
38696 U06:,/given
90650 U06:,/gold
37366 U06:,/he
118104 U06:,/helping
101780 U06:,/in
104902 U06:,/including
132762 U06:,/inter-city
85260 U06:,/keeping
131236 U06:,/leading
146538 U06:,/lecturer
150920 U06:,/less-than-truckload
102704 U06:,/maker
133574 U06:,/or
52584 U06:,/overall
142576 U06:,/pay
113750 U06:,/reflecting
135422 U06:,/rising
34804 U06:,/said
113008 U06:,/scheduled
22792 U06:,/senior
112042 U06:,/shipping
