version: 100
cost-factor: 1
maxid: 154126
xsize: 3

B-ADJP
B-ADVP
B-NP
B-PP
B-PRT
B-SBAR
B-VP
I-ADJP
I-ADVP
I-NP
I-PP
I-SBAR
I-VP
O

U00:%x[-2,0]
U01:%x[-1,0]
U02:%x[0,0]
U03:%x[1,0]
U04:%x[2,0]
U05:%x[-1,0]/%x[0,0]
U06:%x[0,0]/%x[1,0]
U10:%x[-2,1]
U11:%x[-1,1]
U12:%x[0,1]
U13:%x[1,1]
U14:%x[2,1]
U15:%x[-2,1]/%x[-1,1]
U16:%x[-1,1]/%x[0,1]
U17:%x[0,1]/%x[1,1]
U18:%x[1,1]/%x[2,1]
U20:%x[-2,1]/%x[-1,1]/%x[0,1]
U21:%x[-1,1]/%x[0,1]/%x[1,1]
U22:%x[0,1]/%x[1,1]/%x[2,1]
U30:%x[-2,2]
U31:%x[-1,2]
U32:%x[0,2]
U33:%x[1,2]
U34:%x[2,2]
B

7840 B
29680 U00:#
30562 U00:$
17920 U00:%
35098 U00:&
137788 U00:'
22610 U00:''
143948 U00:'ll
7322 U00:'s
141358 U00:'ve
4746 U00:,
30338 U00:-LRB-
31038 U00:-RRB-
59290 U00:0.1
46298 U00:1.3
75558 U00:1.5890
76188 U00:1.5940
61096 U00:1.6
41636 U00:1.8
88144 U00:1.8470
87808 U00:1.8578
102158 U00:1.875
124796 U00:10
100604 U00:106.6
82418 U00:13
90524 U00:141.35
89278 U00:141.70
90188 U00:141.95
89068 U00:142.43
18494 U00:15
133896 U00:150
17738 U00:16
95774 U00:19
83622 U00:190
127330 U00:1980
29918 U00:2
101262 U00:2,664,098
32382 U00:2.2
33474 U00:2.3
92988 U00:2.4
77420 U00:2.90
76384 U00:2.9429
75824 U00:2.9495
92134 U00:20
104986 U00:233,000
125076 U00:250
30758 U00:3.2
60228 U00:3.8
126112 U00:30
105644 U00:30,000
132888 U00:35
106092 U00:35.50
106232 U00:36.50
93702 U00:366.50
91798 U00:367.30
101920 U00:38
124390 U00:4
148806 U00:4.7
95326 U00:40
99960 U00:40-a-share
153286 U00:5.3
61502 U00:5.4
134288 U00:6.4
134904 U00:8
104370 U00:8.7
94892 U00:A.P.
99162 U00:An
70112 U00:Analysts
71974 U00:And
140308 U00:Arthur
37478 U00:At
7098 U00:August
83258 U00:Average
27160 U00:Bank
34748 U00:Baring
128898 U00:Bernard
108976 U00:Both
108360 U00:Brick
26278 U00:Briscoe
36036 U00:Britain
34930 U00:Brothers
11844 U00:But
151354 U00:Calif.
140588 U00:Cambridge
131026 U00:Carriers
65058 U00:Certainly
8316 U00:Chancellor
22932 U00:Chris
122122 U00:Clifford
35238 U00:Co.
44366 U00:Combined
98196 U00:Commission
90846 U00:Commodity
644 U00:Confidence
150906 U00:Consolidated
83804 U00:Currency
140378 U00:D.
139986 U00:Delaney
119742 U00:Demand
23044 U00:Dillow
82936 U00:Dow
122612 U00:Du
93898 U00:East
76734 U00:Economists
92358 U00:Estimated
34314 U00:European
90902 U00:Exchange
8778 U00:Exchequer
86744 U00:Federal
27398 U00:Forecasts
80332 U00:Foreign
109522 U00:Freight
150948 U00:Freightways
57694 U00:Friday
135086 U00:GNP
146902 U00:Gerard
94976 U00:Green
108864 U00:Group
40642 U00:He
93422 U00:Hong
15050 U00:House
42014 U00:However
24332 U00:If
53550 U00:In
95144 U00:Inc.
83146 U00:Industrial
95060 U00:Industries
147322 U00:Institute
104636 U00:It
101612 U00:Its
106624 U00:John
83034 U00:Jones
34188 U00:Joshi
6650 U00:July
93464 U00:Kong
106722 U00:Kuhns
128940 U00:LaLonde
86898 U00:Late
9086 U00:Lawson
147504 U00:Less-than-truckload
108402 U00:Lime
94150 U00:Limited
140434 U00:Little
106988 U00:MacDonald
115374 U00:Major
14882 U00:Mansion
140700 U00:Mass.
147266 U00:Massachusetts
146972 U00:McCullough
52962 U00:Meanwhile
151144 U00:Menlo
102928 U00:Mexico
26600 U00:Midland
103082 U00:Mo.
89782 U00:Monday
26712 U00:Montagu
42238 U00:Mr.
50820 U00:Nevertheless
87094 U00:New
8932 U00:Nigel
51632 U00:No
23758 U00:Nomura
145432 U00:Not
142226 U00:Now
82250 U00:Oct.
33852 U00:October
123256 U00:Ohio
90692 U00:On
124712 U00:Only
151214 U00:Park
94080 U00:Partners
94234 U00:Partnership
122682 U00:Pont
149786 U00:Railroad-rate
23842 U00:Research
106890 U00:Robert
93996 U00:Rock
34104 U00:Sanjay
122192 U00:Sayre
98028 U00:Securities
4536 U00:September
122920 U00:Shippers
26180 U00:Simon
123326 U00:State
73542 U00:Sterling
117124 U00:That
20510 U00:The
146244 U00:There
15722 U00:This
67872 U00:Thursday
89684 U00:Tokyo
139188 U00:Transport
112448 U00:Trucking
23408 U00:U.K.
86674 U00:U.S.
123396 U00:University
141204 U00:We
108290 U00:Westwood
87178 U00:York
106512 U00:York-based
143850 U00:You
336 U00:_B-1
0 U00:_B-2
137158 U00:`
20342 U00:``
5992 U00:a
138264 U00:able
38626 U00:about
31486 U00:account
94766 U00:acquire
50624 U00:adjusting
49112 U00:advance
45248 U00:after
66318 U00:again
70224 U00:agree
96978 U00:agreement
112896 U00:air-freight
141666 U00:all
68852 U00:allow
73822 U00:already
47040 U00:also
25592 U00:an
12068 U00:analysts
6874 U00:and
13902 U00:announce
113232 U00:announced
133140 U00:annual
2954 U00:another
14000 U00:any
98378 U00:approval
21378 U00:are
45948 U00:as
23646 U00:at
97664 U00:attached
68362 U00:audience
148694 U00:away
25676 U00:awful
85274 U00:back
20874 U00:bad
78386 U00:balance
130732 U00:bargain
17192 U00:base
109312 U00:based
25508 U00:be
49406 U00:because
12964 U00:been
50498 U00:before
130256 U00:began
80696 U00:begun
16590 U00:being
42700 U00:believes
77336 U00:below
141806 U00:benefits
117334 U00:big
30142 U00:billion
96222 U00:board
37212 U00:boost
103950 U00:boosted
66822 U00:both
111160 U00:bottoming
105798 U00:bought
118188 U00:bright
128380 U00:broad-based
48244 U00:bullish
28168 U00:but
13230 U00:by
54278 U00:can
40250 U00:capital
151536 U00:carrier
142856 U00:carriers
147826 U00:carry
119868 U00:caught
120218 U00:certain
13482 U00:chancellor
117404 U00:change
88802 U00:changing
65744 U00:clear
86100 U00:close
101724 U00:closed
84308 U00:coming
99442 U00:comment
9548 U00:commitment
105196 U00:common
113008 U00:companies
100296 U00:company
125916 U00:compared
60830 U00:compares
149576 U00:competing
110572 U00:competition
119406 U00:competitive
153930 U00:competitors
79926 U00:concerns
74298 U00:confidence
140154 U00:consultant
39956 U00:consumer
98658 U00:contingent
39662 U00:continued
107058 U00:control
139650 U00:cost
114688 U00:costs
25368 U00:could
48580 U00:currency
18368 U00:current
101024 U00:currently
132734 U00:cut
144886 U00:cutting
28700 U00:data
87290 U00:day
80430 U00:dealers
110306 U00:decade
45542 U00:decline
75138 U00:declined
109858 U00:declining
125762 U00:decrease
18760 U00:defend
31122 U00:deficit
91420 U00:delivery
115038 U00:demand
110824 U00:deregulation
136458 U00:directly
122318 U00:director
148596 U00:discounted
151774 U00:discounting
80920 U00:distance
124124 U00:distribution
3360 U00:dive
57806 U00:do
67214 U00:does
79310 U00:dollar
22022 U00:down
128184 U00:dramatic
43988 U00:drop
4942 U00:due
148190 U00:each
132412 U00:eager
55314 U00:earlier
93240 U00:early
86520 U00:easing
85554 U00:economic
23534 U00:economist
19250 U00:economists
53228 U00:economy
131642 U00:efficiently
56896 U00:eight
130536 U00:enabled
66892 U00:ensure
131418 U00:equipment
80150 U00:equities
13104 U00:eroded
47936 U00:even
145516 U00:everyone
50050 U00:evidence
19670 U00:exchange
28532 U00:expect
2226 U00:expected
57302 U00:expenditure
45192 U00:exports
86184 U00:eye
5698 U00:fail
13734 U00:failure
38416 U00:fairly
113820 U00:fall
77154 U00:falls
116214 U00:fast
116830 U00:faster
64456 U00:fears
28294 U00:few
149646 U00:fiercely
21182 U00:figure
4060 U00:figures
97818 U00:filing
9982 U00:firm
61292 U00:first
52514 U00:flat
85120 U00:focus
4312 U00:for
16730 U00:forced
47138 U00:forecasts
19544 U00:foreign
10892 U00:freefall
115164 U00:freight
142002 U00:freight-cost
142590 U00:freight-rate
123858 U00:freight-transport
6440 U00:from
112224 U00:fuel
85680 U00:fundamentals
49994 U00:further
79562 U00:gains
32620 U00:gap
107450 U00:general
39508 U00:given
52052 U00:go
91224 U00:gold
145754 U00:good
40362 U00:goods
141526 U00:gotten
16450 U00:government
134442 U00:gross
126476 U00:had
78036 U00:halt
88914 U00:hands
10416 U00:has
117992 U00:haulage
113134 U00:have
38108 U00:he
21686 U00:heavily
10514 U00:helped
118636 U00:helping
39816 U00:high
71638 U00:higher
56504 U00:highest
14700 U00:his
70532 U00:holding
104888 U00:holds
3556 U00:if
54544 U00:impact
149058 U00:implemented
64904 U00:import
39158 U00:imports
6258 U00:improvement
938 U00:in
105518 U00:including
16996 U00:increase
15974 U00:increased
113386 U00:increases
108612 U00:indirect
36442 U00:industry
135520 U00:inefficiency
116438 U00:inflation
133294 U00:inter-city
54992 U00:interest
52122 U00:into
49518 U00:investors
1708 U00:is
65618 U00:it
84966 U00:its
36960 U00:itself
150514 U00:keen
85918 U00:keeping
74200 U00:lack
15358 U00:last
76538 U00:late
97230 U00:later
43764 U00:lead
131852 U00:leading
44870 U00:least
147070 U00:lecturer
151480 U00:less-than-truckload
95886 U00:letter
18662 U00:level
150416 U00:levels
92862 U00:light
136164 U00:likely
107814 U00:limited
46060 U00:little
122458 U00:logistics
138432 U00:look
126546 U00:looked
25760 U00:lot
65464 U00:made
72968 U00:make
103236 U00:maker
36274 U00:manufacturing
29078 U00:marked
19796 U00:market
75950 U00:marks
43386 U00:material
116732 U00:maybe
14350 U00:measures
96894 U00:merger
93072 U00:million
70826 U00:moment
10150 U00:monetary
55608 U00:month
64778 U00:more
110110 U00:most
120946 U00:move
49266 U00:much
48944 U00:n't
41230 U00:narrow
102480 U00:national
7574 U00:near-record
66584 U00:necessary
14084 U00:new
114058 U00:next
139090 U00:nine
35700 U00:no
68768 U00:not
26082 U00:noted
104776 U00:now
24878 U00:number
98938 U00:obtaining
145110 U00:occurred
8484 U00:of
96446 U00:offer
99316 U00:official
139580 U00:offsetting
21798 U00:on
51730 U00:one
33334 U00:only
90006 U00:opened
139398 U00:opportunity
113918 U00:or
70910 U00:other
91938 U00:ounce
86268 U00:out
38836 U00:outlook
11172 U00:over
102564 U00:over-the-counter
53074 U00:overall
132076 U00:overcapacity
107506 U00:partner
108066 U00:partnership
137340 U00:party
11382 U00:past
143220 U00:pay
128660 U00:perceived
38542 U00:pessimistic
67382 U00:place
152698 U00:plans
83384 U00:plunged
10290 U00:policy
125286 U00:polled
72758 U00:popularity
52640 U00:position
79450 U00:posted
1456 U00:pound
83930 U00:predict
81858 U00:preoccupied
66024 U00:prepared
25886 U00:pressure
10696 U00:prevent
145180 U00:previously
144746 U00:price
134610 U00:product
118482 U00:productivity
129276 U00:professor
71120 U00:promise
100058 U00:proposal
94500 U00:proposed
71526 U00:pushed
59542 U00:quarter
79688 U00:quiet
62594 U00:quite
87682 U00:quoted
133490 U00:rail
150332 U00:rail-traffic
129724 U00:railroads
152950 U00:raise
27776 U00:range
69622 U00:rate
17388 U00:rates
63756 U00:rather
43260 U00:raw
142520 U00:real
45066 U00:rebound
117586 U00:recent
123102 U00:recently
12264 U00:reckon
40698 U00:reckons
144396 U00:recoup
64288 U00:reduce
42980 U00:reduction
136388 U00:reflected
114408 U00:reflecting
103390 U00:refractory
32746 U00:registered
5250 U00:release
57568 U00:released
38276 U00:remains
68194 U00:reminded
142954 U00:replace
31612 U00:reported
9394 U00:restated
118720 U00:restrain
150010 U00:restrained
68992 U00:rigor
54740 U00:rise
135968 U00:rising
16100 U00:risk
20594 U00:risks
59206 U00:rose
22792 U00:said
37646 U00:same
99036 U00:satisfactory
138656 U00:savings
115584 U00:say
137046 U00:saying
113526 U00:scheduled
59710 U00:second
49910 U00:see
139818 U00:segments
23282 U00:senior
63644 U00:services
91504 U00:settled
148022 U00:several
101346 U00:shares
3150 U00:sharp
84812 U00:shift
115472 U00:shippers
112686 U00:shipping
64134 U00:should
5894 U00:show
73934 U00:showing
22218 U00:side
35798 U00:sign
96726 U00:signing
74046 U00:signs
154098 U00:similar
82096 U00:since
121758 U00:slightly
54180 U00:slowdown
58394 U00:slowing
107380 U00:sole
44982 U00:some
73248 U00:sound
15218 U00:speech
59094 U00:spending
118272 U00:spot
110642 U00:spurred
135576 U00:squeezed
152264 U00:stabilize
104048 U00:stake
120778 U00:starting
11074 U00:sterling
62468 U00:still
81312 U00:stock
43498 U00:stockbuilding
124026 U00:storage
62706 U00:strong
96586 U00:subject
108682 U00:subsidiary
6104 U00:substantial
127932 U00:such
57946 U00:suggest
76832 U00:suggested
63070 U00:suggestions
120064 U00:supply
12530 U00:support
123018 U00:surveyed
72884 U00:swiftly
135800 U00:system
2716 U00:take
55720 U00:takes
63854 U00:than
35910 U00:that
1204 U00:the
18214 U00:their
24486 U00:there
72254 U00:they
59486 U00:third
55482 U00:this
112042 U00:threatening
114926 U00:tightened
37786 U00:time
145810 U00:times
2478 U00:to
5418 U00:tomorrow
33264 U00:topped
3794 U00:trade
74872 U00:trading
148372 U00:trailer
36778 U00:transforming
126658 U00:transport
120484 U00:transportation
138586 U00:transportation-cost
133364 U00:truck
129934 U00:trucking
144228 U00:try
50344 U00:turnaround
111594 U00:turning
153860 U00:two
120302 U00:types
12418 U00:underlying
69328 U00:undermined
45472 U00:unexpected
26936 U00:unit
60172 U00:up
98812 U00:upon
128492 U00:upturn
111762 U00:upward
131194 U00:use
100142 U00:values
21546 U00:very
81200 U00:volatile
92470 U00:volume
49700 U00:want
72380 U00:warn
53886 U00:warned
47768 U00:warns
60074 U00:was
127540 U00:we
150220 U00:weakening
69748 U00:weakness
84392 U00:week
63378 U00:went
132286 U00:were
82726 U00:when
81704 U00:which
46886 U00:who
1974 U00:widely
41104 U00:will
44548 U00:with
52304 U00:without
48762 U00:wo
60550 U00:year
117712 U00:years
89124 U00:yen
29470 U01:#
30352 U01:$
17752 U01:%
34944 U01:&
137704 U01:'
22414 U01:''
143864 U01:'ll
7112 U01:'s
141218 U01:'ve
4550 U01:,
30156 U01:-LRB-
30912 U01:-RRB-
69762 U01:.
59220 U01:0.1
46242 U01:1.3
75418 U01:1.5890
76132 U01:1.5940
61012 U01:1.6
41552 U01:1.8
88116 U01:1.8470
87752 U01:1.8578
102088 U01:1.875
124726 U01:10
100562 U01:106.6
82264 U01:13
90468 U01:141.35
89236 U01:141.70
90160 U01:141.95
88998 U01:142.43
18382 U01:15
133826 U01:150
17570 U01:16
95662 U01:19
83566 U01:190
127232 U01:1980
135156 U01:1981
33866 U01:1988
29694 U01:2
101150 U01:2,664,098
32270 U01:2.2
33432 U01:2.3
92876 U01:2.4
77350 U01:2.90
76286 U01:2.9429
75698 U01:2.9495
92078 U01:20
104902 U01:233,000
124978 U01:250
30576 U01:3.2
60186 U01:3.8
126000 U01:30
105532 U01:30,000
97342 U01:31
132832 U01:35
106008 U01:35.50
106204 U01:36.50
93674 U01:366.50
91700 U01:367.30
101850 U01:38
124320 U01:4
148764 U01:4.7
95270 U01:40
99848 U01:40-a-share
153188 U01:5.3
61460 U01:5.4
134246 U01:6.4
134862 U01:8
104328 U01:8.7
94780 U01:A.P.
99120 U01:An
70000 U01:Analysts
71834 U01:And
149114 U01:April
140238 U01:Arthur
37380 U01:At
6888 U01:August
83160 U01:Average
27090 U01:Bank
34566 U01:Baring
128842 U01:Bernard
109368 U01:Boston
108948 U01:Both
108304 U01:Brick
26194 U01:Briscoe
35924 U01:Britain
34762 U01:Brothers
11634 U01:But
151284 U01:Calif.
140532 U01:Cambridge
130928 U01:Carriers
65016 U01:Certainly
8162 U01:Chancellor
22806 U01:Chris
122052 U01:Clifford
122696 U01:Co
35112 U01:Co.
129416 U01:Columbus
44198 U01:Combined
98154 U01:Commission
90776 U01:Commodity
350 U01:Confidence
150850 U01:Consolidated
83734 U01:Currency
140322 U01:D.
139944 U01:Delaney
119644 U01:Demand
22946 U01:Dillow
82852 U01:Dow
122542 U01:Du
93814 U01:East
76636 U01:Economists
92260 U01:Estimated
34258 U01:European
90860 U01:Exchange
8638 U01:Exchequer
86688 U01:Federal
27314 U01:Forecasts
80276 U01:Foreign
109452 U01:Freight
150920 U01:Freightways
57582 U01:Friday
135016 U01:GNP
146832 U01:Gerard
94906 U01:Green
108808 U01:Group
40544 U01:He
93366 U01:Hong
14896 U01:House
41902 U01:However
24164 U01:If
53508 U01:In
108878 U01:Inc
95074 U01:Inc.
83048 U01:Industrial
94990 U01:Industries
23856 U01:Institute
104510 U01:It
101514 U01:Its
106526 U01:John
82950 U01:Jones
34118 U01:Joshi
6454 U01:July
93436 U01:Kong
106638 U01:Kuhns
107618 U01:L.P
128912 U01:LaLonde
86842 U01:Late
8946 U01:Lawson
147448 U01:Less-than-truckload
108374 U01:Lime
94094 U01:Limited
140392 U01:Little
106904 U01:MacDonald
115276 U01:Major
14714 U01:Mansion
78904 U01:Market
140644 U01:Mass.
147210 U01:Massachusetts
146916 U01:McCullough
52892 U01:Meanwhile
151074 U01:Menlo
102844 U01:Mexico
26516 U01:Midland
103012 U01:Mo.
89740 U01:Monday
26614 U01:Montagu
42126 U01:Mr.
50750 U01:Nevertheless
87010 U01:New
8792 U01:Nigel
51506 U01:No
23660 U01:Nomura
145320 U01:Not
142128 U01:Now
82110 U01:Oct.
33726 U01:October
123186 U01:Ohio
90622 U01:On
124614 U01:Only
27174 U01:PLC
151158 U01:Park
94010 U01:Partners
94164 U01:Partnership
122626 U01:Pont
149744 U01:Railroad-rate
23772 U01:Research
86758 U01:Reserve
106806 U01:Robert
93912 U01:Rock
34020 U01:Sanjay
122136 U01:Sayre
97944 U01:Securities
4326 U01:September
122822 U01:Shippers
26096 U01:Simon
123270 U01:State
73402 U01:Sterling
147378 U01:Technology
117054 U01:That
20356 U01:The
146132 U01:There
15582 U01:This
15372 U01:Thursday
89614 U01:Tokyo
139146 U01:Transport
112350 U01:Trucking
23296 U01:U.K.
86604 U01:U.S.
123340 U01:University
141050 U01:We
108192 U01:Westwood
87108 U01:York
106414 U01:York-based
143780 U01:You
14 U01:_B-1
137060 U01:`
20160 U01:``
5908 U01:a
80164 U01:abated
138194 U01:able
38556 U01:about
119420 U01:abroad
31360 U01:account
94640 U01:acquire
50512 U01:adjusting
48958 U01:advance
45206 U01:after
66220 U01:again
60564 U01:ago
70126 U01:agree
96908 U01:agreement
112798 U01:air-freight
141540 U01:all
68782 U01:allow
73682 U01:already
46900 U01:also
25522 U01:an
11858 U01:analysts
6664 U01:and
13832 U01:announce
113148 U01:announced
133056 U01:annual
2730 U01:another
13916 U01:any
98322 U01:approval
21196 U01:are
45850 U01:as
23548 U01:at
97594 U01:attached
68306 U01:audience
148610 U01:away
25606 U01:awful
85134 U01:back
20776 U01:bad
78358 U01:balance
130662 U01:bargain
17010 U01:base
109242 U01:based
25382 U01:be
49280 U01:because
12824 U01:been
50358 U01:before
130158 U01:began
80612 U01:begun
16464 U01:being
42602 U01:believes
77252 U01:below
141764 U01:benefits
117264 U01:big
29932 U01:billion
96138 U01:board
37114 U01:boost
103894 U01:boosted
66724 U01:both
111048 U01:bottoming
105742 U01:bought
118132 U01:bright
128282 U01:broad-based
48188 U01:bullish
28042 U01:but
13118 U01:by
54194 U01:can
40110 U01:capital
151494 U01:carrier
142758 U01:carriers
147756 U01:carry
119812 U01:caught
92148 U01:cents
120148 U01:certain
13356 U01:chancellor
117348 U01:change
88690 U01:changing
65632 U01:clear
86016 U01:close
101682 U01:closed
53382 U01:clouded
84196 U01:coming
99414 U01:comment
9408 U01:commitment
105126 U01:common
112910 U01:companies
100212 U01:company
125860 U01:compared
60732 U01:compares
149478 U01:competing
110488 U01:competition
119294 U01:competitive
153874 U01:competitors
79814 U01:concerns
74256 U01:confidence
140084 U01:consultant
39830 U01:consumer
98532 U01:contingent
39522 U01:continued
107002 U01:control
139594 U01:cost
114548 U01:costs
25214 U01:could
48440 U01:currency
18228 U01:current
100884 U01:currently
132678 U01:cut
144760 U01:cutting
28644 U01:data
87248 U01:day
80388 U01:dealers
110236 U01:decade
45486 U01:decline
75012 U01:declined
109718 U01:declining
125664 U01:decrease
18718 U01:defend
31052 U01:deficit
7588 U01:deficits
91350 U01:delivery
114940 U01:demand
110726 U01:deregulation
136402 U01:directly
122262 U01:director
148484 U01:discounted
151732 U01:discounting
80808 U01:distance
124082 U01:distribution
3164 U01:dive
57708 U01:do
67102 U01:does
79198 U01:dollar
21882 U01:down
128072 U01:dramatic
43932 U01:drop
4760 U01:due
148134 U01:each
132300 U01:eager
55160 U01:earlier
93184 U01:early
86450 U01:easing
85414 U01:economic
23422 U01:economist
19096 U01:economists
53186 U01:economy
55734 U01:effect
131544 U01:efficiently
56784 U01:eight
130438 U01:enabled
66836 U01:ensure
131306 U01:equipment
80052 U01:equities
12978 U01:eroded
47866 U01:even
145446 U01:everyone
50008 U01:evidence
19558 U01:exchange
28420 U01:expect
1988 U01:expected
57190 U01:expenditure
37226 U01:exports
86114 U01:eye
5572 U01:fail
13622 U01:failure
38290 U01:fairly
113708 U01:fall
77042 U01:falls
116158 U01:fast
116746 U01:faster
64302 U01:fears
28182 U01:few
149590 U01:fiercely
21014 U01:figure
3808 U01:figures
97762 U01:filing
132524 U01:fill
99050 U01:financing
9842 U01:firm
61264 U01:first
52402 U01:flat
84980 U01:focus
4074 U01:for
16604 U01:forced
47054 U01:forecasts
19404 U01:foreign
10794 U01:freefall
115108 U01:freight
141946 U01:freight-cost
142534 U01:freight-rate
123760 U01:freight-transport
6272 U01:from
112154 U01:fuel
85568 U01:fundamentals
49924 U01:further
79464 U01:gains
32508 U01:gap
107394 U01:general
39340 U01:given
51954 U01:go
91140 U01:gold
145684 U01:good
40264 U01:goods
141372 U01:gotten
16310 U01:government
134386 U01:gross
126378 U01:had
78008 U01:halt
88816 U01:hands
10304 U01:has
117922 U01:haulage
113022 U01:have
37940 U01:he
21560 U01:heavily
10430 U01:helped
118566 U01:helping
39676 U01:high
71540 U01:higher
56364 U01:highest
14518 U01:his
70490 U01:holding
104790 U01:holds
73262 U01:hollow
3374 U01:if
54516 U01:impact
148988 U01:implemented
64792 U01:import
38990 U01:imports
6118 U01:improvement
658 U01:in
105392 U01:including
16856 U01:increase
15862 U01:increased
113316 U01:increases
108556 U01:indirect
36288 U01:industry
135450 U01:inefficiency
112238 U01:inflation
40376 U01:inflows
133224 U01:inter-city
54852 U01:interest
52066 U01:into
49420 U01:investors
1470 U01:is
65478 U01:it
84826 U01:its
36792 U01:itself
150472 U01:keen
85806 U01:keeping
143682 U01:labor
74144 U01:lack
15232 U01:last
76482 U01:late
97146 U01:later
43708 U01:lead
131754 U01:leading
44730 U01:least
147028 U01:lecturer
151424 U01:less-than-truckload
95788 U01:letter
18592 U01:level
150346 U01:levels
92722 U01:light
136108 U01:likely
107786 U01:limited
45962 U01:little
122388 U01:logistics
138348 U01:look
126490 U01:looked
25690 U01:lot
65324 U01:made
72898 U01:make
103152 U01:maker
36148 U01:manufacturing
29022 U01:marked
19684 U01:market
75838 U01:marks
43274 U01:material
116592 U01:maybe
14210 U01:measures
96838 U01:merger
93002 U01:million
70742 U01:moment
9996 U01:monetary
55496 U01:month
64624 U01:more
109998 U01:most
120862 U01:move
49126 U01:much
48776 U01:n't
41118 U01:narrow
102382 U01:national
7336 U01:near-record
66444 U01:necessary
14014 U01:new
113988 U01:next
139062 U01:nine
35602 U01:no
68698 U01:not
26012 U01:noted
104650 U01:now
24752 U01:number
98826 U01:obtaining
145012 U01:occurred
8330 U01:of
96376 U01:offer
99260 U01:official
139496 U01:offsetting
21700 U01:on
51646 U01:one
33278 U01:only
89950 U01:opened
139314 U01:opportunity
113834 U01:or
70840 U01:other
91882 U01:ounce
93086 U01:ounces
86198 U01:out
38724 U01:outlook
101360 U01:outstanding
11088 U01:over
102494 U01:over-the-counter
53032 U01:overall
131964 U01:overcapacity
107464 U01:partner
107954 U01:partnership
137256 U01:party
11284 U01:past
143136 U01:pay
128590 U01:perceived
38430 U01:pessimistic
67312 U01:place
152572 U01:plans
83272 U01:plunged
83636 U01:points
10164 U01:policy
125188 U01:polled
72674 U01:popularity
52528 U01:position
50638 U01:positions
79324 U01:posted
1218 U01:pound
83874 U01:predict
81802 U01:preoccupied
65996 U01:prepared
25830 U01:pressure
10598 U01:prevent
145124 U01:previously
144634 U01:price
134526 U01:product
118412 U01:productivity
103404 U01:products
129206 U01:professor
71064 U01:promise
99974 U01:proposal
94388 U01:proposed
71400 U01:pushed
59500 U01:quarter
58520 U01:quickly
79632 U01:quiet
62482 U01:quite
87584 U01:quoted
133420 U01:rail
150234 U01:rail-traffic
129640 U01:railroads
152824 U01:raise
27650 U01:range
69510 U01:rate
17206 U01:rates
63658 U01:rather
43120 U01:raw
142450 U01:real
44996 U01:rebound
117488 U01:recent
123032 U01:recently
12082 U01:reckon
40656 U01:reckons
144312 U01:recoup
64148 U01:reduce
42868 U01:reduction
142016 U01:reductions
136304 U01:reflected
114282 U01:reflecting
103320 U01:refractory
32634 U01:registered
5096 U01:release
57442 U01:released
38122 U01:remains
68068 U01:reminded
142870 U01:replace
31500 U01:reported
9240 U01:restated
118692 U01:restrain
149926 U01:restrained
68950 U01:rigor
54684 U01:rise
64918 U01:rises
135884 U01:rising
16058 U01:risk
20524 U01:risks
59108 U01:rose
22624 U01:said
37548 U01:same
98952 U01:satisfactory
138600 U01:savings
19908 U01:say
136920 U01:saying
113456 U01:scheduled
59626 U01:second
49812 U01:see
139790 U01:segments
23156 U01:senior
63518 U01:services
91434 U01:settled
147966 U01:several
95382 U01:share
101276 U01:shares
2968 U01:sharp
84672 U01:shift
115388 U01:shippers
112574 U01:shipping
64036 U01:should
5810 U01:show
73836 U01:showing
22036 U01:side
35714 U01:sign
96684 U01:signing
74004 U01:signs
154042 U01:similar
81998 U01:since
121674 U01:slightly
54082 U01:slowdown
58268 U01:slowing
107296 U01:sole
44884 U01:some
73164 U01:sound
15064 U01:speech
58968 U01:spending
118202 U01:spot
110586 U01:spurred
135534 U01:squeezed
152194 U01:stabilize
104006 U01:stake
120708 U01:starting
10976 U01:sterling
62342 U01:still
81214 U01:stock
43400 U01:stockbuilding
123956 U01:storage
62608 U01:strong
96516 U01:subject
108626 U01:subsidiary
6006 U01:substantial
127792 U01:such
57890 U01:suggest
76748 U01:suggested
63014 U01:suggestions
119994 U01:supply
12432 U01:support
122934 U01:surveyed
72828 U01:swiftly
135730 U01:system
2492 U01:take
55622 U01:takes
63770 U01:than
35812 U01:that
952 U01:the
18074 U01:their
24346 U01:there
72128 U01:they
59430 U01:third
55328 U01:this
111916 U01:threatening
114814 U01:tightened
37660 U01:time
145768 U01:times
2240 U01:to
5264 U01:tomorrow
33152 U01:topped
3570 U01:trade
74746 U01:trading
148274 U01:trailer
36610 U01:transforming
115178 U01:transport
120414 U01:transportation
138516 U01:transportation-cost
133308 U01:truck
129822 U01:trucking
150654 U01:trucks
144144 U01:try
50204 U01:turnaround
111440 U01:turning
153762 U01:two
120232 U01:types
78540 U01:unchanged
12278 U01:underlying
69258 U01:undermined
45388 U01:unexpected
26880 U01:unit
60088 U01:up
98672 U01:upon
128394 U01:upturn
111608 U01:upward
131124 U01:use
100072 U01:values
21392 U01:very
81144 U01:volatile
92372 U01:volume
49616 U01:want
72268 U01:warn
53830 U01:warned
47642 U01:warns
59948 U01:was
127428 U01:we
150122 U01:weakening
69636 U01:weakness
11396 U01:week
63266 U01:went
132174 U01:were
82586 U01:when
81578 U01:which
46718 U01:who
1722 U01:widely
40978 U01:will
44380 U01:with
52234 U01:without
48594 U01:wo
60452 U01:year
56910 U01:years
89082 U01:yen
29302 U02:#
30170 U02:$
17584 U02:%
34776 U02:&
137592 U02:'
22232 U02:''
143794 U02:'ll
6902 U02:'s
141064 U02:'ve
4340 U02:,
29946 U02:-LRB-
30772 U02:-RRB-
7602 U02:.
59122 U02:0.1
46158 U02:1.3
75278 U02:1.5890
76048 U02:1.5940
60928 U02:1.6
41454 U02:1.8
88060 U02:1.8470
87696 U02:1.8578
102046 U02:1.875
124628 U02:10
100492 U02:106.6
82124 U02:13
90412 U02:141.35
89194 U02:141.70
90118 U02:141.95
88928 U02:142.43
18242 U02:15
133770 U02:150
17402 U02:16
95564 U02:19
83496 U02:190
127148 U02:1980
135100 U02:1981
33740 U02:1988
29484 U02:2
101038 U02:2,664,098
32200 U02:2.2
33390 U02:2.3
92736 U02:2.4
77266 U02:2.90
76202 U02:2.9429
75572 U02:2.9495
92008 U02:20
104804 U02:233,000
124894 U02:250
30366 U02:3.2
60102 U02:3.8
125930 U02:30
105406 U02:30,000
97300 U02:31
132790 U02:35
105924 U02:35.50
106162 U02:36.50
93632 U02:366.50
91602 U02:367.30
101780 U02:38
124250 U02:4
148708 U02:4.7
95214 U02:40
99722 U02:40-a-share
153076 U02:5.3
61404 U02:5.4
134176 U02:6.4
134806 U02:8
104258 U02:8.7
94654 U02:A.P.
78918 U02:Activity
99078 U02:An
69902 U02:Analysts
71736 U02:And
149072 U02:April
140168 U02:Arthur
37282 U02:At
6678 U02:August
83062 U02:Average
27020 U02:Bank
34412 U02:Baring
128786 U02:Bernard
109326 U02:Boston
108906 U02:Both
108206 U02:Brick
26110 U02:Briscoe
35826 U02:Britain
34580 U02:Brothers
11466 U02:But
151228 U02:Calif.
140476 U02:Cambridge
130830 U02:Carriers
64960 U02:Certainly
8036 U02:Chancellor
22638 U02:Chris
121996 U02:Clifford
122640 U02:Co
34958 U02:Co.
129374 U02:Columbus
44072 U02:Combined
98098 U02:Commission
90706 U02:Commodity
28 U02:Confidence
150794 U02:Consolidated
83664 U02:Currency
140252 U02:D.
139902 U02:Delaney
119546 U02:Demand
22820 U02:Dillow
82740 U02:Dow
122472 U02:Du
93744 U02:East
76552 U02:Economists
92176 U02:Estimated
34202 U02:European
90790 U02:Exchange
8498 U02:Exchequer
86618 U02:Federal
27216 U02:Forecasts
80220 U02:Foreign
109396 U02:Freight
150864 U02:Freightways
57456 U02:Friday
134946 U02:GNP
146776 U02:Gerard
94794 U02:Green
108752 U02:Group
40432 U02:He
93310 U02:Hong
14728 U02:House
41790 U02:However
24010 U02:If
53452 U02:In
108822 U02:Inc
95004 U02:Inc.
82964 U02:Industrial
94920 U02:Industries
23786 U02:Institute
104398 U02:It
101402 U02:Its
106428 U02:John
82866 U02:Jones
34034 U02:Joshi
6286 U02:July
93380 U02:Kong
106540 U02:Kuhns
107576 U02:L.P
128856 U02:LaLonde
86786 U02:Late
8806 U02:Lawson
147406 U02:Less-than-truckload
108318 U02:Lime
94024 U02:Limited
140336 U02:Little
106820 U02:MacDonald
115206 U02:Major
14532 U02:Mansion
78778 U02:Market
140602 U02:Mass.
147168 U02:Massachusetts
146846 U02:McCullough
52822 U02:Meanwhile
151018 U02:Menlo
102760 U02:Mexico
26460 U02:Midland
102942 U02:Mo.
89698 U02:Monday
26530 U02:Montagu
42028 U02:Mr.
50694 U02:Nevertheless
86954 U02:New
8652 U02:Nigel
51366 U02:No
23562 U02:Nomura
145222 U02:Not
142044 U02:Now
82012 U02:Oct.
33614 U02:October
123116 U02:Ohio
90566 U02:On
124516 U02:Only
27104 U02:PLC
151088 U02:Park
93926 U02:Partners
94108 U02:Partnership
122556 U02:Pont
149702 U02:Railroad-rate
23674 U02:Research
86702 U02:Reserve
106736 U02:Robert
93828 U02:Rock
33950 U02:Sanjay
122066 U02:Sayre
97888 U02:Securities
4088 U02:September
122724 U02:Shippers
26026 U02:Simon
123200 U02:State
73304 U02:Sterling
147336 U02:Technology
116998 U02:That
20174 U02:The
146034 U02:There
15456 U02:This
15246 U02:Thursday
89530 U02:Tokyo
139104 U02:Transport
112280 U02:Trucking
23170 U02:U.K.
86534 U02:U.S.
123284 U02:University
140924 U02:We
108080 U02:Westwood
87024 U02:York
106316 U02:York-based
143710 U02:You
136934 U02:`
19978 U02:``
5824 U02:a
80066 U02:abated
138124 U02:able
38444 U02:about
119308 U02:abroad
31248 U02:account
94514 U02:acquire
50372 U02:adjusting
48790 U02:advance
45136 U02:after
66136 U02:again
60466 U02:ago
70014 U02:agree
96852 U02:agreement
112700 U02:air-freight
141386 U02:all
68712 U02:allow
73556 U02:already
46732 U02:also
25396 U02:an
11648 U02:analysts
6468 U02:and
13748 U02:announce
113036 U02:announced
132986 U02:annual
2506 U02:another
13846 U02:any
98280 U02:approval
21028 U02:are
45780 U02:as
23436 U02:at
97510 U02:attached
68208 U02:audience
148498 U02:away
25536 U02:awful
84994 U02:back
20720 U02:bad
78316 U02:balance
130606 U02:bargain
16870 U02:base
109172 U02:based
25228 U02:be
49140 U02:because
12698 U02:been
50218 U02:before
130060 U02:began
80556 U02:begun
16324 U02:being
42490 U02:believes
77168 U02:below
141680 U02:benefits
117208 U02:big
29708 U02:billion
96068 U02:board
36974 U02:boost
103824 U02:boosted
66598 U02:both
110936 U02:bottoming
105658 U02:bought
118062 U02:bright
128198 U02:broad-based
48104 U02:bullish
27916 U02:but
12992 U02:by
54096 U02:can
39970 U02:capital
151438 U02:carrier
142674 U02:carriers
147672 U02:carry
119756 U02:caught
92092 U02:cents
120078 U02:certain
13244 U02:chancellor
117278 U02:change
88606 U02:changing
65492 U02:clear
85932 U02:close
101626 U02:closed
53298 U02:clouded
84084 U02:coming
99372 U02:comment
9254 U02:commitment
105070 U02:common
112812 U02:companies
100156 U02:company
125776 U02:compared
60676 U02:compares
149366 U02:competing
110404 U02:competition
119154 U02:competitive
153776 U02:competitors
79744 U02:concerns
74214 U02:confidence
140028 U02:consultant
39690 U02:consumer
98448 U02:contingent
39354 U02:continued
106918 U02:control
139510 U02:cost
114422 U02:costs
25046 U02:could
48342 U02:currency
18088 U02:current
100758 U02:currently
132622 U02:cut
144648 U02:cutting
28546 U02:data
87192 U02:day
80346 U02:dealers
110194 U02:decade
45402 U02:decline
74886 U02:declined
109606 U02:declining
125566 U02:decrease
18676 U02:defend
30926 U02:deficit
7350 U02:deficits
91294 U02:delivery
114828 U02:demand
110656 U02:deregulation
136318 U02:directly
122206 U02:director
148386 U02:discounted
151676 U02:discounting
80710 U02:distance
124040 U02:distribution
2982 U02:dive
57596 U02:do
67004 U02:does
79086 U02:dollar
21812 U02:down
127946 U02:dramatic
43890 U02:drop
4564 U02:due
148078 U02:each
132188 U02:eager
55006 U02:earlier
93142 U02:early
86394 U02:easing
85288 U02:economic
23310 U02:economist
18956 U02:economists
53144 U02:economy
55636 U02:effect
131432 U02:efficiently
56658 U02:eight
130340 U02:enabled
66738 U02:ensure
131208 U02:equipment
79940 U02:equities
12838 U02:eroded
47782 U02:even
145334 U02:everyone
49938 U02:evidence
19418 U02:exchange
28308 U02:expect
1736 U02:expected
57092 U02:expenditure
37128 U02:exports
86030 U02:eye
5432 U02:fail
13496 U02:failure
38136 U02:fairly
113610 U02:fall
76958 U02:falls
116088 U02:fast
116606 U02:faster
64162 U02:fears
28056 U02:few
149492 U02:fiercely
20888 U02:figure
3584 U02:figures
97720 U02:filing
132426 U02:fill
98966 U02:financing
9702 U02:firm
61222 U02:first
52318 U02:flat
84840 U02:focus
3822 U02:for
16478 U02:forced
46914 U02:forecasts
19264 U02:foreign
10710 U02:freefall
115052 U02:freight
141890 U02:freight-cost
142464 U02:freight-rate
123648 U02:freight-transport
6132 U02:from
112056 U02:fuel
85428 U02:fundamentals
49826 U02:further
79338 U02:gains
32396 U02:gap
107310 U02:general
39172 U02:given
51856 U02:go
91056 U02:gold
145614 U02:good
40124 U02:goods
141232 U02:gotten
16184 U02:government
134330 U02:gross
126252 U02:had
77938 U02:halt
88704 U02:hands
10178 U02:has
117838 U02:haulage
112924 U02:have
37800 U02:he
21406 U02:heavily
10318 U02:helped
118496 U02:helping
39536 U02:high
71414 U02:higher
56252 U02:highest
14364 U02:his
70420 U02:holding
104664 U02:holds
73178 U02:hollow
3178 U02:if
54474 U02:impact
148918 U02:implemented
64638 U02:import
38850 U02:imports
6020 U02:improvement
364 U02:in
105294 U02:including
16744 U02:increase
15736 U02:increased
113246 U02:increases
108500 U02:indirect
36162 U02:industry
135380 U02:inefficiency
112168 U02:inflation
40278 U02:inflows
133154 U02:inter-city
54754 U02:interest
51968 U02:into
49294 U02:investors
1232 U02:is
65338 U02:it
84686 U02:its
36624 U02:itself
150430 U02:keen
85694 U02:keeping
143626 U02:labor
74088 U02:lack
15078 U02:last
76398 U02:late
97062 U02:later
43652 U02:lead
131656 U02:leading
44562 U02:least
146986 U02:lecturer
151368 U02:less-than-truckload
95676 U02:letter
18508 U02:level
150248 U02:levels
92596 U02:light
136052 U02:likely
107744 U02:limited
45864 U02:little
122332 U02:logistics
138278 U02:look
126392 U02:looked
25620 U02:lot
65198 U02:made
72842 U02:make
103096 U02:maker
36050 U02:manufacturing
28924 U02:marked
19572 U02:market
75712 U02:marks
43134 U02:material
116452 U02:maybe
14098 U02:measures
96782 U02:merger
92890 U02:million
70672 U02:moment
9856 U02:monetary
55342 U02:month
64470 U02:more
109872 U02:most
120792 U02:move
48972 U02:much
48608 U02:n't
40992 U02:narrow
102270 U02:national
7126 U02:near-record
66332 U02:necessary
13930 U02:new
113932 U02:next
139020 U02:nine
35518 U02:no
68600 U02:not
25942 U02:noted
104524 U02:now
24682 U02:number
98686 U02:obtaining
144900 U02:occurred
8176 U02:of
96320 U02:offer
99204 U02:official
139412 U02:offsetting
21574 U02:on
51520 U02:one
33166 U02:only
89894 U02:opened
139258 U02:opportunity
113722 U02:or
70756 U02:other
91812 U02:ounce
93016 U02:ounces
86128 U02:out
38640 U02:outlook
101290 U02:outstanding
10990 U02:over
102396 U02:over-the-counter
52976 U02:overall
131866 U02:overcapacity
107408 U02:partner
107870 U02:partnership
137172 U02:party
11186 U02:past
143052 U02:pay
128506 U02:perceived
38304 U02:pessimistic
67228 U02:place
152446 U02:plans
83174 U02:plunged
83580 U02:points
10010 U02:policy
125090 U02:polled
72604 U02:popularity
52416 U02:position
50526 U02:positions
79212 U02:posted
966 U02:pound
83818 U02:predict
81718 U02:preoccupied
65940 U02:prepared
25774 U02:pressure
10528 U02:prevent
145026 U02:previously
144550 U02:price
134456 U02:product
118342 U02:productivity
103334 U02:products
129122 U02:professor
71008 U02:promise
99862 U02:proposal
94304 U02:proposed
71288 U02:pushed
59444 U02:quarter
58408 U02:quickly
79576 U02:quiet
62356 U02:quite
87472 U02:quoted
133378 U02:rail
150136 U02:rail-traffic
129556 U02:railroads
152712 U02:raise
27566 U02:range
69426 U02:rate
17024 U02:rates
63532 U02:rather
42994 U02:raw
142380 U02:real
44898 U02:rebound
117418 U02:recent
122948 U02:recently
11872 U02:reckon
40558 U02:reckons
144242 U02:recoup
64050 U02:reduce
42784 U02:reduction
141960 U02:reductions
136234 U02:reflected
114156 U02:reflecting
103250 U02:refractory
32522 U02:registered
4956 U02:release
57316 U02:released
37954 U02:remains
67956 U02:reminded
142772 U02:replace
31374 U02:reported
9100 U02:restated
118650 U02:restrain
149856 U02:restrained
68908 U02:rigor
54628 U02:rise
64806 U02:rises
135814 U02:rising
15988 U02:risk
20370 U02:risks
58982 U02:rose
22428 U02:said
37492 U02:same
98840 U02:satisfactory
138530 U02:savings
19810 U02:say
136822 U02:saying
113400 U02:scheduled
59584 U02:second
49714 U02:see
139748 U02:segments
23058 U02:senior
63392 U02:services
91364 U02:settled
147924 U02:several
95340 U02:share
101164 U02:shares
2744 U02:sharp
84560 U02:shift
115290 U02:shippers
112462 U02:shipping
63938 U02:should
5712 U02:show
73696 U02:showing
21896 U02:side
35616 U02:sign
96642 U02:signing
73948 U02:signs
153986 U02:similar
81928 U02:since
121562 U02:slightly
54012 U02:slowdown
58170 U02:slowing
107212 U02:sole
44744 U02:some
73066 U02:sound
14910 U02:speech
58842 U02:spending
118146 U02:spot
110502 U02:spurred
135464 U02:squeezed
152082 U02:stabilize
103964 U02:stake
120638 U02:starting
10906 U02:sterling
62216 U02:still
81158 U02:stock
43288 U02:stockbuilding
123872 U02:storage
62496 U02:strong
96460 U02:subject
108570 U02:subsidiary
5922 U02:substantial
127666 U02:such
57820 U02:suggest
76650 U02:suggested
62930 U02:suggestions
119938 U02:supply
12292 U02:support
122836 U02:surveyed
72772 U02:swiftly
135674 U02:system
2254 U02:take
55510 U02:takes
63672 U02:than
35728 U02:that
672 U02:the
17934 U02:their
24178 U02:there
71988 U02:they
59374 U02:third
55174 U02:this
111776 U02:threatening
114702 U02:tightened
37562 U02:time
145698 U02:times
2002 U02:to
5110 U02:tomorrow
33012 U02:topped
3388 U02:trade
74648 U02:trading
148204 U02:trailer
36456 U02:transforming
115122 U02:transport
120358 U02:transportation
138446 U02:transportation-cost
133238 U02:truck
129738 U02:trucking
150612 U02:trucks
144046 U02:try
50106 U02:turnaround
111300 U02:turning
153650 U02:two
120162 U02:types
78484 U02:unchanged
12096 U02:underlying
69188 U02:undermined
45318 U02:unexpected
26810 U02:unit
59962 U02:up
98546 U02:upon
128296 U02:upturn
111454 U02:upward
131040 U02:use
99988 U02:values
21210 U02:very
81088 U02:volatile
92274 U02:volume
49532 U02:want
72142 U02:warn
53760 U02:warned
47516 U02:warns
59822 U02:was
127344 U02:we
150024 U02:weakening
69524 U02:weakness
11298 U02:week
63196 U02:went
132090 U02:were
82432 U02:when
81438 U02:which
46550 U02:who
1484 U02:widely
40866 U02:will
44212 U02:with
52178 U02:without
48454 U02:wo
60354 U02:year
56798 U02:years
89012 U02:yen
29176 U03:#
29960 U03:$
17416 U03:%
34594 U03:&
137466 U03:'
22050 U03:''
143724 U03:'ll
6692 U03:'s
140938 U03:'ve
4102 U03:,
29722 U03:-LRB-
30590 U03:-RRB-
7364 U03:.
58996 U03:0.1
46074 U03:1.3
75152 U03:1.5890
75964 U03:1.5940
60844 U03:1.6
41356 U03:1.8
87976 U03:1.8470
87598 U03:1.8578
101990 U03:1.875
124530 U03:10
100408 U03:106.6
82026 U03:13
90370 U03:141.35
89166 U03:141.70
90076 U03:141.95
88830 U03:142.43
18102 U03:15
133728 U03:150
17220 U03:16
95480 U03:19
83398 U03:190
127092 U03:1980
135030 U03:1981
33628 U03:1988
29316 U03:2
100898 U03:2,664,098
32144 U03:2.2
33362 U03:2.3
92610 U03:2.4
77182 U03:2.90
76146 U03:2.9429
75432 U03:2.9495
91952 U03:20
104678 U03:233,000
124838 U03:250
30184 U03:3.2
59976 U03:3.8
125874 U03:30
105308 U03:30,000
97244 U03:31
132748 U03:35
105868 U03:35.50
106106 U03:36.50
93590 U03:366.50
91518 U03:367.30
101738 U03:38
124194 U03:4
148624 U03:4.7
95158 U03:40
99596 U03:40-a-share
152964 U03:5.3
61348 U03:5.4
134092 U03:6.4
134722 U03:8
104174 U03:8.7
94528 U03:A.P.
78792 U03:Activity
149002 U03:April
140098 U03:Arthur
6482 U03:August
82978 U03:Average
26950 U03:Bank
34328 U03:Baring
128744 U03:Bernard
109256 U03:Boston
108094 U03:Brick
26040 U03:Briscoe
35742 U03:Britain
34426 U03:Brothers
151172 U03:Calif.
140448 U03:Cambridge
22442 U03:Chris
121954 U03:Clifford
122570 U03:Co
34790 U03:Co.
129332 U03:Columbus
98042 U03:Commission
90636 U03:Commodity
150738 U03:Consolidated
140182 U03:D.
139860 U03:Delaney
119476 U03:Demand
22652 U03:Dillow
82600 U03:Dow
122402 U03:Du
96152 U03:East
34132 U03:European
90720 U03:Exchange
8344 U03:Exchequer
86548 U03:Federal
150808 U03:Freightways
57330 U03:Friday
134918 U03:GNP
146734 U03:Gerard
94668 U03:Green
108696 U03:Group
93254 U03:Hong
14546 U03:House
23898 U03:If
108766 U03:Inc
94934 U03:Inc.
82880 U03:Industrial
94808 U03:Industries
23688 U03:Institute
106330 U03:John
82754 U03:Jones
33964 U03:Joshi
6146 U03:July
93324 U03:Kong
106442 U03:Kuhns
107548 U03:L.P
128800 U03:LaLonde
8666 U03:Lawson
108220 U03:Lime
93940 U03:Limited
140266 U03:Little
106750 U03:MacDonald
14378 U03:Mansion
78666 U03:Market
140546 U03:Mass.
147126 U03:Massachusetts
146790 U03:McCullough
150976 U03:Menlo
102690 U03:Mexico
26404 U03:Midland
102858 U03:Mo.
89628 U03:Monday
26474 U03:Montagu
41916 U03:Mr.
86912 U03:New
8512 U03:Nigel
51226 U03:No
23450 U03:Nomura
81942 U03:Oct.
33530 U03:October
123046 U03:Ohio
27034 U03:PLC
151032 U03:Park
93842 U03:Partners
94038 U03:Partnership
122486 U03:Pont
23576 U03:Research
86632 U03:Reserve
106652 U03:Robert
93758 U03:Rock
122010 U03:Sayre
97832 U03:Securities
3836 U03:September
136556 U03:Shippers
25956 U03:Simon
123130 U03:State
147280 U03:Technology
19992 U03:The
145964 U03:There
126798 U03:This
15092 U03:Thursday
89474 U03:Tokyo
23072 U03:U.K.
86464 U03:U.S.
123214 U03:University
140798 U03:We
107968 U03:Westwood
86968 U03:York
106246 U03:York-based
7616 U03:_B+1
136836 U03:`
51058 U03:``
5726 U03:a
79954 U03:abated
138068 U03:able
38318 U03:about
119168 U03:abroad
31164 U03:account
94402 U03:acquire
50232 U03:adjusting
48622 U03:advance
45080 U03:after
66094 U03:again
60368 U03:ago
69916 U03:agree
96796 U03:agreement
112588 U03:air-freight
141246 U03:all
68614 U03:allow
73416 U03:already
46564 U03:also
25242 U03:an
11480 U03:analysts
6300 U03:and
13636 U03:announce
112938 U03:announced
132944 U03:annual
2268 U03:another
13762 U03:any
98238 U03:approval
20902 U03:are
45724 U03:as
23324 U03:at
97440 U03:attached
68082 U03:audience
148400 U03:away
25410 U03:awful
84854 U03:back
20678 U03:bad
78288 U03:balance
130550 U03:bargain
16758 U03:base
109102 U03:based
25060 U03:be
48986 U03:because
12600 U03:been
50120 U03:before
129948 U03:began
80514 U03:begun
16198 U03:being
42364 U03:believes
77056 U03:below
141554 U03:benefits
117138 U03:big
29498 U03:billion
96012 U03:board
36806 U03:boost
103754 U03:boosted
66458 U03:both
110838 U03:bottoming
105546 U03:bought
118006 U03:bright
128086 U03:broad-based
48020 U03:bullish
27790 U03:but
12852 U03:by
54026 U03:can
39844 U03:capital
151382 U03:carrier
142604 U03:carriers
147588 U03:carry
119658 U03:caught
92022 U03:cents
120008 U03:certain
13132 U03:chancellor
117222 U03:change
88522 U03:changing
65352 U03:clear
85820 U03:close
101528 U03:closed
53242 U03:clouded
84014 U03:coming
99330 U03:comment
9114 U03:commitment
105000 U03:common
112714 U03:companies
100086 U03:company
125678 U03:compared
60620 U03:compares
149254 U03:competing
110320 U03:competition
119014 U03:competitive
153664 U03:competitors
79702 U03:concerns
74158 U03:confidence
140000 U03:consultant
39550 U03:consumer
98392 U03:contingent
39186 U03:continued
106834 U03:control
139426 U03:cost
114296 U03:costs
24892 U03:could
48300 U03:currency
17948 U03:current
100688 U03:currently
132594 U03:cut
144564 U03:cutting
28434 U03:data
87122 U03:day
80290 U03:dealers
110124 U03:decade
45332 U03:decline
74760 U03:declined
109536 U03:declining
125496 U03:decrease
18606 U03:defend
30786 U03:deficit
7140 U03:deficits
91238 U03:delivery
114716 U03:demand
110600 U03:deregulation
136248 U03:directly
122150 U03:director
148288 U03:discounted
151606 U03:discounting
80626 U03:distance
123970 U03:distribution
2758 U03:dive
57470 U03:do
66934 U03:does
79030 U03:dollar
21714 U03:down
127806 U03:dramatic
43834 U03:drop
4354 U03:due
148036 U03:each
132104 U03:eager
54866 U03:earlier
93114 U03:early
86366 U03:easing
85148 U03:economic
23184 U03:economist
18844 U03:economists
53116 U03:economy
55524 U03:effect
131320 U03:efficiently
56518 U03:eight
130270 U03:enabled
66612 U03:ensure
131138 U03:equipment
79828 U03:equities
12712 U03:eroded
47656 U03:even
145236 U03:everyone
49840 U03:evidence
19278 U03:exchange
28196 U03:expect
1498 U03:expected
57022 U03:expenditure
36988 U03:exports
85946 U03:eye
5278 U03:fail
13370 U03:failure
37968 U03:fairly
113540 U03:fall
76916 U03:falls
116004 U03:fast
116466 U03:faster
64064 U03:fears
27930 U03:few
149380 U03:fiercely
20790 U03:figure
3402 U03:figures
97678 U03:filing
132314 U03:fill
98854 U03:financing
9562 U03:firm
61194 U03:first
52248 U03:flat
84700 U03:focus
3598 U03:for
16338 U03:forced
46746 U03:forecasts
19110 U03:foreign
10612 U03:freefall
114954 U03:freight
141848 U03:freight-cost
142394 U03:freight-rate
123550 U03:freight-transport
6034 U03:from
111930 U03:fuel
85302 U03:fundamentals
49728 U03:further
79226 U03:gains
32284 U03:gap
107226 U03:general
39004 U03:given
51786 U03:go
90972 U03:gold
145558 U03:good
39984 U03:goods
141078 U03:gotten
16114 U03:government
134302 U03:gross
126126 U03:had
77854 U03:halt
88620 U03:hands
10024 U03:has
117726 U03:haulage
112826 U03:have
37674 U03:he
21224 U03:heavily
10192 U03:helped
118426 U03:helping
39368 U03:high
71302 U03:higher
56126 U03:highest
14224 U03:his
70336 U03:holding
104538 U03:holds
73080 U03:hollow
2996 U03:if
54432 U03:impact
148862 U03:implemented
64484 U03:import
38738 U03:imports
5936 U03:improvement
42 U03:in
105210 U03:including
16618 U03:increase
15596 U03:increased
113162 U03:increases
108444 U03:indirect
36064 U03:industry
135324 U03:inefficiency
112070 U03:inflation
40138 U03:inflows
133070 U03:inter-city
54698 U03:interest
51870 U03:into
49154 U03:investors
980 U03:is
65212 U03:it
84574 U03:its
36470 U03:itself
150360 U03:keen
85582 U03:keeping
143556 U03:labor
74060 U03:lack
14924 U03:last
76300 U03:late
96992 U03:later
43596 U03:lead
131558 U03:leading
44394 U03:least
146930 U03:lecturer
151298 U03:less-than-truckload
95578 U03:letter
18396 U03:level
150150 U03:levels
92484 U03:light
135982 U03:likely
107688 U03:limited
45794 U03:little
122276 U03:logistics
138208 U03:look
126266 U03:looked
25550 U03:lot
65114 U03:made
72786 U03:make
103026 U03:maker
35938 U03:manufacturing
28826 U03:marked
19432 U03:market
75586 U03:marks
43008 U03:material
116312 U03:maybe
14028 U03:measures
96740 U03:merger
92750 U03:million
70616 U03:moment
9716 U03:monetary
55188 U03:month
64316 U03:more
109732 U03:most
120722 U03:move
48804 U03:much
48468 U03:n't
40880 U03:narrow
102172 U03:national
6916 U03:near-record
66234 U03:necessary
13860 U03:new
113848 U03:next
138964 U03:nine
35434 U03:no
68502 U03:not
25900 U03:noted
104412 U03:now
24654 U03:number
98560 U03:obtaining
144774 U03:occurred
8050 U03:of
96292 U03:offer
99176 U03:official
139328 U03:offsetting
21420 U03:on
51380 U03:one
33026 U03:only
89866 U03:opened
139230 U03:opportunity
113624 U03:or
70686 U03:other
91714 U03:ounce
92904 U03:ounces
86044 U03:out
38570 U03:outlook
101178 U03:outstanding
10920 U03:over
102284 U03:over-the-counter
52906 U03:overall
131768 U03:overcapacity
107324 U03:partner
107842 U03:partnership
137074 U03:party
11102 U03:past
142968 U03:pay
128408 U03:perceived
38150 U03:pessimistic
67116 U03:place
152362 U03:plans
83076 U03:plunged
83510 U03:points
9870 U03:policy
124992 U03:polled
72548 U03:popularity
52332 U03:position
50386 U03:positions
79100 U03:posted
686 U03:pound
83748 U03:predict
81592 U03:preoccupied
65856 U03:prepared
25704 U03:pressure
10444 U03:prevent
144914 U03:previously
144480 U03:price
134400 U03:product
118286 U03:productivity
103264 U03:products
129038 U03:professor
70966 U03:promise
99736 U03:proposal
94248 U03:proposed
71204 U03:pushed
59388 U03:quarter
58282 U03:quickly
79478 U03:quiet
62230 U03:quite
87388 U03:quoted
133322 U03:rail
150038 U03:rail-traffic
129500 U03:railroads
152586 U03:raise
27510 U03:range
69342 U03:rate
16884 U03:rates
63406 U03:rather
42882 U03:raw
142324 U03:real
44758 U03:rebound
117362 U03:recent
122850 U03:recently
11662 U03:reckon
40446 U03:reckons
144158 U03:recoup
63952 U03:reduce
42714 U03:reduction
141904 U03:reductions
136178 U03:reflected
114072 U03:reflecting
103166 U03:refractory
32410 U03:registered
4774 U03:release
57204 U03:released
37814 U03:remains
67886 U03:reminded
142688 U03:replace
31262 U03:reported
8960 U03:restated
118580 U03:restrain
149828 U03:restrained
68866 U03:rigor
54586 U03:rise
64652 U03:rises
135744 U03:rising
15876 U03:risk
20188 U03:risks
58856 U03:rose
22246 U03:said
37394 U03:same
98700 U03:satisfactory
138460 U03:savings
19698 U03:say
136710 U03:saying
113330 U03:scheduled
59556 U03:second
49630 U03:see
139706 U03:segments
22960 U03:senior
63280 U03:services
91308 U03:settled
147882 U03:several
95284 U03:share
101052 U03:shares
2520 U03:sharp
84476 U03:shift
115220 U03:shippers
112364 U03:shipping
63868 U03:should
5586 U03:show
73570 U03:showing
21826 U03:side
35532 U03:sign
96600 U03:signing
73850 U03:signs
153944 U03:similar
81872 U03:since
121450 U03:slightly
53942 U03:slowdown
58086 U03:slowing
107156 U03:sole
44576 U03:some
72982 U03:sound
14742 U03:speech
58758 U03:spending
118076 U03:spot
110418 U03:spurred
135394 U03:squeezed
151970 U03:stabilize
103908 U03:stake
120596 U03:starting
10808 U03:sterling
62090 U03:still
81102 U03:stock
43148 U03:stockbuilding
123774 U03:storage
62370 U03:strong
96390 U03:subject
108514 U03:subsidiary
5838 U03:substantial
127554 U03:such
57722 U03:suggest
76566 U03:suggested
62832 U03:suggestions
119910 U03:supply
12110 U03:support
122738 U03:surveyed
72688 U03:swiftly
135632 U03:system
2016 U03:take
55356 U03:takes
63546 U03:than
35630 U03:that
378 U03:the
17766 U03:their
24024 U03:there
71848 U03:they
59332 U03:third
55020 U03:this
111622 U03:threatening
114562 U03:tightened
37506 U03:time
145628 U03:times
1750 U03:to
4970 U03:tomorrow
32872 U03:topped
3192 U03:trade
74564 U03:trading
148148 U03:trailer
36302 U03:transforming
115066 U03:transport
120316 U03:transportation
138362 U03:transportation-cost
133168 U03:truck
129654 U03:trucking
150570 U03:trucks
143962 U03:try
50064 U03:turnaround
111174 U03:turning
153552 U03:two
120092 U03:types
78428 U03:unchanged
11886 U03:underlying
69132 U03:undermined
45262 U03:unexpected
26726 U03:unit
59836 U03:up
98462 U03:upon
128212 U03:upturn
111314 U03:upward
130942 U03:use
99876 U03:values
21042 U03:very
81018 U03:volatile
92190 U03:volume
49434 U03:want
72002 U03:warn
53704 U03:warned
47432 U03:warns
59724 U03:was
127246 U03:we
149940 U03:weakening
69440 U03:weakness
11200 U03:week
63154 U03:went
131978 U03:were
82278 U03:when
81326 U03:which
46438 U03:who
1246 U03:widely
40768 U03:will
44086 U03:with
52150 U03:without
48356 U03:wo
60270 U03:year
56672 U03:years
88942 U03:yen
29092 U04:#
29736 U04:$
17234 U04:%
34440 U04:&
137354 U04:'
21910 U04:''
6496 U04:'s
140812 U04:'ve
3850 U04:,
29512 U04:-LRB-
30380 U04:-RRB-
7154 U04:.
58870 U04:0.1
45976 U04:1.3
75026 U04:1.5890
75852 U04:1.5940
60746 U04:1.6
41244 U04:1.8
87878 U04:1.8470
87486 U04:1.8578
101934 U04:1.875
100310 U04:106.6
81956 U04:13
90328 U04:141.35
89138 U04:141.70
90020 U04:141.95
88718 U04:142.43
17962 U04:15
133658 U04:150
17038 U04:16
95424 U04:19
83286 U04:190
127050 U04:1980
134960 U04:1981
33544 U04:1988
29190 U04:2
100772 U04:2,664,098
32060 U04:2.2
33348 U04:2.3
92498 U04:2.4
77070 U04:2.90
76062 U04:2.9429
75292 U04:2.9495
91896 U04:20
104552 U04:233,000
124810 U04:250
29974 U04:3.2
59850 U04:3.8
125790 U04:30
105224 U04:30,000
97160 U04:31
132692 U04:35
105840 U04:35.50
106022 U04:36.50
93562 U04:366.50
91448 U04:367.30
101696 U04:38
124152 U04:4
148512 U04:4.7
95088 U04:40
99512 U04:40-a-share
152838 U04:5.3
61306 U04:5.4
133994 U04:6.4
134624 U04:8
104104 U04:8.7
94416 U04:A.P.
78680 U04:Activity
148932 U04:April
140042 U04:Arthur
6314 U04:August
82894 U04:Average
26894 U04:Bank
34272 U04:Baring
128716 U04:Bernard
109186 U04:Boston
107982 U04:Brick
25970 U04:Briscoe
35644 U04:Britain
34342 U04:Brothers
151102 U04:Calif.
140406 U04:Cambridge
22260 U04:Chris
121940 U04:Clifford
122500 U04:Co
34608 U04:Co.
129304 U04:Columbus
97958 U04:Commission
90580 U04:Commodity
150696 U04:Consolidated
140112 U04:D.
22456 U04:Dillow
82446 U04:Dow
122346 U04:Du
96082 U04:East
34048 U04:European
90650 U04:Exchange
8190 U04:Exchequer
86478 U04:Federal
150752 U04:Freightways
57218 U04:Friday
134876 U04:GNP
146720 U04:Gerard
94542 U04:Green
108640 U04:Group
93198 U04:Hong
14392 U04:House
108710 U04:Inc
94822 U04:Inc.
82768 U04:Industrial
94682 U04:Industries
23590 U04:Institute
106260 U04:John
82614 U04:Jones
6048 U04:July
93268 U04:Kong
106344 U04:Kuhns
107534 U04:L.P
128758 U04:LaLonde
8526 U04:Lawson
108108 U04:Lime
93856 U04:Limited
140196 U04:Little
106666 U04:MacDonald
14238 U04:Mansion
78582 U04:Market
140490 U04:Mass.
147084 U04:Massachusetts
146748 U04:McCullough
150962 U04:Menlo
102634 U04:Mexico
26348 U04:Midland
102774 U04:Mo.
89544 U04:Monday
26418 U04:Montagu
41804 U04:Mr.
86856 U04:New
8358 U04:Nigel
51072 U04:No
23338 U04:Nomura
81886 U04:Oct.
33488 U04:October
122962 U04:Ohio
26964 U04:PLC
150990 U04:Park
93772 U04:Partners
93954 U04:Partnership
122416 U04:Pont
23464 U04:Research
86562 U04:Reserve
106554 U04:Robert
96166 U04:Rock
121968 U04:Sayre
97776 U04:Securities
3612 U04:September
25914 U04:Simon
123060 U04:State
147224 U04:Technology
14938 U04:Thursday
90244 U04:Tokyo
22974 U04:U.K.
86408 U04:U.S.
123144 U04:University
140714 U04:We
107884 U04:Westwood
86926 U04:York
7378 U04:_B+1
7630 U04:_B+2
136724 U04:`
50918 U04:``
5600 U04:a
79842 U04:abated
138026 U04:able
38164 U04:about
119028 U04:abroad
31136 U04:account
94318 U04:acquire
50134 U04:adjusting
48482 U04:advance
45010 U04:after
66052 U04:again
60284 U04:ago
96754 U04:agreement
112476 U04:air-freight
141092 U04:all
68516 U04:allow
73318 U04:already
46452 U04:also
25074 U04:an
19446 U04:analysts
6160 U04:and
13510 U04:announce
112840 U04:announced
132902 U04:annual
2030 U04:another
13650 U04:any
98210 U04:approval
20804 U04:are
45696 U04:as
23198 U04:at
97384 U04:attached
67970 U04:audience
148302 U04:away
25256 U04:awful
84714 U04:back
20636 U04:bad
78246 U04:balance
130452 U04:bargain
16632 U04:base
109060 U04:based
24906 U04:be
48818 U04:because
12544 U04:been
50078 U04:before
129836 U04:began
80472 U04:begun
16128 U04:being
42252 U04:believes
76972 U04:below
141400 U04:benefits
117068 U04:big
29330 U04:billion
95956 U04:board
36638 U04:boost
103684 U04:boosted
66346 U04:both
110740 U04:bottoming
105420 U04:bought
117936 U04:bright
127960 U04:broad-based
47964 U04:bullish
27664 U04:but
12726 U04:by
53956 U04:can
39704 U04:capital
151312 U04:carrier
142548 U04:carriers
147518 U04:carry
119560 U04:caught
91966 U04:cents
119952 U04:certain
13006 U04:chancellor
117152 U04:change
88452 U04:changing
65226 U04:clear
85708 U04:close
101416 U04:closed
53200 U04:clouded
83944 U04:coming
99274 U04:comment
8974 U04:commitment
104916 U04:common
112602 U04:companies
100002 U04:company
125580 U04:compared
149170 U04:competing
110250 U04:competition
118902 U04:competitive
153566 U04:competitors
79646 U04:concerns
74102 U04:confidence
139958 U04:consultant
39382 U04:consumer
98336 U04:contingent
39018 U04:continued
106764 U04:control
139342 U04:cost
114170 U04:costs
24766 U04:could
48272 U04:currency
17780 U04:current
100632 U04:currently
144494 U04:cutting
28322 U04:data
87038 U04:day
80234 U04:dealers
110012 U04:decade
45276 U04:decline
74662 U04:declined
109466 U04:declining
125440 U04:decrease
18522 U04:defend
30604 U04:deficit
6930 U04:deficits
91154 U04:delivery
114576 U04:demand
110516 U04:deregulation
136192 U04:directly
122080 U04:director
148218 U04:discounted
151550 U04:discounting
80570 U04:distance
123886 U04:distribution
2534 U04:dive
57344 U04:do
66906 U04:does
87262 U04:dollar
21588 U04:down
127680 U04:dramatic
43778 U04:drop
4116 U04:due
147980 U04:each
131992 U04:eager
54768 U04:earlier
113638 U04:early
86352 U04:easing
85008 U04:economic
23086 U04:economist
18774 U04:economists
53088 U04:economy
55370 U04:effect
131222 U04:efficiently
56378 U04:eight
130172 U04:enabled
66472 U04:ensure
131054 U04:equipment
79758 U04:equities
12614 U04:eroded
47530 U04:even
49742 U04:evidence
19124 U04:exchange
28070 U04:expect
1260 U04:expected
56966 U04:expenditure
36820 U04:exports
85834 U04:eye
5124 U04:fail
13258 U04:failure
37828 U04:fairly
113470 U04:fall
76888 U04:falls
115920 U04:fast
116326 U04:faster
63966 U04:fears
27804 U04:few
149268 U04:fiercely
20734 U04:figure
3206 U04:figures
97608 U04:filing
132202 U04:fill
98714 U04:financing
9422 U04:firm
61166 U04:first
52192 U04:flat
84588 U04:focus
3416 U04:for
16212 U04:forced
46578 U04:forecasts
18970 U04:foreign
10542 U04:freefall
114842 U04:freight
141820 U04:freight-cost
142338 U04:freight-rate
123466 U04:freight-transport
5950 U04:from
111790 U04:fuel
85162 U04:fundamentals
49644 U04:further
79114 U04:gains
32214 U04:gap
107170 U04:general
38864 U04:given
51744 U04:go
90916 U04:gold
145530 U04:good
39858 U04:goods
140952 U04:gotten
16072 U04:government
134260 U04:gross
126014 U04:had
77770 U04:halt
88536 U04:hands
9884 U04:has
117600 U04:haulage
112728 U04:have
37576 U04:he
21056 U04:heavily
10038 U04:helped
118356 U04:helping
39200 U04:high
71218 U04:higher
56014 U04:highest
14112 U04:his
70238 U04:holding
104426 U04:holds
72996 U04:hollow
2772 U04:if
54362 U04:impact
148820 U04:implemented
64330 U04:import
38654 U04:imports
5852 U04:improvement
10626 U04:in
105140 U04:including
16492 U04:increase
15470 U04:increased
113050 U04:increases
108416 U04:indirect
35952 U04:industry
135310 U04:inefficiency
111944 U04:inflation
39998 U04:inflows
133000 U04:inter-city
54642 U04:interest
51800 U04:into
49000 U04:investors
700 U04:is
65128 U04:it
84490 U04:its
36316 U04:itself
150262 U04:keen
85442 U04:keeping
143472 U04:labor
74018 U04:lack
14756 U04:last
76216 U04:late
96922 U04:later
43512 U04:lead
131446 U04:leading
44226 U04:least
146860 U04:lecturer
151242 U04:less-than-truckload
95494 U04:letter
18256 U04:level
150052 U04:levels
92386 U04:light
135898 U04:likely
107646 U04:limited
45738 U04:little
122220 U04:logistics
138138 U04:look
126140 U04:looked
25424 U04:lot
65086 U04:made
72702 U04:make
102956 U04:maker
35840 U04:manufacturing
28756 U04:marked
19292 U04:market
75446 U04:marks
42896 U04:material
116228 U04:maybe
13944 U04:measures
96698 U04:merger
92624 U04:million
70574 U04:moment
9576 U04:monetary
55034 U04:month
64176 U04:more
109620 U04:most
120652 U04:move
48636 U04:much
48370 U04:n't
40782 U04:narrow
102102 U04:national
6706 U04:near-record
66150 U04:necessary
13776 U04:new
113736 U04:next
138894 U04:nine
35350 U04:no
68418 U04:not
25844 U04:noted
24598 U04:number
98476 U04:obtaining
144662 U04:occurred
15890 U04:of
96264 U04:offer
99134 U04:official
139272 U04:offsetting
21238 U04:on
51240 U04:one
32886 U04:only
89824 U04:opened
139216 U04:opportunity
113554 U04:or
70630 U04:other
91616 U04:ounce
92764 U04:ounces
85960 U04:out
38458 U04:outlook
101066 U04:outstanding
10822 U04:over
102186 U04:over-the-counter
52836 U04:overall
131670 U04:overcapacity
107240 U04:partner
107828 U04:partnership
136948 U04:party
11004 U04:past
142884 U04:pay
128310 U04:perceived
37982 U04:pessimistic
67018 U04:place
152306 U04:plans
82992 U04:plunged
83412 U04:points
9730 U04:policy
124908 U04:polled
72520 U04:popularity
52262 U04:position
50246 U04:positions
79044 U04:posted
392 U04:pound
83678 U04:predict
81452 U04:preoccupied
65758 U04:prepared
25634 U04:pressure
10332 U04:prevent
144788 U04:previously
144410 U04:price
134344 U04:product
118216 U04:productivity
103180 U04:products
128968 U04:professor
70952 U04:promise
99610 U04:proposal
94178 U04:proposed
71162 U04:pushed
59346 U04:quarter
58184 U04:quickly
79352 U04:quiet
62104 U04:quite
87318 U04:quoted
133252 U04:rail
149954 U04:rail-traffic
129458 U04:railroads
152460 U04:raise
27468 U04:range
69272 U04:rate
16772 U04:rates
63294 U04:rather
42798 U04:raw
142310 U04:real
44590 U04:rebound
117292 U04:recent
122752 U04:recently
11494 U04:reckon
144060 U04:recoup
63882 U04:reduce
42616 U04:reduction
141862 U04:reductions
136122 U04:reflected
114002 U04:reflecting
103110 U04:refractory
32298 U04:registered
4578 U04:release
57106 U04:released
37688 U04:remains
67816 U04:reminded
142618 U04:replace
31178 U04:reported
8820 U04:restated
118510 U04:restrain
149814 U04:restrained
68796 U04:rigor
54558 U04:rise
64498 U04:rises
135688 U04:rising
15750 U04:risk
20006 U04:risks
58772 U04:rose
22064 U04:said
37296 U04:same
98574 U04:satisfactory
138376 U04:savings
19586 U04:say
136626 U04:saying
113260 U04:scheduled
59514 U04:second
49546 U04:see
139664 U04:segments
22834 U04:senior
63210 U04:services
91252 U04:settled
147840 U04:several
95228 U04:share
100912 U04:shares
2282 U04:sharp
84448 U04:shift
124852 U04:shippers
112294 U04:shipping
63784 U04:should
5446 U04:show
73430 U04:showing
21728 U04:side
35448 U04:sign
96530 U04:signing
73710 U04:signs
153888 U04:similar
81816 U04:since
121338 U04:slightly
53900 U04:slowdown
58030 U04:slowing
107128 U04:sole
44408 U04:some
72912 U04:sound
14560 U04:speech
58688 U04:spending
118020 U04:spot
110334 U04:spurred
135338 U04:squeezed
151886 U04:stabilize
103838 U04:stake
120554 U04:starting
10724 U04:sterling
61978 U04:still
81032 U04:stock
43022 U04:stockbuilding
123662 U04:storage
62244 U04:strong
96334 U04:subject
108458 U04:subsidiary
5740 U04:substantial
127442 U04:such
57610 U04:suggest
62720 U04:suggestions
119882 U04:supply
11900 U04:support
72618 U04:swiftly
135604 U04:system
1764 U04:take
55202 U04:takes
63420 U04:than
35546 U04:that
56 U04:the
17598 U04:their
23912 U04:there
71750 U04:they
59304 U04:third
54880 U04:this
111468 U04:threatening
114436 U04:tightened
37408 U04:time
145572 U04:times
1512 U04:to
4788 U04:tomorrow
32760 U04:topped
3010 U04:trade
74522 U04:trading
148092 U04:trailer
36176 U04:transforming
114968 U04:transport
120246 U04:transportation
138292 U04:transportation-cost
133084 U04:truck
129570 U04:trucking
150542 U04:trucks
143878 U04:try
50022 U04:turnaround
111062 U04:turning
153482 U04:two
120022 U04:types
78400 U04:unchanged
11676 U04:underlying
69062 U04:undermined
45220 U04:unexpected
26628 U04:unit
59738 U04:up
98406 U04:upon
128100 U04:upturn
111188 U04:upward
130844 U04:use
99750 U04:values
20916 U04:very
80934 U04:volatile
49308 U04:want
71862 U04:warn
53662 U04:warned
47362 U04:warns
59640 U04:was
127162 U04:we
149870 U04:weakening
69356 U04:weakness
11116 U04:week
63126 U04:went
131880 U04:were
82138 U04:when
81228 U04:which
46368 U04:who
994 U04:widely
40712 U04:will
60634 U04:with
52136 U04:without
48314 U04:wo
60242 U04:year
56532 U04:years
88844 U04:yen
46172 U05:#/1.3
41468 U05:#/1.8
29526 U05:#/2
32228 U05:#/2.2
33404 U05:#/2.3
75306 U05:$/1.5890
76076 U05:$/1.5940
102060 U05:$/1.875
100506 U05:$/106.6
133784 U05:$/150
30394 U05:$/3.2
132804 U05:$/35
105938 U05:$/35.50
106176 U05:$/36.50
93646 U05:$/366.50
91630 U05:$/367.30
101794 U05:$/38
95242 U05:$/40
99764 U05:$/40-a-share
77700 U05:%/,
104384 U05:%/.
17794 U05:%/from
59318 U05:%/in
61516 U05:%/increase
153300 U05:%/late
18536 U05:%/level
124824 U05:%/of
148834 U05:%/rate
61110 U05:%/rise
124404 U05:%/this
126154 U05:%/who
34972 U05:&/Co.
121030 U05:''/at
62846 U05:''/but
52654 U05:''/in
25984 U05:''/noted
22470 U05:''/said
137718 U05:'/''
143892 U05:'ll/see
78806 U05:'s/Market
90300 U05:'s/Tokyo
117166 U05:'s/a
96096 U05:'s/board
13524 U05:'s/failure
36078 U05:'s/manufacturing
7168 U05:'s/near-record
137368 U05:'s/over
72632 U05:'s/popularity
71022 U05:'s/promise
9128 U05:'s/restated
146258 U05:'s/still
45346 U05:'s/unexpected
141260 U05:'ve/gotten
137606 U05:,/'
22274 U05:,/''
151256 U05:,/Calif.
140504 U05:,/Cambridge
96236 U05:,/East
34216 U05:,/European
140616 U05:,/Mass.
102970 U05:,/Mo.
42042 U05:,/Mr.
26292 U05:,/U.K.
51254 U05:,/``
26740 U05:,/a
108472 U05:,/an
120498 U05:,/and
72394 U05:,/any
110852 U05:,/are
97524 U05:,/attached
77784 U05:,/both
27944 U05:,/but
125804 U05:,/compared
109634 U05:,/declining
122234 U05:,/director
148414 U05:,/discounted
134638 U05:,/down
4592 U05:,/due
18984 U05:,/economists
5460 U05:,/fail
39214 U05:,/given
91070 U05:,/gold
37842 U05:,/he
118524 U05:,/helping
102200 U05:,/in
105322 U05:,/including
133182 U05:,/inter-city
85722 U05:,/keeping
131684 U05:,/leading
147000 U05:,/lecturer
151396 U05:,/less-than-truckload
103124 U05:,/maker
134008 U05:,/or
52990 U05:,/overall
143066 U05:,/pay
114184 U05:,/reflecting
135828 U05:,/rising
35252 U05:,/said
113414 U05:,/scheduled
23100 U05:,/senior
112490 U05:,/shipping
123900 U05:,/storage
45556 U05:,/the
24920 U05:,/there
72016 U05:,/they
133574 U05:,/to
111328 U05:,/turning
87892 U05:,/up
47544 U05:,/warns
82460 U05:,/when
81466 U05:,/which
46592 U05:,/who
30198 U05:-LRB-/$
30940 U05:-RRB-/deficit
69776 U05:./''
59234 U05:0.1/%
46256 U05:1.3/billion
75460 U05:1.5890/and
76160 U05:1.5940/and
61026 U05:1.6/%
41566 U05:1.8/billion
88130 U05:1.8470/marks
87766 U05:1.8578/marks
102116 U05:1.875/,
124740 U05:10/%
100576 U05:106.6/million
82292 U05:13/,
90482 U05:141.35/yen
89250 U05:141.70/yen
90174 U05:141.95/yen
89026 U05:142.43/yen
18410 U05:15/%
133840 U05:150/billion
17612 U05:16/%
95690 U05:19/letter
83594 U05:190/points
130354 U05:1980/enabled
127260 U05:1980/that
135170 U05:1981/.
33880 U05:1988/.
101192 U05:2,664,098/shares
32312 U05:2.2/billion
33446 U05:2.3/billion
92918 U05:2.4/million
77364 U05:2.90/marks
76314 U05:2.9429/marks
75726 U05:2.9495/marks
29750 U05:2/billion
92106 U05:20/cents
104930 U05:233,000/A.P.
125006 U05:250/shippers
30618 U05:3.2/billion
60200 U05:3.8/%
105560 U05:30,000/shares
126028 U05:30/%
97356 U05:31/.
106036 U05:35.50/to
132846 U05:35/billion
106218 U05:36.50/a
93688 U05:366.50/an
91728 U05:367.30/an
101864 U05:38/,
148778 U05:4.7/%
124334 U05:4/%
99890 U05:40-a-share/proposal
95298 U05:40/a
153202 U05:5.3/%
61474 U05:5.4/%
134274 U05:6.4/%
104342 U05:8.7/%
134890 U05:8/%
94836 U05:A.P./Green
99148 U05:An/A.P.
150710 U05:An/official
70028 U05:Analysts/agree
71876 U05:And/,
149128 U05:April/.
140280 U05:Arthur/D.
37422 U05:At/the
6944 U05:August/'s
31696 U05:August/.
31864 U05:August/deficit
83188 U05:Average/plunged
27118 U05:Bank/PLC
34622 U05:Baring/Brothers
128870 U05:Bernard/LaLonde
109382 U05:Boston/.
108962 U05:Both/Westwood
108332 U05:Brick/Lime
109004 U05:Brick/and
26208 U05:Briscoe/,
35966 U05:Britain/'s
34804 U05:Brothers/&
11690 U05:But/analysts
57036 U05:But/consumer
135226 U05:But/with
151326 U05:Calif./,
140560 U05:Cambridge/,
130956 U05:Carriers/could
65030 U05:Certainly/,
8204 U05:Chancellor/of
22848 U05:Chris/Dillow
122094 U05:Clifford/Sayre
35126 U05:Co./,
122710 U05:Co/.
129430 U05:Columbus/.
44240 U05:Combined/with
98168 U05:Commission/,
90804 U05:Commodity/Exchange
406 U05:Confidence/in
150878 U05:Consolidated/Freightways
83762 U05:Currency/analysts
140350 U05:D./Little
139972 U05:Delaney/,
119672 U05:Demand/has
22988 U05:Dillow/,
42266 U05:Dillow/said
82908 U05:Dow/Jones
122584 U05:Du/Pont
93870 U05:East/Rock
76664 U05:Economists/suggested
92288 U05:Estimated/volume
34286 U05:European/economist
74676 U05:European/trading
98112 U05:Exchange/Commission
90874 U05:Exchange/in
8680 U05:Exchequer/Nigel
86716 U05:Federal/Reserve
27328 U05:Forecasts/for
80304 U05:Foreign/exchange
109480 U05:Freight/rates
150934 U05:Freightways/Inc.
152474 U05:Freightways/plans
78694 U05:Friday/'s
74480 U05:Friday/.
57624 U05:Friday/do
135044 U05:GNP/in
146874 U05:Gerard/McCullough
96026 U05:Green/'s
94948 U05:Green/Industries
105084 U05:Green/common
100786 U05:Green/currently
99218 U05:Green/official
104188 U05:Green/to
108836 U05:Group/Inc
109116 U05:Group/are
40572 U05:He/reckons
93394 U05:Hong/Kong
14952 U05:House/speech
41930 U05:However/,
24192 U05:If/there
74578 U05:In/European
89558 U05:In/Tokyo
95438 U05:In/an
93156 U05:In/early
53522 U05:In/his
107142 U05:Inc./,
95102 U05:Inc./for
108892 U05:Inc/.
83090 U05:Industrial/Average
95018 U05:Industries/Inc.
23870 U05:Institute/.
147294 U05:Institute/of
104566 U05:It/now
101542 U05:Its/stock
106568 U05:John/Kuhns
83006 U05:Jones/Industrial
34146 U05:Joshi/,
6510 U05:July/and
32900 U05:July/are
93450 U05:Kong/Monday
106680 U05:Kuhns/and
107632 U05:L.P/.
128926 U05:LaLonde/,
137914 U05:LaLonde/.
86870 U05:Late/in
8988 U05:Lawson/'s
53774 U05:Lawson/warned
147462 U05:Less-than-truckload/companies
108388 U05:Lime/Inc.
94122 U05:Limited/Partnership
140420 U05:Little/Inc.
106932 U05:MacDonald/control
115304 U05:Major/shippers
14770 U05:Mansion/House
78932 U05:Market/Activity
140658 U05:Mass./,
147238 U05:Massachusetts/Institute
146944 U05:McCullough/,
52920 U05:Meanwhile/,
151116 U05:Menlo/Park
102872 U05:Mexico/,
27048 U05:Midland/Bank
26544 U05:Midland/Montagu
103040 U05:Mo./,
89754 U05:Monday/,
26642 U05:Montagu/,
46382 U05:Mr./Briscoe
42140 U05:Mr./Dillow
137886 U05:Mr./LaLonde
53718 U05:Mr./Lawson
50764 U05:Nevertheless/,
87052 U05:New/York
106358 U05:New/York-based
8834 U05:Nigel/Lawson
51534 U05:No/one
23702 U05:Nomura/Research
145348 U05:Not/everyone
142142 U05:Now/we
82152 U05:Oct./13
95592 U05:Oct./19
97314 U05:Oct./31
33754 U05:October/1988
123228 U05:Ohio/State
90664 U05:On/the
124642 U05:Only/10
27188 U05:PLC/.
151186 U05:Park/,
107100 U05:Partners/Inc.
107590 U05:Partners/L.P
94052 U05:Partners/Limited
94192 U05:Partnership/said
122654 U05:Pont/Co
149758 U05:Railroad-rate/increases
23800 U05:Research/Institute
86772 U05:Reserve/.
139916 U05:Robert/Delaney
106848 U05:Robert/MacDonald
93968 U05:Rock/Partners
103474 U05:Rock/also
96278 U05:Rock/said
34062 U05:Sanjay/Joshi
122164 U05:Sayre/,
97972 U05:Securities/and
4368 U05:September/,
41776 U05:September/.
136738 U05:Shippers/are
132636 U05:Shippers/cut
122864 U05:Shippers/surveyed
137984 U05:Shippers/wo
26124 U05:Simon/Briscoe
123298 U05:State/University
129346 U05:State/in
73444 U05:Sterling/was
147392 U05:Technology/.
117082 U05:That/'s
99624 U05:The/$
31780 U05:The/August
88354 U05:The/U.S.
149184 U05:The/carriers
102606 U05:The/company
129472 U05:The/deregulation
79128 U05:The/dollar
58632 U05:The/figures
97398 U05:The/letter
20384 U05:The/risks
107702 U05:The/sole
146146 U05:There/'s
60690 U05:This/compares
15610 U05:This/has
126896 U05:This/is
67830 U05:Thursday/,
15386 U05:Thursday/.
105854 U05:Thursday/for
88228 U05:Thursday/in
90342 U05:Tokyo/close
89642 U05:Tokyo/on
139160 U05:Transport/rates
112378 U05:Trucking/,
55860 U05:U.K./base
23352 U05:U.K./economist
58044 U05:U.K./economy
86646 U05:U.S./Federal
88396 U05:U.S./currency
118916 U05:U.S./industry
118370 U05:U.S./productivity
123354 U05:University/said
141106 U05:We/'ve
108234 U05:Westwood/Brick
108780 U05:Westwood/Group
106456 U05:York-based/John
90986 U05:York/,
88326 U05:York/.
89390 U05:York/late
87136 U05:York/trading
143808 U05:You/'ll
100646 U05:_B-1/A.P.
99092 U05:_B-1/An
69930 U05:_B-1/Analysts
71764 U05:_B-1/And
37310 U05:_B-1/At
108920 U05:_B-1/Both
11508 U05:_B-1/But
130858 U05:_B-1/Carriers
64974 U05:_B-1/Certainly
8064 U05:_B-1/Chancellor
44100 U05:_B-1/Combined
70 U05:_B-1/Confidence
152320 U05:_B-1/Consolidated
83692 U05:_B-1/Currency
93786 U05:_B-1/East
76580 U05:_B-1/Economists
92204 U05:_B-1/Estimated
27230 U05:_B-1/Forecasts
80248 U05:_B-1/Foreign
109410 U05:_B-1/Freight
78596 U05:_B-1/Friday
40460 U05:_B-1/He
41818 U05:_B-1/However
53466 U05:_B-1/In
104440 U05:_B-1/It
101430 U05:_B-1/Its
86800 U05:_B-1/Late
147420 U05:_B-1/Less-than-truckload
115234 U05:_B-1/Major
52850 U05:_B-1/Meanwhile
46340 U05:_B-1/Mr.
50708 U05:_B-1/Nevertheless
106274 U05:_B-1/New
145250 U05:_B-1/Not
142058 U05:_B-1/Now
90594 U05:_B-1/On
124544 U05:_B-1/Only
149716 U05:_B-1/Railroad-rate
139874 U05:_B-1/Robert
33978 U05:_B-1/Sanjay
122766 U05:_B-1/Shippers
73332 U05:_B-1/Sterling
117012 U05:_B-1/That
31724 U05:_B-1/The
15484 U05:_B-1/This
67760 U05:_B-1/Thursday
139118 U05:_B-1/Transport
112308 U05:_B-1/Trucking
55790 U05:_B-1/U.K.
143738 U05:_B-1/You
20020 U05:_B-1/``
137088 U05:`/the
119574 U05:``/Demand
24038 U05:``/If
51394 U05:``/No
136640 U05:``/Shippers
20202 U05:``/The
146048 U05:``/There
126854 U05:``/This
140966 U05:``/We
68530 U05:``/can
121240 U05:``/close
62118 U05:``/is
152096 U05:``/stabilize
47152 U05:a/#
60942 U05:a/1.6
148722 U05:a/4.7
61418 U05:a/5.4
151046 U05:a/Menlo
102788 U05:a/Mexico
20748 U05:a/bad
117236 U05:a/big
118090 U05:a/bright
85974 U05:a/close
140056 U05:a/consultant
127974 U05:a/dramatic
97734 U05:a/filing
9744 U05:a/firm
52346 U05:a/flat
10738 U05:a/freefall
53970 U05:a/further
74116 U05:a/lack
92638 U05:a/light
146412 U05:a/lot
96810 U05:a/merger
121114 U05:a/rate
42812 U05:a/reduction
95354 U05:a/share
43848 U05:a/sharp
5964 U05:a/substantial
128982 U05:a/transportation
26824 U05:a/unit
28840 U05:a/very
60382 U05:a/year
80178 U05:abated/.
138222 U05:able/to
100422 U05:about/$
124264 U05:about/4
134190 U05:about/6.4
79968 U05:about/equities
38584 U05:about/the
119434 U05:abroad/.
40796 U05:account/deficit
47376 U05:account/gap
31388 U05:account/reported
94696 U05:acquire/A.P.
50540 U05:adjusting/positions
49014 U05:advance/much
45234 U05:after/August
66248 U05:again/if
60578 U05:ago/.
70140 U05:agree/there
96936 U05:agreement/by
112854 U05:air-freight/companies
141568 U05:all/the
68810 U05:allow/the
73724 U05:already/showing
88634 U05:also/changing
98490 U05:also/contingent
46928 U05:also/forecasts
103544 U05:also/said
95508 U05:an/Oct.
25564 U05:an/awful
108528 U05:an/indirect
139286 U05:an/opportunity
91826 U05:an/ounce
83832 U05:analysts/predict
11914 U05:analysts/reckon
19824 U05:analysts/say
76230 U05:and/2.9429
75600 U05:and/2.9495
6720 U05:and/August
98056 U05:and/Exchange
106778 U05:and/Robert
109032 U05:and/Westwood
61362 U05:and/a
112742 U05:and/air-freight
153496 U05:and/at
128226 U05:and/broad-based
40012 U05:and/capital
124054 U05:and/distribution
78190 U05:and/ensure
19306 U05:and/foreign
150444 U05:and/keen
118762 U05:and/make
116480 U05:and/maybe
143402 U05:and/pay
133392 U05:and/rail
120568 U05:and/rates
67396 U05:and/that
32074 U05:and/the
111804 U05:and/threatening
114730 U05:and/tightened
146650 U05:and/truck
129752 U05:and/trucking
59864 U05:and/was
13874 U05:announce/any
113176 U05:announced/rate
154000 U05:announced/similar
133098 U05:annual/,
24612 U05:another/bad
2786 U05:another/sharp
72464 U05:any/further
13958 U05:any/new
86324 U05:any/signs
98350 U05:approval/is
56028 U05:are/at
109200 U05:are/based
110950 U05:are/bottoming
48118 U05:are/bullish
136066 U05:are/likely
145824 U05:are/over
136850 U05:are/saying
120666 U05:are/starting
33040 U05:are/topped
21252 U05:are/very
46088 U05:as/#
142702 U05:as/carriers
79772 U05:as/concerns
116102 U05:as/fast
116242 U05:as/inflation
45878 U05:as/little
54446 U05:as/the
138670 U05:as/they
91532 U05:at/$
87710 U05:at/1.8578
90132 U05:at/141.95
88956 U05:at/142.43
140210 U05:at/Arthur
34454 U05:at/Baring
150822 U05:at/Consolidated
122514 U05:at/Du
147182 U05:at/Massachusetts
23604 U05:at/Nomura
129290 U05:at/Ohio
121086 U05:at/a
100324 U05:at/about
44604 U05:at/least
70644 U05:at/the
56140 U05:at/their
97622 U05:attached/to
68320 U05:audience/that
148638 U05:away/a
25648 U05:awful/lot
85176 U05:back/to
20818 U05:bad/trade
78372 U05:balance/of
130676 U05:bargain/for
17052 U05:base/rates
109270 U05:based/in
138152 U05:be/able
25438 U05:be/an
54292 U05:be/expected
77546 U05:be/forced
71316 U05:be/pushed
136262 U05:be/reflected
149884 U05:be/restrained
69202 U05:be/undermined
49322 U05:because/investors
110348 U05:because/of
12866 U05:been/eroded
50400 U05:before/adjusting
130186 U05:began/in
80640 U05:begun/to
16506 U05:being/forced
42630 U05:believes/that
77280 U05:below/2.90
141778 U05:benefits/of
117306 U05:big/change
133910 U05:billion/,
29988 U05:billion/-LRB-
30800 U05:billion/-RRB-
46312 U05:billion/.
47264 U05:billion/current
33502 U05:billion/deficit
132916 U05:billion/from
32424 U05:billion/gap
41650 U05:billion/in
96180 U05:board/,
37142 U05:boost/exports
103922 U05:boosted/its
66752 U05:both/ensure
146580 U05:both/rail
77868 U05:both/to
111076 U05:bottoming/out
105756 U05:bought/last
118160 U05:bright/spot
128324 U05:broad-based/upturn
48202 U05:bullish/for
28084 U05:but/few
62944 U05:but/suggestions
123158 U05:by/Ohio
86576 U05:by/U.S.
110670 U05:by/deregulation
69370 U05:by/exchange
43526 U05:by/industry
97006 U05:by/no
13146 U05:by/the
150066 U05:by/weakening
54208 U05:can/be
68628 U05:can/not
40152 U05:capital/goods
151508 U05:carrier/,
142786 U05:carriers/replace
144074 U05:carriers/try
149282 U05:carriers/were
147770 U05:carry/the
119826 U05:caught/up
92162 U05:cents/.
120176 U05:certain/types
13384 U05:chancellor/'s
65142 U05:chancellor/has
117376 U05:change/from
88732 U05:changing/hands
65646 U05:clear/that
86058 U05:close/eye
90384 U05:close/of
121352 U05:close/to
101710 U05:closed/at
53396 U05:clouded/.
84210 U05:coming/week
99428 U05:comment/on
9436 U05:commitment/to
105154 U05:common/shares
147532 U05:companies/,
112952 U05:companies/have
129962 U05:companies/that
100226 U05:company/at
102648 U05:company/is
125888 U05:compared/with
60760 U05:compares/with
149506 U05:competing/fiercely
150528 U05:competition/for
110530 U05:competition/spurred
119322 U05:competitive/abroad
153902 U05:competitors/have
79856 U05:concerns/about
74270 U05:confidence/in
140126 U05:consultant/at
39872 U05:consumer/and
57120 U05:consumer/expenditure
63896 U05:consumer/goods
98588 U05:contingent/upon
39564 U05:continued/high
107016 U05:control/East
139608 U05:cost/increases
133504 U05:costs/,
114590 U05:costs/and
135996 U05:costs/are
126728 U05:costs/in
124138 U05:costs/to
25270 U05:could/be
43666 U05:could/lead
45710 U05:could/narrow
72800 U05:could/swiftly
131068 U05:could/use
80486 U05:currency/market
89908 U05:currency/opened
88466 U05:currency/was
48496 U05:currency/wo
18270 U05:current/15
31276 U05:current/account
91322 U05:current/delivery
100926 U05:currently/has
132706 U05:cut/about
144802 U05:cutting/that
57358 U05:data/released
61838 U05:data/show
28658 U05:data/to
87276 U05:day/,
80402 U05:dealers/said
110264 U05:decade/because
45500 U05:decline/,
78120 U05:decline/and
67634 U05:decline/further
75040 U05:declined/to
109746 U05:declining/for
125692 U05:decrease/,
18732 U05:defend/the
31962 U05:deficit/and
45654 U05:deficit/could
31066 U05:deficit/in
33558 U05:deficit/of
40894 U05:deficit/will
7644 U05:deficits/.
91378 U05:delivery/settled
114982 U05:demand/for
110754 U05:deregulation/,
127106 U05:deregulation/in
129514 U05:deregulation/of
136416 U05:directly/in
122290 U05:director/of
148526 U05:discounted/away
151746 U05:discounting/in
80822 U05:distance/itself
124096 U05:distribution/costs
3220 U05:dive/if
57736 U05:do/n't
67522 U05:does/n't
67130 U05:does/take
79240 U05:dollar/posted
87402 U05:dollar/was
134736 U05:down/from
21924 U05:down/side
128114 U05:dramatic/and
43946 U05:drop/in
4802 U05:due/for
148162 U05:each/truck
132328 U05:eager/to
55216 U05:earlier/this
113946 U05:early/next
93212 U05:early/trading
86492 U05:easing/by
85456 U05:economic/fundamentals
23478 U05:economist/at
26432 U05:economist/for
19138 U05:economists/and
28336 U05:economists/expect
139846 U05:economy/.
61992 U05:economy/``
58100 U05:economy/is
53214 U05:economy/remains
55748 U05:effect/.
131572 U05:efficiently/,
138978 U05:eight/or
56812 U05:eight/years
130466 U05:enabled/shippers
66850 U05:ensure/that
142982 U05:equipment/,
131334 U05:equipment/more
80080 U05:equities/abated
13020 U05:eroded/by
47880 U05:even/if
145460 U05:everyone/believes
50036 U05:evidence/of
53102 U05:evidence/on
81340 U05:exchange/,
80360 U05:exchange/dealers
19600 U05:exchange/market
69454 U05:exchange/rate
115696 U05:expect/freight
28448 U05:expect/the
123564 U05:expect/their
54376 U05:expected/as
125300 U05:expected/their
2044 U05:expected/to
57232 U05:expenditure/data
37240 U05:exports/.
45150 U05:exports/after
86142 U05:eye/out
5614 U05:fail/to
13664 U05:failure/to
53312 U05:fairly/clouded
38332 U05:fairly/pessimistic
113750 U05:fall/or
77084 U05:falls/much
116172 U05:fast/as
116760 U05:faster/in
64344 U05:fears/of
28210 U05:few/economists
116970 U05:few/years
149604 U05:fiercely/for
21070 U05:figure/are
48034 U05:figures/are
3864 U05:figures/for
27580 U05:figures/range
58702 U05:figures/show
52206 U05:figures/without
99498 U05:filing/.
103698 U05:filing/that
97790 U05:filing/with
132538 U05:fill/.
99064 U05:financing/.
70588 U05:firm/at
9898 U05:firm/monetary
61278 U05:first/quarter
126966 U05:first/year
52430 U05:flat/position
85022 U05:focus/back
95172 U05:for/$
31626 U05:for/August
26488 U05:for/Midland
4130 U05:for/September
118300 U05:for/U.S.
86282 U05:for/any
91266 U05:for/current
115080 U05:for/freight
38878 U05:for/imports
143640 U05:for/labor
149660 U05:for/market
109886 U05:for/most
139440 U05:for/offsetting
4984 U05:for/release
145908 U05:for/shippers
12558 U05:for/sterling
27412 U05:for/the
113568 U05:for/this
90034 U05:for/trading
130746 U05:for/transportation
138474 U05:for/transportation-cost
16646 U05:forced/to
47068 U05:forecasts/a
19460 U05:foreign/exchange
10836 U05:freefall/in
141974 U05:freight-cost/reductions
142562 U05:freight-rate/increases
123788 U05:freight-transport/,
125454 U05:freight-transport/costs
135702 U05:freight-transport/system
150584 U05:freight/from
117852 U05:freight/haulage
147896 U05:freight/of
115766 U05:freight/rates
115136 U05:freight/transport
120372 U05:freight/transportation
75978 U05:from/$
88074 U05:from/1.8470
89208 U05:from/141.70
134820 U05:from/8
90258 U05:from/Friday
6328 U05:from/July
60298 U05:from/a
117432 U05:from/recent
29204 U05:from/the
17976 U05:from/their
150626 U05:from/trucks
143304 U05:fuel/costs
112182 U05:fuel/inflation
85596 U05:fundamentals/,
67704 U05:further/.
78064 U05:further/decline
72506 U05:further/drop
49952 U05:further/evidence
54040 U05:further/slowdown
79492 U05:gains/in
47446 U05:gap/,
32536 U05:gap/registered
107422 U05:general/partner
39396 U05:given/continued
51982 U05:go/into
91168 U05:gold/for
93520 U05:gold/was
145712 U05:good/times
40292 U05:goods/inflows
63980 U05:goods/should
141414 U05:gotten/all
72562 U05:government/'s
68432 U05:government/``
16352 U05:government/being
77504 U05:government/will
134414 U05:gross/national
126406 U05:had/looked
127694 U05:had/such
78022 U05:halt/any
88858 U05:hands/at
101080 U05:has/2,664,098
12740 U05:has/been
80584 U05:has/begun
119770 U05:has/caught
10346 U05:has/helped
15764 U05:has/increased
65240 U05:has/made
81732 U05:has/preoccupied
117950 U05:haulage/was
113064 U05:have/announced
138782 U05:have/for
127568 U05:have/had
42504 U05:he/believes
65870 U05:he/is
50932 U05:he/noted
37996 U05:he/remains
67984 U05:he/reminded
21602 U05:heavily/on
10458 U05:helped/to
118594 U05:helping/to
39718 U05:high/consumer
114450 U05:higher/costs
136514 U05:higher/freight
143234 U05:higher/fuel
71554 U05:higher/if
56392 U05:highest/level
14574 U05:his/Mansion
68222 U05:his/audience
70504 U05:holding/sterling
104818 U05:holds/233,000
73276 U05:hollow/.
66360 U05:if/necessary
47950 U05:if/the
3430 U05:if/trade
54530 U05:impact/of
149016 U05:implemented/last
64820 U05:import/rises
39032 U05:imports/,
44044 U05:imports/.
6174 U05:improvement/from
127176 U05:in/1980
135114 U05:in/1981
104062 U05:in/A.P.
109340 U05:in/Boston
129388 U05:in/Columbus
93338 U05:in/Hong
32774 U05:in/July
74312 U05:in/Mr.
88284 U05:in/New
41720 U05:in/September
146552 U05:in/both
148106 U05:in/each
56686 U05:in/eight
45094 U05:in/exports
141918 U05:in/freight-cost
136472 U05:in/higher
14406 U05:in/his
44002 U05:in/imports
54782 U05:in/interest
102298 U05:in/national
139720 U05:in/other
126756 U05:in/past
128520 U05:in/perceived
79590 U05:in/quiet
43036 U05:in/raw
10934 U05:in/sterling
151788 U05:in/that
714 U05:in/the
147098 U05:in/transportation
105434 U05:including/30,000
16898 U05:increase/base
61544 U05:increase/from
148946 U05:increase/implemented
66066 U05:increase/interest
77616 U05:increase/rates
15904 U05:increased/the
113344 U05:increases/,
154112 U05:increases/.
149800 U05:increases/are
142632 U05:increases/as
139678 U05:increases/in
108584 U05:indirect/subsidiary
43610 U05:industry/could
151844 U05:industry/has
36330 U05:industry/is
119042 U05:industry/more
135478 U05:inefficiency/squeezed
112252 U05:inflation/.
116340 U05:inflation/and
121898 U05:inflation/rate
40390 U05:inflows/.
133266 U05:inter-city/truck
54894 U05:interest/rates
52080 U05:into/the
49448 U05:investors/will
108122 U05:is/Westwood
102704 U05:is/a
98420 U05:is/also
24500 U05:is/another
70350 U05:is/little
35560 U05:is/no
65954 U05:is/prepared
58198 U05:is/slowing
62258 U05:is/still
96474 U05:is/subject
126938 U05:is/the
36484 U05:is/transforming
1526 U05:is/widely
103852 U05:it/boosted
65506 U05:it/clear
74900 U05:it/declined
94332 U05:it/proposed
84868 U05:its/focus
152978 U05:its/rates
103978 U05:its/stake
80948 U05:itself/from
36834 U05:itself/to
150486 U05:keen/competition
85848 U05:keeping/a
143696 U05:labor/.
74172 U05:lack/of
149086 U05:last/April
15260 U05:last/Thursday
138908 U05:last/eight
54656 U05:last/rise
76496 U05:late/Thursday
153370 U05:late/this
97174 U05:later/than
43722 U05:lead/to
131782 U05:leading/to
116018 U05:least/as
44772 U05:least/some
153678 U05:least/two
147042 U05:lecturer/in
151452 U05:less-than-truckload/carrier
97454 U05:letter/,
95802 U05:letter/to
56546 U05:level/in
18620 U05:level/to
150374 U05:levels/and
92778 U05:light/2.4
136136 U05:likely/to
107800 U05:limited/partner
45990 U05:little/as
70434 U05:little/holding
122430 U05:logistics/at
129136 U05:logistics/professor
138390 U05:look/for
126504 U05:looked/to
25718 U05:lot/of
65366 U05:made/it
118818 U05:make/U.S.
72926 U05:make/this
103194 U05:maker/of
36190 U05:manufacturing/industry
29036 U05:marked/improvement
19712 U05:market/analysts
80528 U05:market/has
149688 U05:market/share
81970 U05:market/since
84504 U05:market/will
77434 U05:marks/,
75866 U05:marks/from
76412 U05:marks/late
43302 U05:material/stockbuilding
116620 U05:maybe/faster
14252 U05:measures/in
96866 U05:merger/agreement
100618 U05:million/.
93030 U05:million/ounces
70770 U05:moment/other
86422 U05:monetary/easing
10052 U05:monetary/policy
55538 U05:month/takes
119182 U05:more/competitive
131460 U05:more/efficiently
143570 U05:more/for
64666 U05:more/import
83426 U05:more/than
110026 U05:most/of
120876 U05:move/up
49168 U05:much/because
77196 U05:much/below
63112 U05:much/of
48832 U05:n't/advance
138082 U05:n't/be
67564 U05:n't/decline
57834 U05:n't/suggest
41132 U05:narrow/to
102410 U05:national/over-the-counter
134470 U05:national/product
7392 U05:near-record/deficits
71708 U05:necessary/.
68922 U05:necessary/rigor
66486 U05:necessary/to
14042 U05:new/policy
116928 U05:next/few
114016 U05:next/year
139076 U05:nine/years
97076 U05:no/later
35658 U05:no/sign
68726 U05:not/allow
51086 U05:noted/,
26054 U05:noted/Simon
104692 U05:now/holds
24780 U05:number/,
98868 U05:obtaining/satisfactory
145040 U05:occurred/previously
90426 U05:of/141.35
61614 U05:of/1988
107520 U05:of/East
134974 U05:of/GNP
26978 U05:of/Midland
33642 U05:of/October
147350 U05:of/Technology
108724 U05:of/Westwood
20692 U05:of/a
120106 U05:of/certain
110432 U05:of/competition
74228 U05:of/confidence
141834 U05:of/deregulation
120330 U05:of/freight
134358 U05:of/gross
122360 U05:of/logistics
69006 U05:of/monetary
64512 U05:of/more
25788 U05:of/pressure
129584 U05:of/railroads
103278 U05:of/refractory
147938 U05:of/several
8372 U05:of/the
96404 U05:offer/is
150766 U05:official/at
99288 U05:official/declined
139524 U05:offsetting/cost
89712 U05:on/Monday
146496 U05:on/rates
63434 U05:on/services
21742 U05:on/the
51660 U05:one/will
41370 U05:only/#
33292 U05:only/by
89964 U05:opened/for
139356 U05:opportunity/for
134106 U05:or/about
113862 U05:or/early
139034 U05:or/nine
121576 U05:or/slightly
139762 U05:other/segments
70854 U05:other/than
91910 U05:ounce/,
93730 U05:ounce/.
93100 U05:ounces/.
111202 U05:out/,
86212 U05:out/for
135590 U05:out/of
38752 U05:outlook/for
101374 U05:outstanding/.
102508 U05:over-the-counter/trading
137480 U05:over/,
145866 U05:over/for
11130 U05:over/the
53046 U05:overall/evidence
132006 U05:overcapacity/they
107478 U05:partner/of
107996 U05:partnership/is
137270 U05:party/'s
11312 U05:past/week
126784 U05:past/years
143150 U05:pay/higher
143486 U05:pay/more
128604 U05:perceived/transportation
38472 U05:pessimistic/about
67326 U05:place/and
152600 U05:plans/to
83300 U05:plunged/more
83650 U05:points/.
10206 U05:policy/has
14126 U05:policy/measures
78442 U05:policy/remains
69076 U05:policy/to
125202 U05:polled/expected
72716 U05:popularity/could
52542 U05:position/''
50652 U05:positions/.
79366 U05:posted/gains
18858 U05:pound/,
52794 U05:pound/.
76986 U05:pound/falls
1274 U05:pound/is
83888 U05:predict/that
81830 U05:preoccupied/the
66010 U05:prepared/to
25858 U05:pressure/,
146468 U05:pressure/on
10640 U05:prevent/a
145138 U05:previously/.
144676 U05:price/cutting
134540 U05:product/,
118440 U05:productivity/,
103418 U05:products/.
129220 U05:professor/at
74410 U05:promise/Friday
73094 U05:promise/sound
71078 U05:promise/that
100016 U05:proposal/values
94430 U05:proposed/to
71428 U05:pushed/higher
59752 U05:quarter/and
59528 U05:quarter/from
61572 U05:quarter/of
58534 U05:quickly/.
79660 U05:quiet/trading
62510 U05:quite/strong
87612 U05:quoted/at
150276 U05:rail-traffic/levels
146608 U05:rail/and
133434 U05:rail/costs
129668 U05:railroads/and
152852 U05:raise/its
27678 U05:range/widely
121926 U05:rate/,
121170 U05:rate/``
151690 U05:rate/discounting
148876 U05:rate/increase
113274 U05:rate/increases
69538 U05:rate/weakness
109550 U05:rates/,
136542 U05:rates/.
153090 U05:rates/5.3
66164 U05:rates/again
55944 U05:rates/are
55048 U05:rates/earlier
146524 U05:rates/in
17248 U05:rates/to
71176 U05:rates/will
139202 U05:rates/wo
63686 U05:rather/than
43162 U05:raw/material
142478 U05:real/freight-rate
45024 U05:rebound/in
117502 U05:recent/years
123074 U05:recently/by
12124 U05:reckon/underlying
40670 U05:reckons/the
144326 U05:recoup/some
126700 U05:reduce/costs
64190 U05:reduce/fears
42910 U05:reduction/in
142030 U05:reductions/.
136332 U05:reflected/directly
114310 U05:reflecting/higher
103348 U05:refractory/products
32648 U05:registered/in
5138 U05:release/tomorrow
57484 U05:released/Friday
38178 U05:remains/fairly
78498 U05:remains/unchanged
68096 U05:reminded/his
142898 U05:replace/equipment
31514 U05:reported/for
9268 U05:restated/commitment
118706 U05:restrain/inflation
149968 U05:restrained/by
68964 U05:rigor/of
124208 U05:rise/about
115864 U05:rise/at
54712 U05:rise/in
64932 U05:rises/.
135912 U05:rising/costs
16086 U05:risk/of
20538 U05:risks/for
59136 U05:rose/0.1
128814 U05:said/Bernard
22666 U05:said/Chris
122024 U05:said/Clifford
146804 U05:said/Gerard
137858 U05:said/Mr.
140826 U05:said/``
42378 U05:said/he
103614 U05:said/in
94262 U05:said/it
151620 U05:said/rate
80444 U05:said/that
61740 U05:said/the
35364 U05:said/there
123410 U05:said/they
37590 U05:same/time
98980 U05:satisfactory/financing
138614 U05:savings/as
19922 U05:say/.
115486 U05:say/they
136962 U05:saying/`
113484 U05:scheduled/for
61180 U05:second/from
59654 U05:second/quarter
143976 U05:see/carriers
49854 U05:see/further
142408 U05:see/real
139804 U05:segments/of
23212 U05:senior/U.K.
63560 U05:services/rather
91462 U05:settled/at
147994 U05:several/shippers
95396 U05:share/.
105238 U05:shares/,
105672 U05:shares/bought
101304 U05:shares/outstanding
3024 U05:sharp/dive
43904 U05:sharp/drop
84728 U05:shift/its
145950 U05:shippers/.
148050 U05:shippers/in
125104 U05:shippers/polled
115402 U05:shippers/say
130564 U05:shippers/to
112616 U05:shipping/and
64078 U05:should/reduce
5866 U05:show/a
58786 U05:show/that
61866 U05:show/the
73864 U05:showing/some
22078 U05:side/,
35756 U05:sign/that
96712 U05:signing/of
74032 U05:signs/of
154056 U05:similar/increases
82040 U05:since/Oct.
127022 U05:since/transportation
121688 U05:slightly/more
54110 U05:slowdown/can
67032 U05:slowdown/does
58296 U05:slowing/that
107338 U05:sole/general
107758 U05:sole/limited
144424 U05:some/of
44912 U05:some/rebound
73962 U05:some/signs
73192 U05:sound/hollow
53620 U05:speech/,
15106 U05:speech/last
59010 U05:spending/rose
63224 U05:spending/went
118230 U05:spot/for
110614 U05:spurred/by
135548 U05:squeezed/out
152208 U05:stabilize/.
104020 U05:stake/in
120736 U05:starting/to
48286 U05:sterling/,
67480 U05:sterling/does
70546 U05:sterling/firm
12628 U05:sterling/has
20650 U05:sterling/of
11018 U05:sterling/over
146342 U05:still/a
62384 U05:still/quite
101640 U05:stock/closed
81242 U05:stock/exchange
43414 U05:stockbuilding/by
123984 U05:storage/and
62622 U05:strong/,
96544 U05:subject/to
108654 U05:subsidiary/of
6062 U05:substantial/improvement
66948 U05:substantial/slowdown
127820 U05:such/a
57904 U05:suggest/that
76762 U05:suggested/that
63028 U05:suggestions/that
120036 U05:supply/of
12446 U05:support/for
122976 U05:surveyed/recently
72856 U05:swiftly/make
135758 U05:system/,
2548 U05:take/another
67242 U05:take/place
55650 U05:takes/effect
83524 U05:than/190
70924 U05:than/Mr.
97258 U05:than/Oct.
63798 U05:than/consumer
121828 U05:than/the
35854 U05:that/Britain
42728 U05:that/a
130074 U05:that/began
47796 U05:that/even
65772 U05:that/he
76846 U05:that/if
83958 U05:that/in
151816 U05:that/industry
103768 U05:that/it
63084 U05:that/much
144928 U05:that/occurred
58422 U05:that/quickly
71134 U05:that/rates
58884 U05:that/spending
67438 U05:that/sterling
57960 U05:that/the
127358 U05:that/we
29344 U05:the/#
124922 U05:the/250
90734 U05:the/Commodity
82782 U05:the/Dow
8540 U05:the/Exchequer
86982 U05:the/New
97902 U05:the/Securities
57988 U05:the/U.K.
89838 U05:the/U.S.
98294 U05:the/approval
78330 U05:the/balance
141694 U05:the/benefits
13272 U05:the/chancellor
84098 U05:the/coming
100170 U05:the/company
48384 U05:the/currency
31192 U05:the/current
28560 U05:the/data
110208 U05:the/decade
45612 U05:the/deficit
87332 U05:the/dollar
21840 U05:the/down
53158 U05:the/economy
99470 U05:the/filing
61236 U05:the/first
84406 U05:the/foreign
147854 U05:the/freight
135646 U05:the/freight-transport
145642 U05:the/good
16226 U05:the/government
54488 U05:the/impact
135408 U05:the/inefficiency
121870 U05:the/inflation
54600 U05:the/last
81900 U05:the/market
70700 U05:the/moment
68880 U05:the/necessary
116886 U05:the/next
96348 U05:the/offer
38668 U05:the/outlook
107898 U05:the/partnership
137186 U05:the/party
11214 U05:the/past
1008 U05:the/pound
144578 U05:the/price
16002 U05:the/risk
37520 U05:the/same
59598 U05:the/second
96656 U05:the/signing
107254 U05:the/sole
63168 U05:the/spending
119966 U05:the/supply
59402 U05:the/third
27482 U05:the/trade
50148 U05:the/turnaround
81116 U05:the/volatile
133014 U05:their/annual
18116 U05:their/current
131236 U05:their/equipment
123676 U05:their/freight-transport
56266 U05:their/highest
25088 U05:there/could
24360 U05:there/is
115598 U05:they/expect
138726 U05:they/have
72156 U05:they/warn
132118 U05:they/were
59458 U05:third/quarter
113652 U05:this/fall
55384 U05:this/month
73010 U05:this/promise
124460 U05:this/year
111958 U05:threatening/to
114856 U05:tightened/demand
37702 U05:time/,
145782 U05:times/are
75166 U05:to/$
17430 U05:to/16
104272 U05:to/8.7
95900 U05:to/A.P.
151984 U05:to/``
9590 U05:to/a
133672 U05:to/about
94556 U05:to/acquire
13790 U05:to/announce
45808 U05:to/as
130620 U05:to/bargain
69146 U05:to/be
37002 U05:to/boost
66626 U05:to/both
99386 U05:to/comment
125594 U05:to/decrease
18690 U05:to/defend
80724 U05:to/distance
85316 U05:to/economic
132440 U05:to/fill
126560 U05:to/freight
112084 U05:to/fuel
51884 U05:to/go
77952 U05:to/halt
16786 U05:to/increase
138306 U05:to/look
120806 U05:to/move
41258 U05:to/only
121464 U05:to/or
131894 U05:to/overcapacity
10556 U05:to/prevent
152726 U05:to/raise
144256 U05:to/recoup
126672 U05:to/reduce
118664 U05:to/restrain
115822 U05:to/rise
49756 U05:to/see
5754 U05:to/show
2296 U05:to/take
96614 U05:to/the
5292 U05:tomorrow/,
33180 U05:topped/only
20930 U05:trade/figure
3626 U05:trade/figures
24696 U05:trade/number
102578 U05:trading/.
79716 U05:trading/as
90090 U05:trading/at
87206 U05:trading/day
93282 U05:trading/in
74774 U05:trading/it
148316 U05:trailer/,
36652 U05:transforming/itself
115192 U05:transport/.
126616 U05:transport/to
138544 U05:transportation-cost/savings
120428 U05:transportation/,
130802 U05:transportation/.
147140 U05:transportation/at
127064 U05:transportation/deregulation
129052 U05:transportation/logistics
128674 U05:transportation/rates
146692 U05:truck/,
133336 U05:truck/and
148232 U05:truck/trailer
129850 U05:trucking/companies
150668 U05:trucks/.
144172 U05:try/to
50260 U05:turnaround/before
111482 U05:turning/upward
153790 U05:two/competitors
120260 U05:types/of
78554 U05:unchanged/.
12306 U05:underlying/support
69286 U05:undermined/by
45416 U05:unexpected/decline
26908 U05:unit/of
102004 U05:up/$
120960 U05:up/''
92036 U05:up/20
60116 U05:up/3.8
87990 U05:up/from
119896 U05:up/with
98728 U05:upon/obtaining
128422 U05:upturn/in
111636 U05:upward/and
131152 U05:use/their
100100 U05:values/the
21434 U05:very/heavily
28938 U05:very/marked
81172 U05:volatile/stock
92400 U05:volume/was
49658 U05:want/to
72282 U05:warn/,
53844 U05:warned/that
47670 U05:warns/that
92512 U05:was/a
73584 U05:was/already
88550 U05:was/also
87500 U05:was/quoted
59990 U05:was/up
142240 U05:we/are
127456 U05:we/have
150164 U05:weakening/rail-traffic
69650 U05:weakness/.
11410 U05:week/.
84322 U05:week/the
63308 U05:went/on
149394 U05:were/competing
132216 U05:were/eager
117740 U05:when/freight
82628 U05:when/the
147686 U05:which/carry
81606 U05:which/has
46760 U05:who/also
126280 U05:who/had
27818 U05:widely/,
1778 U05:widely/expected
71232 U05:will/be
41006 U05:will/narrow
84602 U05:will/shift
49560 U05:will/want
125944 U05:with/30
60858 U05:with/a
44422 U05:with/at
135282 U05:with/much
97846 U05:with/the
52276 U05:without/a
48650 U05:wo/n't
114086 U05:year/,
124502 U05:year/.
60480 U05:year/ago
153440 U05:year/or
126994 U05:year/since
56924 U05:years/.
117614 U05:years/when
89096 U05:yen/,
90538 U05:yen/.
89292 U05:yen/in
46102 U06:#/1.3
41384 U06:#/1.8
29358 U06:#/2
32158 U06:#/2.2
33376 U06:#/2.3
75180 U06:$/1.5890
75992 U06:$/1.5940
102018 U06:$/1.875
100436 U06:$/106.6
133742 U06:$/150
30212 U06:$/3.2
132762 U06:$/35
105882 U06:$/35.50
106120 U06:$/36.50
93604 U06:$/366.50
91546 U06:$/367.30
101752 U06:$/38
95186 U06:$/40
99638 U06:$/40-a-share
77672 U06:%/,
104356 U06:%/.
17626 U06:%/from
59248 U06:%/in
61488 U06:%/increase
153216 U06:%/late
18424 U06:%/level
124754 U06:%/of
148792 U06:%/rate
61040 U06:%/rise
124348 U06:%/this
126042 U06:%/who
34818 U06:&/Co.
69790 U06:''/_B+1
120974 U06:''/at
62734 U06:''/but
52556 U06:''/in
25928 U06:''/noted
22288 U06:''/said
137620 U06:'/''
143822 U06:'ll/see
78708 U06:'s/Market
90286 U06:'s/Tokyo
117096 U06:'s/a
96040 U06:'s/board
13398 U06:'s/failure
35980 U06:'s/manufacturing
6958 U06:'s/near-record
137284 U06:'s/over
72576 U06:'s/popularity
70980 U06:'s/promise
9002 U06:'s/restated
146160 U06:'s/still
45290 U06:'s/unexpected
141120 U06:'ve/gotten
137494 U06:,/'
22092 U06:,/''
151200 U06:,/Calif.
140462 U06:,/Cambridge
96194 U06:,/East
34160 U06:,/European
140574 U06:,/Mass.
102886 U06:,/Mo.
41944 U06:,/Mr.
26222 U06:,/U.K.
51100 U06:,/``
26656 U06:,/a
108430 U06:,/an
120442 U06:,/and
72296 U06:,/any
110768 U06:,/are
97468 U06:,/attached
77714 U06:,/both
27832 U06:,/but
125706 U06:,/compared
109564 U06:,/declining
122178 U06:,/director
148330 U06:,/discounted
134554 U06:,/down
4382 U06:,/due
18872 U06:,/economists
5306 U06:,/fail
39046 U06:,/given
91000 U06:,/gold
37716 U06:,/he
118454 U06:,/helping
102130 U06:,/in
105252 U06:,/including
133112 U06:,/inter-city
85610 U06:,/keeping
131586 U06:,/leading
146958 U06:,/lecturer
151340 U06:,/less-than-truckload
103054 U06:,/maker
133924 U06:,/or
52934 U06:,/overall
142996 U06:,/pay
114100 U06:,/reflecting
135772 U06:,/rising
35140 U06:,/said
113358 U06:,/scheduled
23002 U06:,/senior
